=== Wi (updated) ===
      0      1         2        3         4        5        6         7        8        9        10      11       12       13       14       15        16        17        18       19        20       21       22       23       24        25       26       27       28        29        30       31        32       33        34        35       36       37       38       39        40       41        42       43       44       45       46       47        48       49
0.195542 0.1573 -0.046218 0.140137 -0.263093 0.072409 0.110744 -0.162085 0.045246 0.201244 -0.00829 0.02329 0.221093 0.001821 0.022764 0.259361 -0.191236 -0.096152 -0.005298 0.712248 -0.087092 0.215995 0.132109 0.062838 0.265086 -0.096846 0.049333 0.085326 0.117132 -0.083082 -0.073181 0.207367 -0.124274 0.053109 -0.122069 -0.213452 0.142581 0.046103 0.101899 0.061353 -0.187394 0.350896 -0.031376 0.048739 0.298423 0.062632 0.035002 -0.12064 -0.066368 0.166209

=== Ui (updated) ===
       0         1         2         3         4         5         6         7         8         9         10        11        12        13        14        15        16        17        18        19        20        21        22        23        24        25        26        27        28        29        30        31        32        33        34        35        36        37        38        39        40        41        42        43        44        45        46        47        48        49
 0.038683 -0.000430  0.047942  0.026582  0.057636  0.047535 -0.014871  0.017653  0.002177 -0.026571  0.128826 -0.025186  0.028510  0.003487  0.023379  0.160585  0.029157  0.142340  0.061247  0.422971  0.017461  0.005973 -0.002211  0.063931  0.097817  0.006084  0.066701  0.193056  0.014319  0.007925  0.101730 -0.056598  0.072305  0.028429 -0.064306 -0.058031  0.017338  0.242960 -0.062665  0.014986 -0.115103  0.236388 -0.121843 -0.004987  0.025402 -0.001909  0.041874 -0.033167 -0.083001 -0.021616
 0.054779  0.049358 -0.008674  0.002691 -0.119720 -0.069170 -0.076241 -0.101145  0.073007  0.069040  0.223621 -0.021139  0.098830  0.129380 -0.060850  0.170189 -0.033219  0.076419 -0.015029  1.016886  0.064289 -0.001125  0.095579  0.154643  0.052891 -0.116390  0.022487  0.231039  0.045135  0.000295 -0.082730  0.101678 -0.045188  0.077946  0.130207 -0.113809  0.037431  0.101514  0.085070  0.047152  0.065259  0.259344 -0.096706 -0.012375  0.079539 -0.115258  0.056901 -0.162764  0.001711  0.194571
-0.028941  0.025378  0.016315 -0.092826  0.002355  0.042271 -0.036838  0.044316 -0.052959  0.091386  0.031762  0.019696  0.024359  0.051166 -0.073506  0.039472 -0.114124  0.100644  0.051578  0.162120  0.138893  0.129362  0.093111  0.098894  0.034170 -0.026154  0.023485 -0.028836  0.115166  0.099341  0.025018  0.041726 -0.009537  0.020916 -0.139423  0.050074  0.079689  0.169286 -0.057762 -0.052475  0.023980  0.138220 -0.099782 -0.045070 -0.047974  0.011697  0.108496 -0.027774 -0.054502  0.008808
 0.013997  0.021277 -0.063363  0.039593 -0.087925 -0.015796 -0.026147 -0.093828 -0.030618  0.000208 -0.028351  0.024654  0.069783  0.064213 -0.051944  0.098925 -0.096949  0.072280  0.057942  0.725737  0.062610  0.158926 -0.066425 -0.072031 -0.100193 -0.056836  0.036135  0.088881 -0.003969 -0.015222 -0.094676 -0.066359 -0.015534 -0.093374  0.084059 -0.060127 -0.008286 -0.144170  0.073644  0.017906 -0.024256  0.025061  0.051513  0.030097  0.106435 -0.114522 -0.175667  0.019866 -0.062006 -0.099542
-0.101561 -0.123332 -0.011689  0.127623  0.129365 -0.055671  0.161003  0.300663  0.054107  0.055058 -0.216259 -0.000939 -0.073072  0.026731  0.122543 -0.073037  0.046349  0.035911  0.150771 -1.075400 -0.043503 -0.084411 -0.093007 -0.122725 -0.068464 -0.146085 -0.015113 -0.283411 -0.030932  0.003118  0.058285 -0.067317  0.067682  0.018415 -0.013743  0.024779 -0.052395 -0.010713  0.078056  0.056136  0.000529 -0.135090 -0.055850 -0.177832 -0.123164 -0.002753 -0.069522  0.123339  0.013548 -0.090294
 0.030585  0.006453 -0.019370  0.073539  0.018514 -0.011247 -0.088849  0.024658  0.069469 -0.074580 -0.032924  0.111926 -0.007204 -0.109763 -0.007338 -0.119909  0.027450  0.068472  0.053299 -0.541440 -0.015759 -0.012971 -0.043383  0.047994 -0.061450  0.032322  0.051000 -0.107572 -0.016491 -0.018074 -0.028788  0.081759 -0.012057 -0.088173 -0.115036 -0.021395 -0.001281  0.102522  0.070849  0.118306  0.025436 -0.238606 -0.029038 -0.051638  0.017886 -0.019886 -0.062232 -0.027683  0.027864  0.033895
-0.035429 -0.040565  0.191159  0.027976  0.124848  0.001866  0.018123 -0.012494 -0.015023  0.064312 -0.043126 -0.011437 -0.087199 -0.099114 -0.081962 -0.085957  0.141502  0.004228 -0.081470 -0.211635 -0.019262 -0.017497 -0.055978 -0.038392  0.069165 -0.117913 -0.006728 -0.020418 -0.150547 -0.035758  0.033093 -0.034228 -0.068085  0.066901 -0.028189 -0.002572 -0.031137 -0.008098 -0.006901  0.134140  0.083012 -0.114196 -0.118250 -0.026807 -0.064045  0.016090 -0.012702  0.027277 -0.068914 -0.027231
-0.099143  0.048618 -0.032899  0.012085  0.134605 -0.001040 -0.071871  0.075328  0.057651  0.078590 -0.105203  0.060625 -0.001095  0.006576  0.036687  0.028973 -0.024988  0.078666  0.075838 -0.049889 -0.202769 -0.009195  0.140142 -0.025601 -0.028724 -0.086058 -0.021728 -0.045364 -0.059414 -0.007955 -0.102953  0.005320 -0.047158 -0.057244  0.010729 -0.025784 -0.015589 -0.082306  0.010593  0.044597 -0.055366 -0.081123 -0.108914 -0.043996 -0.085704 -0.008867 -0.046538  0.031257 -0.004649 -0.043826
 0.113287  0.063415  0.011427 -0.001075  0.054660  0.053587  0.083094 -0.064756  0.056959 -0.048638 -0.218912 -0.050176 -0.042295  0.069721  0.104728 -0.246869  0.058612 -0.057173  0.035731 -1.005713 -0.048871 -0.159852  0.053240 -0.031852 -0.082543  0.163547  0.055989 -0.035307  0.034642  0.012444  0.058481  0.098842  0.110493 -0.086109 -0.043382  0.026704  0.020017 -0.048145  0.077527 -0.021139  0.195451 -0.068551  0.097997  0.069507 -0.192928  0.093688  0.112904  0.023298  0.075740 -0.115005
 0.060788  0.015361  0.102065 -0.092609 -0.047341 -0.027909 -0.130509 -0.096873 -0.098379  0.081055  0.155399 -0.169722 -0.018245 -0.051407 -0.075357  0.163405  0.114959  0.026415  0.072563  0.858306  0.012327  0.001858 -0.167555  0.190008  0.050347  0.097455 -0.131188  0.081687 -0.034179  0.030458 -0.025390 -0.000430 -0.070160  0.014882  0.184728 -0.061214  0.009144  0.118173 -0.050035 -0.022496 -0.056020  0.262544 -0.094145 -0.082198  0.117929  0.013492 -0.026830 -0.028529 -0.038304  0.036378
-0.069981  0.098198  0.191585  0.101649  0.008099 -0.262862 -0.005290 -0.141193 -0.111041  0.153164  0.078968 -0.025386 -0.113920  0.038865 -0.013077  0.062765  0.070398 -0.228280  0.103492 -0.174012  0.005033 -0.091887  0.019041  0.018282 -0.390801  0.065522 -0.007392 -0.000151  0.000764  0.068414 -0.017680  0.016364  0.005341 -0.114533 -0.101348 -0.080500  0.011191 -0.344181 -0.072284  0.085802  0.031551  0.038294 -0.128722  0.075240 -0.081899  0.042401 -0.080435  0.099510 -0.139167 -0.127990
-0.079708  0.049857 -0.045841 -0.067865 -0.048902 -0.045119  0.068373 -0.019776  0.136061  0.111048  0.021241 -0.048658  0.023067 -0.015354 -0.102055  0.114154 -0.012456  0.055464 -0.077456  0.771387  0.057556 -0.027427 -0.098792 -0.098627  0.120708  0.017237  0.056558 -0.026288  0.049018  0.069914 -0.045395 -0.061361  0.092470 -0.092864 -0.079902 -0.003184 -0.076680 -0.000004 -0.039762 -0.048182  0.045662  0.139052 -0.082031 -0.063035 -0.013808 -0.052065 -0.005032 -0.083173 -0.052207  0.025667
-0.095667 -0.008274 -0.006438 -0.007336 -0.023393 -0.108812 -0.065182  0.025581  0.120691  0.010783  0.006564  0.068614 -0.108690 -0.153565  0.092455 -0.093954  0.014038  0.046869  0.062802 -0.689060 -0.170534 -0.134726 -0.030171 -0.077990  0.002002  0.055831 -0.047379 -0.007607  0.075706 -0.141985  0.086179 -0.028501  0.004324 -0.022252 -0.030592  0.177129 -0.044124 -0.207045  0.001799 -0.140291  0.156524 -0.207523  0.136831 -0.020060 -0.130608 -0.018161  0.009458  0.011015 -0.055268 -0.015468
-0.011375 -0.076210  0.044079 -0.102938  0.077610  0.049665 -0.099993 -0.007476  0.024536  0.028133 -0.025300  0.085535  0.024556  0.058578 -0.035393  0.243162 -0.029411  0.096602 -0.006956  0.256614  0.054237 -0.031776 -0.000553 -0.062250  0.119773 -0.004049  0.178876 -0.138112  0.026805 -0.039679  0.011375 -0.009709 -0.065760  0.113738 -0.138867 -0.067154  0.101535  0.080889  0.078376  0.045759  0.010618  0.074096  0.037479  0.078830  0.119533  0.047058 -0.020549 -0.032076 -0.029439  0.042235
 0.038481 -0.058686 -0.190555 -0.033435  0.058496 -0.053939 -0.044351  0.037862 -0.020224  0.028478 -0.116598 -0.064409 -0.003413 -0.174133 -0.081114 -0.120531 -0.049875  0.088871  0.024267  0.389804  0.058649 -0.093824 -0.068286  0.051216  0.062412 -0.080969 -0.068420  0.111417  0.056456 -0.066045 -0.041094  0.013839  0.001329  0.141933 -0.017729 -0.109351 -0.019055  0.151264 -0.040312 -0.025707 -0.096270  0.089246 -0.120879  0.053035  0.010406  0.135162  0.006944 -0.003059  0.080051  0.095463
-0.014570  0.021031  0.110170 -0.071427 -0.018691 -0.033688  0.137632 -0.060067 -0.041103  0.117016 -0.030565  0.092485  0.160429  0.001966  0.000340  0.042364  0.068005 -0.104240  0.054214 -0.403157 -0.054010  0.148178  0.095924  0.066071 -0.288055  0.147162  0.132025  0.009796  0.037909  0.039904  0.028540  0.016612 -0.106085 -0.127172 -0.075459 -0.079816 -0.011881 -0.301317 -0.033486 -0.085411 -0.064985  0.144436 -0.059143 -0.097606  0.173781 -0.007283  0.073128 -0.016706  0.030508 -0.108380
-0.000246  0.159163 -0.057359 -0.096776  0.152608  0.108119  0.029763 -0.013560  0.019993 -0.136421  0.081924  0.012282  0.026726  0.055689  0.162625  0.101474 -0.166450  0.059888 -0.043693  0.167701 -0.036174  0.053304  0.047674  0.032173  0.188270  0.036890  0.083129  0.012632 -0.023197 -0.045261 -0.071323  0.055982  0.024152 -0.027168 -0.019594  0.014703 -0.025822  0.055825  0.000394  0.031194 -0.134690  0.083486  0.026082 -0.019560 -0.010287 -0.007280  0.028266  0.180449 -0.025300 -0.111131
 0.182793  0.010777 -0.029401  0.006151  0.035184  0.006494 -0.172713 -0.165221  0.034437  0.032467  0.286313 -0.247851 -0.098080  0.058079 -0.047157  0.261334 -0.017694  0.241098 -0.041383  1.397912  0.017434  0.156447  0.033147  0.107515 -0.063049 -0.017979  0.172186  0.056342  0.104389  0.074171  0.081510 -0.023344 -0.188050  0.116647 -0.006867 -0.081925 -0.066990  0.072183 -0.010530 -0.111346 -0.170757  0.308419 -0.064602 -0.031742  0.105117 -0.093228 -0.099729 -0.042667  0.061002  0.182704
-0.024032  0.031496  0.099427 -0.039136 -0.016905  0.016362  0.012850 -0.022207 -0.082619 -0.004986  0.128279 -0.196815 -0.098662 -0.068859 -0.028387  0.122319  0.021881  0.128954 -0.040959  0.976241 -0.033581 -0.008013 -0.046096 -0.022800  0.070518 -0.166147 -0.031808  0.036079  0.020718 -0.058722 -0.080184 -0.076709 -0.081978  0.031999  0.117417 -0.069007 -0.142353  0.019714  0.076262  0.033190 -0.028810  0.209429 -0.172545 -0.037432  0.052237 -0.085765  0.045826 -0.005240 -0.087280 -0.003908
-0.203191  0.032697 -0.003921  0.125696 -0.077259 -0.057159  0.045695 -0.174774 -0.027471 -0.091619 -0.146651  0.067871  0.025613  0.066700  0.032201 -0.319216 -0.058859 -0.118755  0.066665 -0.417337 -0.130149 -0.075035  0.147987  0.005494 -0.026808 -0.034891 -0.002495 -0.017151 -0.065087  0.021389  0.041249 -0.040001  0.085154  0.030590 -0.044710  0.090481  0.043742 -0.193829  0.014688 -0.086747  0.052607 -0.148936  0.077701  0.004037  0.013925  0.230552  0.024466  0.021481  0.070206 -0.067938
 0.056049  0.021636  0.033520 -0.120119  0.030502 -0.042830 -0.016245 -0.037394  0.012799  0.098964  0.132450  0.044945  0.059179 -0.063670 -0.031508  0.184201 -0.138774  0.172791 -0.115828  0.741086  0.072619  0.084660 -0.198333  0.070794  0.005450  0.155662 -0.064894  0.053887 -0.007378 -0.009244 -0.046494  0.031002  0.020706  0.031297 -0.104914 -0.098345  0.062344  0.134190 -0.015720  0.108863  0.075259  0.162232  0.014530 -0.008758  0.067146  0.093157 -0.038308  0.053074 -0.039306 -0.018363
-0.016613 -0.037523  0.042662  0.029446  0.015583  0.007127  0.014880  0.130215 -0.015521 -0.107456 -0.146532 -0.046181 -0.026211 -0.077222  0.130568 -0.130221 -0.169004 -0.062775 -0.057553 -0.961682 -0.004712 -0.086381  0.055765 -0.154856 -0.190828  0.065636 -0.028472 -0.115393 -0.044277 -0.048340  0.035974  0.027496 -0.086042 -0.013610 -0.073270  0.063029 -0.007955 -0.236250 -0.004253 -0.075726  0.157609 -0.174510  0.056126 -0.027940 -0.039237 -0.053770  0.060729  0.122703  0.074492 -0.111477
 0.036853  0.021415  0.083597 -0.031855 -0.146586 -0.025988  0.076499 -0.060859 -0.003026  0.004702  0.154222  0.045476 -0.074274  0.059189 -0.000011  0.042797 -0.026083 -0.037141 -0.035596  0.968053 -0.089882  0.077515 -0.113809  0.153357  0.033231 -0.028598 -0.021371  0.095139  0.046531 -0.058702  0.098083 -0.135768  0.094399 -0.035333 -0.096812  0.010731  0.006677 -0.005457 -0.015833 -0.027657 -0.112801  0.066637 -0.134275 -0.103201  0.062112 -0.101804 -0.081673  0.011691  0.101701  0.010899
 0.121111 -0.088692  0.013019  0.005614 -0.071474 -0.236210  0.013280 -0.128395 -0.014362  0.188107  0.081935  0.037475  0.127107  0.051353  0.016798  0.218146  0.037215  0.137309  0.044011  0.777414  0.194862  0.077419 -0.043925  0.026898  0.122725 -0.098975 -0.100402 -0.008764 -0.041687 -0.069770 -0.017699 -0.046780  0.097561 -0.015349 -0.018769 -0.062803  0.074240  0.051325  0.084778  0.037719 -0.090036  0.215899  0.012879 -0.043670  0.085144 -0.081020 -0.172184  0.089547 -0.030770  0.125013
-0.190381 -0.019541 -0.071553  0.072704  0.134253 -0.004553  0.119213  0.137437 -0.016044 -0.144580 -0.188395  0.086652  0.191666 -0.005927  0.037738 -0.303470  0.086729 -0.229671 -0.028084 -1.228370 -0.095789 -0.114290  0.082926 -0.139194 -0.026104  0.072023  0.024843 -0.040344  0.107367 -0.083739  0.180627  0.149344  0.161172 -0.101612 -0.079444  0.066603  0.041621 -0.037735 -0.068010  0.030996  0.079539 -0.290124  0.101442 -0.008732  0.049717 -0.080309  0.043984  0.039871  0.082467 -0.018507
-0.024459 -0.000559 -0.024220 -0.053073  0.109511 -0.007230  0.096173  0.092527 -0.043390 -0.055153 -0.011941  0.074924 -0.131981  0.061511  0.064835 -0.077946 -0.056764 -0.073399  0.075428 -0.517307 -0.035186 -0.077412 -0.066936 -0.119511 -0.044304  0.116936  0.079369  0.085848 -0.135116 -0.120063  0.045424  0.010899  0.021150 -0.050736  0.057935 -0.033070 -0.025886 -0.082334 -0.018172  0.011208  0.035869 -0.074483 -0.083613  0.079064  0.115874  0.028702  0.051084 -0.034172 -0.019299 -0.096697
 0.132124  0.052647 -0.097431 -0.084057 -0.099302 -0.036008  0.093607 -0.188630 -0.082921  0.107129  0.123596  0.040347  0.020714 -0.052219 -0.023033  0.038738 -0.068040  0.004158  0.023722  0.688658 -0.060959  0.039347  0.003251 -0.050867  0.050044  0.001905  0.015933  0.041267 -0.030366  0.055762 -0.022368  0.074778 -0.129019  0.058741 -0.119580 -0.047674 -0.010188  0.058890 -0.027203  0.057819 -0.026452  0.266538  0.058419  0.008715  0.087852  0.088993 -0.092595  0.041892  0.018551  0.085264
-0.004305 -0.037737 -0.032477  0.067905 -0.127081 -0.069066 -0.012208 -0.089734 -0.037153 -0.118104 -0.014096 -0.007008  0.000992 -0.064201 -0.034555 -0.127582 -0.142907 -0.097768  0.048392 -0.548350  0.040256 -0.041394  0.033249  0.048004  0.044366 -0.009805 -0.050754 -0.007108  0.040655  0.051377  0.034020  0.097638  0.086724  0.019806  0.014929  0.013434 -0.076827 -0.140314  0.085862 -0.079584  0.092582 -0.214172 -0.031368  0.014791  0.027427 -0.109229  0.025621  0.092323 -0.013614 -0.000173
 0.053875  0.059783  0.103902 -0.005385 -0.131660  0.123019 -0.168737 -0.044605 -0.009603  0.154538  0.087137  0.096013 -0.023641  0.034512  0.016023  0.180337  0.088446  0.150755 -0.107717  0.950453 -0.038053  0.021221 -0.052347  0.237644  0.174440  0.074740  0.089019  0.081543  0.066804  0.046510 -0.173744  0.001413 -0.014430  0.008003 -0.040180 -0.144691 -0.020831  0.228216  0.090812  0.100396 -0.081954  0.199882  0.051809 -0.040930  0.042319 -0.094494 -0.066350  0.004764 -0.071254 -0.024406
-0.052489  0.083674 -0.025954 -0.025605 -0.121186 -0.096261 -0.021533 -0.088989 -0.140138 -0.123719 -0.001699 -0.048837 -0.107539 -0.024178 -0.144979 -0.105494  0.063239 -0.087114 -0.109990  0.148806 -0.020692 -0.026884 -0.056524 -0.105703  0.045187  0.044068  0.065949  0.004173 -0.004241 -0.023074 -0.023640 -0.032674  0.020487 -0.008825 -0.067409 -0.146262 -0.128491 -0.263387 -0.022587 -0.136471 -0.077807  0.066228  0.170318  0.046728  0.081076 -0.042929 -0.000639 -0.059170  0.073750 -0.139613
 0.034693  0.060974  0.028144  0.061542 -0.059326  0.107181 -0.048089 -0.092469  0.062631  0.142245  0.197643  0.106711 -0.094066  0.063307  0.052161  0.174373  0.019432  0.168523 -0.114425  0.738851  0.048305  0.013068 -0.071006  0.036511  0.015899  0.160026 -0.122313  0.089412  0.104497 -0.002148 -0.133160  0.005696 -0.017068  0.064656  0.082239 -0.058037 -0.032208  0.123133  0.157976 -0.067697  0.050887  0.057168 -0.069361 -0.066215  0.103540 -0.056676  0.075271  0.009973  0.095963  0.061577
-0.215789 -0.033990 -0.107660  0.052813 -0.075725  0.036652  0.061351  0.099468 -0.053843 -0.163766 -0.277076  0.128915 -0.087407  0.053645  0.075930 -0.065269  0.073587 -0.140580  0.046073 -0.921210 -0.074777 -0.198446  0.111139 -0.068868 -0.049245  0.151693  0.015083 -0.054296 -0.019096 -0.059140  0.069498 -0.005447  0.007743  0.040666  0.048040 -0.028245 -0.023892 -0.156789  0.015531 -0.088445  0.001780 -0.126059 -0.248463 -0.042770  0.052405  0.018994 -0.216397  0.116821  0.001833 -0.096396
-0.065306 -0.060508 -0.098487 -0.045788 -0.039106 -0.040831  0.052009 -0.018751  0.061521 -0.245236  0.035366 -0.038415 -0.042543  0.128217  0.123352 -0.015155 -0.012851 -0.147959 -0.001977 -0.216460  0.038340  0.064543 -0.014339 -0.130362 -0.001166 -0.060121 -0.102918  0.043267 -0.081160 -0.018145  0.063772 -0.032582  0.015480 -0.130175  0.009996 -0.075347  0.066446 -0.109326 -0.083081 -0.102239  0.080332 -0.021625  0.013316  0.059471 -0.086353 -0.081401  0.112807 -0.000824 -0.068663  0.133429
-0.104479  0.008355  0.064407 -0.029903  0.040856 -0.091617 -0.029928  0.012582  0.043573 -0.173094 -0.315582  0.076421  0.003760  0.048537 -0.025837 -0.328329 -0.092944 -0.059199 -0.030930 -1.312531 -0.108075  0.020200 -0.012584 -0.079891 -0.087389 -0.101547  0.042112 -0.090495 -0.001149  0.133985  0.025093 -0.068730  0.036887 -0.105698 -0.041117 -0.068777  0.066382  0.028778  0.172777 -0.073270 -0.014790 -0.149404  0.069937 -0.077445 -0.134948 -0.019488  0.133544 -0.023078 -0.001958 -0.059889
-0.032269 -0.028315  0.017407  0.091950  0.001865 -0.065264  0.092769 -0.019004  0.153671 -0.049461 -0.267453 -0.171018  0.112893 -0.047430 -0.087911  0.002634 -0.065103 -0.078205  0.037100 -1.198853 -0.170379 -0.078225 -0.045280 -0.020588 -0.095517  0.001932 -0.147018  0.010413 -0.105962 -0.047329 -0.114501 -0.131476  0.041627  0.048500  0.075284  0.063751 -0.028809 -0.061649 -0.097862  0.012680  0.041561 -0.127764  0.020770 -0.130506 -0.121152  0.077070  0.041523  0.096591 -0.139828 -0.170420
 0.048568 -0.038755 -0.046856  0.011993  0.056146 -0.034099 -0.005744  0.011783 -0.019104 -0.014434 -0.115327 -0.121744  0.024504  0.105371 -0.091520 -0.020717  0.230920 -0.024542  0.067978 -0.974950  0.012135 -0.025411  0.095954 -0.102207 -0.121631 -0.023308  0.058880 -0.005365 -0.181817 -0.030656  0.103391 -0.059676  0.082361 -0.040535  0.007807  0.050985 -0.115792 -0.096544  0.055426  0.027593  0.048374 -0.156088  0.038749  0.011358 -0.076150  0.039570  0.025853  0.154196  0.035756 -0.056238
 0.052039 -0.122176  0.109311 -0.067239 -0.042701  0.089167  0.109218 -0.095803 -0.128255 -0.127279  0.036457 -0.052418 -0.022057 -0.032281  0.056904 -0.062816  0.049617 -0.111259  0.052848 -0.664057 -0.120423 -0.026147  0.162299 -0.013667 -0.135964 -0.003657 -0.011847 -0.056252 -0.077199 -0.139256  0.085428  0.136574 -0.046850 -0.054388 -0.016167 -0.018184  0.005428 -0.225334 -0.170244 -0.145337 -0.103655 -0.051590 -0.014887  0.013099 -0.097573  0.006801 -0.171748  0.091087  0.078212  0.030900
-0.069825 -0.055444  0.113522  0.136395  0.018938  0.029947  0.670514  0.255801 -0.086850 -0.262847 -0.465751  0.116177 -0.138773  0.125869 -0.069116 -0.384762  0.209863 -0.106485  0.275426 -1.305623 -0.020696 -0.055980  0.506476 -0.093539 -0.067140  0.025431 -0.007169 -0.068679 -0.090476 -0.058651  0.065897 -0.159960  0.128581 -0.042413  0.022655  0.245254 -0.015952 -0.115207 -0.012248  0.047443  0.129068 -0.109354  0.173384 -0.072000  0.113477  0.012552  0.100490  0.571501  0.033158  0.039833
 0.148125  0.122261  0.119167 -0.122252 -0.018569  0.037212 -0.014806 -0.022451  0.011490  0.173792  0.082268 -0.037933 -0.101694 -0.009477 -0.061540  0.032166 -0.154786  0.177418 -0.047044  0.625118  0.120825  0.001070  0.087932 -0.019465  0.150500  0.018863 -0.018248  0.034227 -0.038566 -0.049603  0.041738 -0.013376  0.063863 -0.046321 -0.046319 -0.014455  0.117336  0.011677  0.016879  0.046873 -0.023410  0.070510 -0.044149 -0.041457 -0.052112 -0.015678 -0.094883 -0.113411  0.096602  0.013354
-0.112945 -0.040312 -0.042827  0.081505  0.171696 -0.012564  0.090020  0.062782 -0.070011 -0.133145 -0.018122 -0.017394  0.053340 -0.053367 -0.044198  0.026596  0.077479  0.106923 -0.043300 -0.799682  0.005625 -0.102252  0.215028  0.018235  0.007415  0.113068 -0.135036 -0.047137 -0.191697  0.033522  0.087390  0.040195  0.078571 -0.054519  0.119690 -0.105061  0.019574 -0.116679  0.047101  0.180927  0.052682 -0.201537  0.132638 -0.049369 -0.130845 -0.018769  0.135408  0.196740  0.006611  0.036143
-0.138138 -0.164333 -0.012143 -0.065597  0.018598 -0.122560  0.134499 -0.152303  0.036586  0.094467 -0.073304  0.069472 -0.064340  0.036575  0.078606 -0.169416  0.158893 -0.058045 -0.009729 -0.770800 -0.005029 -0.048558  0.021778 -0.057494 -0.118746 -0.006739 -0.021167  0.085116 -0.095067 -0.086306 -0.051147 -0.064786 -0.015929  0.214652 -0.007031  0.032887 -0.008426 -0.161242  0.113432 -0.037438 -0.047589 -0.095829 -0.002583 -0.172726 -0.095499 -0.027418  0.132248 -0.028984 -0.268759  0.036454
-0.026067  0.054146  0.047880  0.083107 -0.012022 -0.059597  0.218208  0.187584  0.030401 -0.105120 -0.153071 -0.022856 -0.025916 -0.097687 -0.034895 -0.291621  0.044447 -0.059362  0.062240 -1.092783 -0.195066  0.039590  0.237146 -0.119403 -0.077400  0.089572  0.103844 -0.015524 -0.191666 -0.140577 -0.004439 -0.136899  0.056015  0.084288  0.015735  0.052491 -0.112274 -0.094369 -0.023621  0.023047  0.081156 -0.347874 -0.042249 -0.015857 -0.107173  0.032551  0.030425  0.093985  0.066223 -0.144038
-0.003380 -0.109967  0.072201 -0.093809 -0.065160  0.033239 -0.014356 -0.135658  0.128029 -0.041036  0.188513 -0.007216  0.011817 -0.123879  0.077130  0.183096  0.088359  0.201094 -0.033943  0.609901  0.083266  0.061053  0.043792  0.043047  0.039066  0.050916  0.026075 -0.029437 -0.048180  0.026857 -0.022120  0.108337  0.079853  0.176658  0.093876  0.050268  0.007337  0.168240  0.047630 -0.002888 -0.012951  0.055425  0.024631 -0.093097  0.086105 -0.000139 -0.092710 -0.052730  0.011585 -0.031061
 0.060747  0.143036 -0.047244 -0.088453  0.030348  0.113692 -0.155937  0.016171 -0.080146  0.092837  0.233018 -0.033317  0.132870 -0.048488  0.052639  0.194882  0.146551  0.023545  0.024489  0.881272 -0.008387  0.015054 -0.025894  0.090069 -0.059643  0.019074  0.116692  0.164966 -0.025871  0.203541 -0.046968  0.023688 -0.084038 -0.033844 -0.183901 -0.150223  0.054712  0.130571  0.089382 -0.021425 -0.043797  0.160586  0.089312 -0.097712  0.142573  0.067453 -0.025418 -0.197568 -0.061429  0.053054
 0.081679  0.053574  0.177032 -0.109111  0.054029  0.065964 -0.138633 -0.037824 -0.121924  0.156412  0.222101  0.032693  0.005030  0.071983 -0.077409  0.341202 -0.029380  0.050457  0.171952  0.854506  0.116973 -0.004194  0.023613 -0.017212  0.049277 -0.017299  0.102896  0.005478 -0.041657  0.123783 -0.008343  0.120050  0.094735  0.000118 -0.008415  0.090313  0.118230  0.100559 -0.034230  0.044648 -0.046658  0.248724 -0.125667  0.021035  0.057898 -0.133730 -0.071124 -0.038774 -0.021748 -0.047613
 0.109953  0.130910 -0.032857  0.047741 -0.230520  0.135510 -0.198389 -0.203457  0.085135  0.221670  0.174266 -0.045894  0.004071  0.024587  0.071838  0.162162 -0.183111  0.029630 -0.135891  0.887525 -0.033585  0.030886 -0.017927  0.083435  0.150959  0.024303  0.096359 -0.010878  0.001155  0.060953 -0.061084  0.055153  0.002336  0.123730 -0.085065 -0.042800  0.045912  0.290480  0.123591  0.146508 -0.030079  0.079513  0.021194  0.047754 -0.011963 -0.023041  0.062695 -0.321608 -0.071968  0.038630
 0.140549  0.035104 -0.010183 -0.061369  0.027290  0.043173  0.097048 -0.110416 -0.071377 -0.046177  0.088241  0.062133  0.143933 -0.113268  0.096661 -0.133320  0.065344 -0.083159 -0.087760 -0.337784  0.118860 -0.024181 -0.039037  0.069271  0.079949  0.102189  0.034015 -0.063120  0.079167  0.119641 -0.011375 -0.063947  0.118777 -0.013937  0.031078 -0.045406 -0.111064 -0.194835  0.016533  0.135966 -0.039174  0.048238 -0.097755  0.044234 -0.002215 -0.145214 -0.031664  0.043250 -0.021948  0.039303
 0.017465 -0.010686  0.054977 -0.045839 -0.039608  0.027873 -0.061560 -0.047644 -0.072663  0.019711 -0.000104  0.103842  0.131395  0.051351  0.093594 -0.039708 -0.008767 -0.112826 -0.002673 -0.148239  0.012407  0.183385 -0.038659  0.074816 -0.030668  0.077796  0.081508  0.123258  0.005626  0.002571  0.025057  0.112633 -0.005465 -0.015681 -0.099817  0.064473 -0.037627  0.059721  0.019130 -0.030441  0.088922  0.079561  0.093480  0.043060  0.032130  0.030962  0.003127  0.137596 -0.027573 -0.006813
 0.190167 -0.034217 -0.026157 -0.153418  0.142213  0.094949 -0.089394 -0.026905  0.060959  0.159443  0.129600 -0.155587 -0.090052  0.045545 -0.028463  0.260111 -0.039176  0.160649 -0.035253  0.652955 -0.028773  0.084839 -0.106268  0.078995  0.090530 -0.064096 -0.099810  0.099642  0.200738 -0.039854 -0.106241 -0.092903 -0.043411  0.072175 -0.006236 -0.080518 -0.005828  0.101708  0.041570  0.011816 -0.054645  0.126403  0.153677  0.018223  0.045678  0.029920 -0.008906 -0.122000  0.052323  0.198991
-0.093242 -0.024676  0.083024  0.122972  0.059276 -0.018613  0.074175 -0.047667 -0.029592 -0.130853 -0.151981  0.067011 -0.091989 -0.128584  0.025101 -0.145820  0.020008 -0.074403 -0.009221 -0.477617 -0.114879  0.038868  0.029091 -0.143167 -0.077180  0.039626  0.027215 -0.052288 -0.032870 -0.041466  0.167817 -0.036885 -0.016532 -0.048504 -0.038091  0.068536 -0.216655 -0.205163 -0.003901 -0.029977  0.046423 -0.165707 -0.048823  0.020620 -0.090660 -0.031397 -0.093803 -0.008377 -0.126703  0.021069

=== bi (updated) ===
        0
 0.067791
 0.060497
-0.005565
-0.014622
-0.047615
 0.031714
-0.043136
-0.025420
-0.020129
 0.018334
 0.117690
 0.015879
 0.019644
 0.015765
 0.016574
 0.108104
-0.023168
 0.045054
-0.032709
 0.879215
 0.015370
 0.042854
-0.029122
 0.076281
-0.014801
 0.022912
 0.024980
 0.039458
 0.058110
 0.022078
 0.016467
 0.018884
 0.004832
-0.013305
-0.031583
-0.044382
 0.020604
 0.024185
 0.028889
-0.005903
-0.000698
 0.108766
 0.010697
 0.063551
 0.054228
 0.019022
-0.004202
-0.040706
 0.001232
 0.080882

=== Wf (updated) ===
      0        1         2         3        4       5         6         7         8        9        10      11       12       13        14       15        16        17       18        19      20      21       22       23       24        25       26       27      28        29        30       31        32       33        34        35       36       37       38       39        40       41       42        43       44       45       46       47       48        49
0.067015 0.065944 -0.162831 -0.138408 0.009164 0.13187 -0.050112 -0.103644 -0.096006 0.013844 0.140026 0.14191 0.004847 0.091836 -0.041615 0.215068 -0.079762 -0.038507 0.125341 -0.016515 0.12461 0.19119 0.132053 -0.01655 0.192227 -0.131703 0.198983 0.105358 0.05939 -0.105058 -0.088061 0.190093 -0.144432 0.005469 -0.128112 -0.173504 0.160871 0.243006 0.067563 0.013586 -0.002683 0.309356 0.009751 -0.086003 0.229962 0.020991 0.112601 0.104257 0.018519 -0.141234

=== Uf (updated) ===
       0         1         2         3         4         5         6         7         8         9         10        11        12        13        14        15        16        17        18        19        20        21        22        23        24        25        26        27        28        29        30        31        32        33        34        35        36        37        38        39        40        41        42        43        44        45        46        47        48        49
 0.063441  0.118097 -0.156981  0.133936  0.054193  0.013054 -0.055748 -0.022382 -0.183058  0.188520  0.002712  0.045918 -0.102994  0.053644  0.039849  0.116523 -0.006909  0.150247 -0.057386 -0.003674  0.125921 -0.026797 -0.047031  0.146972  0.127159  0.087030  0.074908 -0.120434  0.014881 -0.027831  0.039569  0.076749  0.109861  0.089218  0.007796 -0.100899  0.051147  0.162173  0.024218  0.039175  0.006100  0.108715 -0.002749  0.053608  0.079840  0.038952 -0.017266 -0.021024  0.037900 -0.088375
-0.112281  0.021655  0.036158 -0.048230  0.113271  0.051389 -0.034965 -0.065399 -0.067517 -0.072410  0.164424  0.125101  0.080375  0.070712  0.042776  0.125665  0.102989  0.048313 -0.044902 -0.482391  0.108499  0.074836  0.075391  0.043360 -0.038381 -0.089881 -0.086246  0.010471 -0.080306 -0.024566 -0.009534 -0.039663  0.057554  0.057955 -0.002694  0.014886 -0.053976  0.143384  0.023114 -0.008082 -0.033012  0.121035  0.080756 -0.049504  0.011564 -0.031119 -0.046519 -0.191418 -0.013686  0.129948
-0.108136  0.076918 -0.003681  0.055109 -0.037468  0.179830  0.119121  0.138224 -0.078972 -0.003584  0.120104  0.013269  0.022665  0.069167 -0.113664  0.059021 -0.117135  0.081099 -0.045091 -0.066952 -0.032140 -0.020585 -0.051970  0.089467  0.136832 -0.069738  0.042626  0.029360  0.004275  0.165016  0.049883  0.125055 -0.023721  0.056505 -0.053389  0.086674 -0.008196  0.103587 -0.033041 -0.093920  0.023090  0.172709  0.015238  0.058302 -0.045242  0.036463 -0.036383 -0.040395 -0.058928  0.059876
-0.135046 -0.051294 -0.117182 -0.081505  0.056921  0.045375  0.031822  0.057657  0.025913  0.033164 -0.066237 -0.115637 -0.003568 -0.044179 -0.034363  0.062641 -0.014152  0.017689  0.058677 -0.264600 -0.054530 -0.027222 -0.019122  0.017024 -0.008993  0.094561  0.019010 -0.073254 -0.027198 -0.039740 -0.117090  0.111228 -0.112596  0.047728  0.048615 -0.009227  0.085185  0.073325 -0.090469 -0.051425 -0.105044 -0.069751 -0.021097 -0.078999  0.161587  0.036340  0.035280 -0.015783  0.167162 -0.069191
 0.041343 -0.067774 -0.092004  0.082507  0.031336 -0.096399 -0.087293  0.178349  0.040201 -0.042058  0.026902 -0.127854 -0.062867  0.150410 -0.078315 -0.042600  0.039904 -0.090621 -0.032384  0.463242  0.007371 -0.032529  0.009712 -0.080685 -0.182025  0.051991 -0.073189 -0.065697  0.080927 -0.069356  0.060405  0.002302  0.051555 -0.033980  0.039908  0.082153  0.148328 -0.003996  0.107992 -0.004590 -0.145346 -0.046166 -0.011916 -0.108598  0.110565 -0.046763 -0.013224 -0.060574 -0.017039  0.059753
-0.002676  0.165428 -0.009956  0.062126  0.000354 -0.056373  0.007610 -0.000433  0.132416 -0.048901  0.138881 -0.066470  0.095380  0.000184  0.158564  0.025919 -0.168416  0.022178  0.006203  0.507232 -0.022518  0.071521 -0.137333  0.001526 -0.091733 -0.059402 -0.032176  0.114598  0.012201  0.049433  0.113407  0.025697  0.015549  0.064844  0.035675 -0.033971  0.097755  0.198253  0.093635  0.037839  0.045163 -0.010398 -0.036519 -0.026801  0.033950  0.117915  0.072636  0.055675  0.024327  0.072841
-0.102040 -0.098546 -0.130163 -0.098636  0.202178  0.019321  0.026320 -0.071886 -0.053381 -0.057785  0.088497 -0.044519  0.125241  0.062815 -0.055206 -0.014678 -0.032328  0.036558  0.169623  0.207187 -0.067480  0.011398  0.001572 -0.053754 -0.007961 -0.045881 -0.131380 -0.046271  0.003430  0.015058  0.039954 -0.027901  0.049642  0.071513 -0.065304  0.109071 -0.045117 -0.061709  0.043052  0.107269  0.001761 -0.004596 -0.007101 -0.137565 -0.079931  0.019260  0.032808 -0.057218  0.121053 -0.053757
 0.030968 -0.057296  0.014981 -0.066184 -0.065994 -0.076421 -0.059344 -0.083131 -0.011627 -0.021810 -0.015654  0.023369 -0.086179 -0.113273 -0.169950  0.055840 -0.043048  0.062062 -0.053335  0.261527  0.001022 -0.071168  0.016970  0.125968 -0.070997  0.046255 -0.116660  0.119295  0.079217 -0.028132 -0.225356 -0.045439 -0.039345  0.048395 -0.036097  0.044766  0.015948 -0.048532  0.074643  0.078253  0.005422 -0.098047 -0.002774  0.022798 -0.206994  0.005781 -0.064674  0.053518 -0.071915 -0.017544
 0.021621  0.040085 -0.010094  0.012160  0.027721 -0.014750  0.087707  0.064568  0.106735 -0.039866 -0.031327  0.086117 -0.009471 -0.021785  0.077504 -0.089926  0.034131 -0.145077  0.072544  0.367005 -0.087547  0.033770 -0.104832  0.057271  0.032391  0.039944 -0.140284  0.108022  0.163627  0.018807 -0.044482  0.170785 -0.134369  0.068830 -0.169770 -0.078127  0.140698  0.090078 -0.064493 -0.067041 -0.050330  0.080183  0.080631  0.111877 -0.113082  0.041800  0.028426 -0.071850  0.146260  0.108225
-0.052675 -0.067633 -0.002119  0.068597 -0.175662 -0.061808  0.134625  0.055669  0.013602  0.120438  0.101810 -0.100244  0.105471 -0.076945 -0.057594  0.123595  0.021105  0.014067 -0.010601 -0.374236  0.031750  0.108765 -0.137912 -0.169335  0.081258  0.014187  0.037694  0.056616 -0.102717 -0.150479 -0.101164 -0.124322 -0.011388  0.074515  0.161962  0.077784 -0.034219  0.102827 -0.144309 -0.082701 -0.059192 -0.008531 -0.092463 -0.058826  0.030452 -0.078424 -0.009698 -0.031843  0.045833  0.004184
 0.084352  0.210609 -0.044648 -0.106880 -0.044118 -0.087972  0.041418 -0.018644 -0.211067  0.114737 -0.069198 -0.074234 -0.025305  0.005015  0.072873 -0.001562 -0.027173 -0.273942  0.076304 -0.278030  0.092489  0.086435  0.092248  0.043741 -0.278806  0.162768  0.013636  0.005507 -0.107099 -0.061268 -0.015512  0.024579  0.036319 -0.106689 -0.076177  0.047036 -0.020387 -0.538265  0.041159 -0.092554  0.131744 -0.031833  0.138806 -0.044478  0.067070 -0.053326 -0.111216 -0.001239 -0.052313  0.027538
-0.005676  0.021874  0.086142  0.020357  0.082523 -0.064012 -0.085304 -0.124646 -0.057876  0.092595  0.133112 -0.076526  0.023054  0.027242  0.070282  0.207982  0.050979  0.028761 -0.111524 -0.294838 -0.114026  0.118593 -0.038495  0.069751  0.163818 -0.018330  0.014852  0.081117  0.089574  0.015922  0.095791  0.037239 -0.089703  0.016327  0.042444  0.049252 -0.034015  0.032803 -0.049528  0.061253  0.021389  0.088221  0.092976  0.095033  0.032509 -0.037586  0.019396 -0.049978  0.036254  0.000423
-0.040272  0.043575  0.029129  0.122564  0.053259  0.028385  0.076653  0.014669 -0.101554 -0.114780 -0.143585  0.047468 -0.077838 -0.025106  0.031600  0.092812  0.082015 -0.065341  0.041121  0.473349 -0.123956  0.060616 -0.007767  0.003453 -0.004043  0.062532 -0.035846 -0.012967  0.072959  0.004108  0.061346 -0.091064  0.093849 -0.006773 -0.038588  0.026162  0.053542 -0.055344 -0.006659 -0.153870  0.022790 -0.167082 -0.167592 -0.029273  0.056179 -0.009192  0.079823 -0.019902  0.017908  0.057511
 0.032323  0.102250 -0.031230 -0.005990  0.102913 -0.031579  0.034863 -0.047639  0.070326 -0.070192  0.073225  0.016258 -0.023200 -0.092524  0.020335  0.019332 -0.013333 -0.000058 -0.037781  0.019824 -0.070252 -0.024955 -0.044851  0.052652  0.064377  0.122617 -0.070164 -0.060956 -0.019837 -0.027444 -0.051139  0.043232  0.107329 -0.047687 -0.097756  0.030537 -0.014569  0.052610  0.039607  0.080742 -0.109719  0.078070  0.017053 -0.057451 -0.046424  0.026492 -0.158159  0.011968  0.085792  0.072663
 0.057200 -0.093420 -0.088076 -0.014587 -0.038385  0.057534 -0.040755 -0.076717  0.051540 -0.008237  0.042227  0.046756 -0.095506  0.002826 -0.018448  0.162863  0.082162  0.074226  0.012291 -0.226643 -0.069939  0.048707  0.066654  0.007402  0.062715  0.027073  0.017789  0.027353 -0.086745 -0.076759 -0.008264  0.151172 -0.069826  0.118526 -0.006173 -0.005548  0.009025 -0.024471 -0.144329  0.050152 -0.079581  0.077258 -0.093239  0.012526  0.138094  0.077821 -0.069084 -0.044064  0.124587 -0.019264
-0.121514  0.198218  0.109240 -0.089275 -0.037408 -0.176502  0.047739  0.004721 -0.322886 -0.094052  0.068970  0.140705  0.106876 -0.001820  0.054613  0.100655  0.102647 -0.328635  0.129640 -0.087751 -0.114953  0.056098 -0.001580  0.087000 -0.308356 -0.071073  0.131834  0.023997 -0.029509 -0.096137  0.148185 -0.002667 -0.105604 -0.095492 -0.126071  0.000050  0.035503 -0.367214  0.092311 -0.008619 -0.076089  0.179373  0.059260 -0.097648  0.044482  0.044303 -0.003876  0.045862 -0.011898  0.046481
-0.035360 -0.008631 -0.045145 -0.118679  0.011788 -0.107270  0.030213  0.043572  0.028630 -0.054811  0.009154  0.024248 -0.088879 -0.083830  0.096249 -0.006455  0.098156 -0.010040  0.007529 -0.150666 -0.059673  0.200386 -0.148571 -0.023345 -0.025392  0.014744  0.083703  0.025902 -0.142980  0.005007  0.172182 -0.067307 -0.033005 -0.149663 -0.173058 -0.058590  0.070003  0.005195  0.154316  0.040611  0.068220  0.131473  0.059430  0.087984  0.038253 -0.101917 -0.065054  0.015261 -0.097777 -0.000157
 0.017232 -0.007521  0.138597  0.001668 -0.029193  0.031211  0.082161 -0.114458 -0.005300  0.159013 -0.102278 -0.120908 -0.004131  0.069248  0.024094 -0.041396 -0.060992  0.050460  0.146859 -0.447773 -0.034125 -0.093274  0.094141 -0.064449 -0.117615  0.014322 -0.193801 -0.019483 -0.161953 -0.171505 -0.043027 -0.103132 -0.008463  0.075314  0.027439 -0.069032 -0.120320 -0.070859 -0.015620 -0.101371 -0.088098 -0.047019  0.002481 -0.032304  0.037822 -0.026055 -0.014068  0.019663 -0.020606 -0.057510
 0.047693 -0.086738  0.132888 -0.055271 -0.071597  0.004768  0.014294 -0.000342 -0.003258  0.027972  0.008681 -0.043619 -0.011400 -0.048879 -0.048594 -0.111924  0.057352 -0.000009  0.077296 -0.349291 -0.009617  0.076023  0.093692 -0.113059  0.015986 -0.065737 -0.033546 -0.061221 -0.087864  0.006335 -0.068676 -0.040929 -0.132470 -0.119281  0.019665 -0.075456 -0.061575  0.017022 -0.040477 -0.154010 -0.119280 -0.004001 -0.055647 -0.090132 -0.059385 -0.166324  0.035519  0.078363  0.043460 -0.200538
 0.046239  0.113963 -0.105901  0.040620 -0.239035 -0.031597  0.100519 -0.144453  0.073645 -0.250907 -0.221435  0.077200 -0.088336 -0.039695  0.051639 -0.258386  0.059852 -0.194304 -0.054847  0.617328 -0.072192  0.030327  0.138736  0.071811 -0.018368  0.167280 -0.016863  0.071677  0.120710 -0.103118  0.008975 -0.117433  0.071980 -0.011291 -0.033774 -0.057679  0.019747 -0.232284  0.067530  0.011334 -0.123562  0.015646  0.225873  0.047640 -0.173780  0.069884  0.163633  0.024228  0.047948  0.084734
-0.051454 -0.081141  0.007389 -0.021222 -0.037851  0.027154 -0.121862 -0.034014  0.172985  0.243729  0.140218  0.177865 -0.018083  0.031884  0.113992  0.022043 -0.009554  0.127332  0.001634 -0.429905  0.142304 -0.049139  0.091279  0.023070 -0.017537  0.076611  0.121013  0.123391 -0.180473 -0.006798  0.008936 -0.031116  0.003133  0.051866 -0.053697 -0.054125 -0.012278  0.040293 -0.050594  0.032811 -0.076858 -0.089004 -0.082976  0.022638  0.114310 -0.048811 -0.187424  0.046104  0.090604  0.157005
 0.171212  0.054877  0.068261  0.029166 -0.025101  0.087146 -0.021476  0.082435  0.094878 -0.190036  0.026298 -0.119893 -0.000412  0.031486 -0.041536  0.124562  0.032039  0.021612 -0.091133  0.469786 -0.040574  0.064514  0.079874 -0.106101 -0.024024 -0.005029 -0.028116  0.077977  0.094662  0.077422  0.043211 -0.093994 -0.008890  0.045412 -0.048362  0.098260  0.144096 -0.008351 -0.025800 -0.014899  0.156349 -0.130982  0.149748  0.070595  0.135960  0.074401  0.056155  0.069456  0.099062  0.015113
-0.102889 -0.054530  0.045923 -0.050533 -0.049259 -0.020613 -0.037576 -0.041840 -0.032070  0.086281 -0.027673 -0.092507 -0.031353  0.097116 -0.006628 -0.066193  0.030651  0.053390 -0.071126 -0.415749 -0.082777  0.069326 -0.000018 -0.061593 -0.010352 -0.135545 -0.065981  0.069152 -0.153222 -0.005957 -0.164633 -0.141615 -0.079746 -0.104039 -0.071999 -0.063879 -0.076528 -0.077029 -0.112413 -0.107712 -0.080989  0.015962 -0.066156 -0.067660 -0.059514 -0.152311 -0.101074  0.042793 -0.102999 -0.043355
 0.099480 -0.013292 -0.108871 -0.025303  0.015633  0.076562  0.133151  0.068119  0.066894  0.186182  0.034515 -0.030720 -0.072856  0.103072  0.067441  0.162074  0.017745 -0.014414  0.008315 -0.362826 -0.028939  0.066823 -0.015837  0.050945  0.017969 -0.042949  0.021438  0.026498 -0.022390 -0.014061 -0.030745 -0.007148  0.001108 -0.018136 -0.005301 -0.088109 -0.181076  0.100107 -0.034508  0.086913 -0.014732  0.042990  0.013016  0.015570 -0.014858 -0.067637  0.055185 -0.084782 -0.040727  0.060566
-0.013599 -0.125812 -0.096305  0.024951 -0.006795  0.049044  0.028119  0.103006 -0.049288 -0.079900  0.038378 -0.077061 -0.169337  0.047833 -0.110528 -0.037318 -0.043694 -0.025403  0.073268  0.474983 -0.001770  0.086578  0.007856  0.128528  0.037880  0.058128 -0.030789  0.035783  0.078964  0.083675  0.075717  0.006116  0.057132 -0.079957 -0.045790  0.040809  0.113077 -0.006532  0.085513  0.045335  0.115257  0.190370  0.027481  0.179862  0.000023  0.000290  0.082302  0.012586  0.189399  0.101477
 0.063541  0.011144  0.073934 -0.082719  0.029783 -0.024855  0.110417  0.109908 -0.051117 -0.113536  0.070477 -0.075580  0.124093  0.142661 -0.001915 -0.070599  0.041686  0.029351 -0.016909  0.453498 -0.010063 -0.073351  0.085917 -0.052924 -0.157488 -0.060959  0.049885 -0.151919  0.178351  0.021012 -0.101583  0.106614 -0.098968  0.002445 -0.083081  0.011378 -0.076757 -0.233904 -0.054988 -0.079810  0.004245 -0.109724 -0.081488  0.076804  0.064576 -0.079864 -0.034048 -0.054192 -0.084157  0.049664
-0.022042 -0.055656 -0.013248  0.016227 -0.012611 -0.019894 -0.044784 -0.135565  0.030377  0.042514  0.033825 -0.025772 -0.024570  0.011256 -0.007186  0.049541  0.052149  0.036918 -0.083490 -0.372194 -0.012904  0.050210  0.040831  0.069665  0.004301 -0.120365 -0.088988  0.103791 -0.061906  0.024536  0.005338  0.050236 -0.003954  0.067705 -0.075982 -0.051567  0.035577 -0.119670  0.122898 -0.119163  0.089941  0.036026  0.032221 -0.021443 -0.077722  0.058757 -0.002522 -0.044117 -0.044962 -0.093448
-0.023040  0.030725  0.020329 -0.033196 -0.033914 -0.119789 -0.018111 -0.047477  0.014644 -0.173030 -0.006831  0.069426 -0.039784 -0.003194  0.203165 -0.100348 -0.039193  0.044987 -0.076559  0.220729 -0.125400 -0.120988  0.074286 -0.019239  0.053721  0.035578  0.051232 -0.001679  0.123657  0.049273  0.029703  0.019351 -0.073376 -0.053494  0.045856  0.073795  0.028242 -0.133375 -0.042775  0.005161 -0.038070 -0.014687  0.016363 -0.023508 -0.096772  0.123951 -0.009240 -0.003389 -0.037156  0.043888
 0.061275 -0.067943  0.038522  0.047623  0.060622  0.044358  0.037775  0.043011 -0.009965  0.245936  0.109691 -0.161979 -0.109844 -0.087742 -0.032147  0.172691 -0.023522 -0.067820 -0.180779 -0.531959 -0.010384 -0.070197  0.072595 -0.033621 -0.055516 -0.181888 -0.046723 -0.080581 -0.155986 -0.016608 -0.036687  0.072453  0.150602 -0.044681  0.046585  0.068732 -0.086657  0.040745 -0.111070 -0.116257 -0.043256 -0.072433  0.027122 -0.092977  0.107503  0.129345 -0.031659 -0.100321  0.007466 -0.100155
 0.030511  0.109117 -0.051555 -0.134962 -0.048685  0.015882  0.114607 -0.097875 -0.048410 -0.089076 -0.010059  0.008501  0.054301  0.002944 -0.124933 -0.065545 -0.064646 -0.023818  0.063711 -0.409810  0.002297 -0.017912  0.074251  0.025397 -0.156316  0.024255  0.063033  0.056649 -0.064612 -0.071835 -0.001370 -0.003512  0.068289 -0.004899  0.011325  0.070183 -0.104505 -0.149361 -0.035452  0.058479  0.031601  0.044468  0.108890 -0.028102 -0.035055  0.045138 -0.155175  0.015339 -0.001762  0.064320
-0.063910  0.016248 -0.064910  0.051161 -0.056353  0.037045  0.101475  0.018948  0.084506  0.058165  0.147645  0.003991 -0.102573 -0.077260 -0.090344 -0.016386 -0.040464  0.033786  0.104705 -0.203848 -0.020058 -0.067940  0.077034  0.082698  0.065311 -0.013810 -0.086883 -0.089025 -0.077585  0.052460 -0.027039 -0.031877 -0.027024 -0.000964  0.069762  0.058347  0.075182  0.018752  0.026653  0.153569 -0.015781  0.031431 -0.024517  0.082022  0.003791 -0.035832 -0.051242  0.058292 -0.092641  0.061154
-0.101072  0.046288 -0.032358 -0.000732  0.101794 -0.004228  0.042245  0.017778 -0.106557 -0.128214 -0.088621  0.022395  0.079825  0.092481  0.043736 -0.024396  0.037502 -0.078806 -0.026048  0.388383 -0.008278 -0.021365  0.047602  0.039689 -0.164024  0.031635  0.000505  0.138469  0.145888 -0.023802 -0.063041 -0.016854  0.027525 -0.005547  0.096496 -0.012775  0.101381 -0.021987 -0.028777  0.033730  0.007894 -0.054267  0.018187  0.159022  0.060535 -0.050290  0.017895  0.066740 -0.021752  0.070430
 0.057237  0.066460 -0.076404 -0.111701  0.002676 -0.012974  0.054385  0.061395 -0.012280 -0.048189 -0.138576 -0.013710 -0.076731 -0.037707 -0.000032 -0.059436 -0.025741 -0.068772  0.032033 -0.255704  0.085099 -0.130722 -0.039425  0.151155  0.042187 -0.198716 -0.068487  0.062920 -0.083391 -0.088266 -0.026259 -0.075079 -0.066788 -0.003633 -0.085735  0.109886  0.039822 -0.108754 -0.059090 -0.043368 -0.016652 -0.185234 -0.028696 -0.151200 -0.014347  0.095930 -0.062129  0.143254 -0.040718  0.043704
 0.119592  0.003725  0.015674 -0.048608 -0.022998  0.134737 -0.009113  0.045783 -0.019739 -0.042597  0.026986  0.252987  0.005575 -0.056285  0.271797 -0.052373  0.042233 -0.093827 -0.113891  0.348142  0.053161  0.071826 -0.002693  0.075537 -0.002071  0.106174  0.072296 -0.013321  0.094498  0.133948  0.033742  0.003187  0.102790  0.051714 -0.111320 -0.060072 -0.084479 -0.015898  0.127626  0.121882  0.114811  0.059037  0.074231  0.079466  0.037379  0.042253  0.034051 -0.039483  0.088822  0.107566
 0.038939 -0.106807  0.025644  0.113944  0.000144 -0.036664  0.016972  0.086936 -0.057527 -0.196534  0.066361  0.089425 -0.076105 -0.057352 -0.016190 -0.104107 -0.009740 -0.003276  0.014881  0.567306 -0.053739 -0.196343  0.014026  0.035280 -0.043219  0.016046 -0.110721  0.131589  0.061216 -0.135697 -0.022703 -0.092872  0.020841  0.000352 -0.001234 -0.017794 -0.015238  0.066164 -0.077109  0.052555  0.065414 -0.195331 -0.050032  0.200258 -0.044369  0.008912  0.156736  0.014947 -0.037214 -0.041146
-0.025749 -0.149389 -0.111749  0.070099  0.128871  0.061732  0.058709 -0.053332 -0.020638 -0.017626 -0.011268  0.110092 -0.047563 -0.103205 -0.052586 -0.029955 -0.006866  0.028537 -0.018319  0.375131  0.078500 -0.046647  0.018758 -0.058285  0.010570 -0.133629 -0.014811 -0.012882 -0.100939  0.073852  0.067160 -0.049212 -0.043400 -0.039610  0.043798  0.092297  0.146951  0.018237  0.037155  0.077315 -0.033428 -0.056549 -0.021020 -0.037096  0.012668  0.064236  0.022258 -0.049482 -0.145938  0.037298
 0.084738  0.015656  0.015652  0.071125  0.134843 -0.006074  0.040693  0.026320 -0.052171 -0.031305 -0.026444  0.112358  0.110907 -0.090927 -0.018618 -0.094726  0.120447 -0.030194  0.073252  0.326374 -0.076444  0.056637 -0.015325  0.079736 -0.125740 -0.066525  0.130969 -0.060184  0.001583  0.004281 -0.047395  0.008805  0.038847 -0.096328  0.055966  0.103657 -0.140216 -0.197800  0.007847  0.014153  0.010420  0.016512 -0.037890  0.045928  0.074876 -0.000616  0.058420  0.088582  0.119298 -0.043470
-0.017173 -0.034485  0.007243  0.030911 -0.005636  0.103053  0.099141  0.050165 -0.054790 -0.061473  0.022944 -0.071022  0.007593 -0.004377 -0.026119 -0.052462 -0.040645  0.077538  0.031643  0.530107  0.032603  0.196783  0.153706  0.101817  0.042731  0.122039  0.002444  0.079160  0.026337  0.057036  0.091139  0.085260 -0.053136  0.052569  0.014022 -0.147325  0.134080 -0.122408 -0.018358 -0.004371  0.137729  0.176909  0.010663  0.013549  0.031045  0.032908 -0.019399  0.274996 -0.058175  0.089804
 0.012530 -0.038404 -0.133141 -0.074591 -0.059189  0.060822  0.005316 -0.017572 -0.048544  0.133630  0.037777 -0.003495 -0.071172 -0.047300  0.045515  0.050329 -0.118025  0.080308 -0.012271 -0.355837  0.057508  0.061698  0.084311  0.146785 -0.031869 -0.137418  0.029290  0.030345  0.060131  0.072347  0.068140  0.052807  0.116703 -0.032222 -0.054198 -0.068498  0.007375  0.144330  0.073302  0.089452 -0.030051 -0.101927  0.083863  0.129911  0.102823  0.048749 -0.045404  0.067916  0.100726 -0.043467
 0.006500 -0.004419  0.085303  0.181344  0.045231  0.039734 -0.041064  0.088220 -0.047998 -0.027184  0.044439 -0.072592  0.023736 -0.062244 -0.055192 -0.065833  0.087444 -0.038183  0.035687  0.232034  0.015201  0.074322 -0.006261  0.012553  0.029252 -0.143247  0.069451 -0.047733 -0.031162 -0.022263 -0.094154  0.049510  0.017346  0.009322  0.150359  0.012512  0.048026 -0.137241 -0.079950 -0.077514  0.010359 -0.077002 -0.052803  0.118585 -0.108446  0.016874 -0.006130 -0.015592  0.041893  0.075361
-0.072451 -0.038564 -0.055258 -0.011745  0.047129  0.023510  0.083937 -0.058213  0.227155 -0.062945  0.022498 -0.053633 -0.008896 -0.094458 -0.016808  0.004997  0.054754  0.009427 -0.042928  0.328107 -0.061285 -0.095682  0.059442 -0.049031 -0.060326 -0.030990 -0.039806 -0.017727  0.036712 -0.020501  0.053583 -0.016240  0.046654 -0.032582 -0.014867  0.098983 -0.021904 -0.083964 -0.046719 -0.048232  0.161874 -0.020392 -0.065194  0.048388  0.067640 -0.017524  0.050766  0.199452  0.008470  0.056965
 0.066857  0.020195  0.001831 -0.190040 -0.040850 -0.041847  0.080461  0.206093  0.026808 -0.203891 -0.042430 -0.098636 -0.058935  0.098288  0.033384  0.113354  0.054544 -0.132518 -0.083605  0.575503  0.047620 -0.100112  0.018151 -0.007028  0.022213  0.094816 -0.038077  0.032051 -0.053837 -0.065592 -0.077710  0.020677  0.111289 -0.109866  0.059845  0.097192  0.065706 -0.096334 -0.050990 -0.034095  0.252382  0.002352 -0.069948  0.056101 -0.097236  0.091244  0.051165 -0.117571  0.006735  0.016060
 0.033533 -0.092030 -0.032701  0.009140 -0.130935  0.074497 -0.014008 -0.009710 -0.034718  0.101446  0.013534 -0.052540  0.142937  0.140341 -0.070372 -0.009009  0.054929 -0.010921 -0.146139 -0.355203  0.065106 -0.037007  0.041212  0.004754  0.034806  0.032962  0.019349  0.052622 -0.171046  0.123128 -0.034146  0.061521 -0.060151  0.086763 -0.100478  0.085148 -0.000422  0.020912  0.031285 -0.087853 -0.060231 -0.031883  0.012816 -0.062275 -0.105322 -0.075520  0.026904 -0.011511  0.104019  0.005161
 0.050289  0.060047 -0.094039 -0.143255 -0.038526  0.045884 -0.052615 -0.035037  0.005568  0.080701 -0.049325 -0.049951  0.014252 -0.000758 -0.015156  0.034206  0.037652 -0.032740  0.026536 -0.464409  0.066318 -0.009270  0.097418  0.027938  0.023227 -0.083606  0.039585  0.007092  0.000411  0.068232  0.121995 -0.051734 -0.065503  0.100995 -0.145037  0.038827 -0.065111  0.048308 -0.082305  0.023452 -0.017760 -0.029099 -0.099541  0.033365 -0.051237 -0.056802  0.045898  0.049483  0.030275 -0.089074
 0.038532 -0.057455 -0.037185 -0.072825  0.005830  0.022776 -0.100162  0.042426  0.065246  0.124523  0.066359 -0.086516  0.153375 -0.048883  0.050860  0.194779 -0.024861  0.059759 -0.014304 -0.432471  0.069128 -0.038719  0.047628 -0.158762  0.032195 -0.048881  0.117856  0.045476 -0.016683 -0.096617  0.011013 -0.084028 -0.121470  0.031773 -0.032197 -0.034411 -0.055074  0.154316 -0.089457  0.033130  0.065053  0.157053 -0.047935  0.021094  0.032686  0.010223  0.067956 -0.048208 -0.001515  0.089014
 0.063446 -0.025710 -0.069068  0.006251 -0.050447 -0.012074 -0.059600 -0.118142 -0.045627  0.051522 -0.003160  0.015831 -0.028894 -0.005113 -0.023006  0.009558 -0.097873  0.067607  0.020050 -0.438127  0.041884  0.037271 -0.063989 -0.088407  0.083340  0.063083 -0.057659  0.056408  0.031110 -0.003617  0.008572 -0.096190  0.028439  0.165745  0.085446 -0.042399 -0.109649  0.084973 -0.083512 -0.009664 -0.027656  0.063761 -0.136692 -0.017527  0.032285 -0.029310 -0.115081  0.107396 -0.008790 -0.091766
 0.027980 -0.022647 -0.037659  0.103176 -0.089652 -0.094447 -0.066591 -0.107131  0.020607 -0.134521 -0.025985 -0.060667 -0.016904  0.025548  0.032328  0.080515 -0.014332 -0.152544 -0.037057  0.090707  0.069279 -0.052215 -0.093504  0.025760 -0.096162  0.010824 -0.090024 -0.016551  0.031542  0.059669 -0.015537 -0.229361  0.006686  0.038088 -0.105301 -0.087288 -0.080555 -0.066020 -0.038270  0.065690 -0.000465  0.069146  0.036857  0.025529  0.083699  0.085824 -0.031458  0.038650 -0.005220  0.039102
 0.073319  0.161549 -0.027087  0.092484 -0.066316 -0.012180 -0.031322 -0.115152 -0.041996  0.064994 -0.021881  0.038502  0.084084  0.040682 -0.009195 -0.019423  0.105371 -0.053593 -0.003946  0.299486  0.075322  0.018107 -0.042198 -0.029528  0.199145  0.007059  0.137205  0.069378  0.138943  0.113430 -0.125981  0.111724  0.036569  0.000507 -0.154629 -0.040046 -0.029656 -0.089795  0.133221  0.111461 -0.064727  0.151160  0.014223  0.107345  0.175986  0.099900  0.128184 -0.060389 -0.083337  0.111746
 0.035638  0.065741 -0.087514 -0.110508 -0.034541 -0.093956 -0.076955 -0.056258 -0.091494  0.099169 -0.051720 -0.064320 -0.041822  0.100146  0.151319  0.059722 -0.004139  0.016123 -0.032270 -0.469423 -0.025196  0.047397  0.037480 -0.074190  0.097683 -0.176370 -0.022287  0.099837 -0.106999  0.030969 -0.173906  0.094565 -0.011032  0.169250  0.117432 -0.050874  0.015787  0.024635  0.070131  0.062209  0.111647  0.011104  0.091428 -0.018122  0.027721 -0.047919  0.009172 -0.075016 -0.037089  0.122660
 0.028949 -0.085757  0.076766 -0.016212 -0.191531 -0.063691  0.001022  0.067642 -0.077991 -0.287341 -0.032055  0.137904 -0.100539 -0.038688 -0.070600 -0.039276  0.055770 -0.167185  0.012360  0.124724 -0.050710  0.086083  0.078721  0.095976 -0.006073 -0.028112  0.082083  0.013214  0.069146  0.091213 -0.057529 -0.015185 -0.040367 -0.008874  0.038162  0.018910  0.044717 -0.214845 -0.029456  0.180319 -0.071078 -0.132020  0.021977 -0.012757 -0.110603  0.120641  0.077189  0.113364 -0.183962  0.094916

=== bf (updated) ===
       0
1.020294
1.017784
0.992659
0.985405
0.966435
1.011669
0.979135
0.974468
0.988962
1.014708
1.005475
0.998516
1.009706
1.016664
1.016696
1.019613
0.982529
1.015768
0.982421
0.715894
1.006378
1.003136
0.985522
1.005754
0.994800
0.998666
1.005689
1.001845
1.000577
0.996581
1.002923
1.008697
1.000826
0.978433
0.972682
0.975943
0.998087
0.990784
1.010696
0.990442
1.005544
1.020959
0.999049
1.009786
1.001202
0.996699
0.977795
0.978875
0.999140
0.986679

=== Wc (updated) ===
      0       1       2         3         4        5        6        7        8        9         10       11       12       13       14        15       16        17       18        19       20        21        22       23       24        25       26        27       28        29       30        31        32        33        34        35       36        37       38        39        40        41       42       43       44       45        46       47        48        49
0.223703 0.19625 0.03525 -0.071724 -0.068231 0.125462 -0.09635 0.008984 0.068736 0.045029 -0.157161 0.113924 -0.06478 0.145393 0.028481 -0.126137 0.113181 -0.157296 -0.07788 -0.829653 0.041886 -0.205521 -0.103583 0.227759 0.065846 -0.126555 0.176065 -0.188369 0.101995 -0.140326 0.133166 -0.109163 -0.013718 -0.031385 -0.035328 -0.106284 -0.04411 -0.008445 0.195146 -0.099279 -0.148854 -0.226207 0.057336 0.181823 0.172665 0.077607 -0.031377 0.139104 -0.008695 -0.130187

=== Uc (updated) ===
       0         1         2         3         4         5         6         7         8         9         10        11        12        13        14        15        16        17        18        19        20        21        22        23        24        25        26        27        28        29        30        31        32        33        34        35        36        37        38        39        40        41        42        43        44        45        46        47        48        49
-0.161125  0.049255  0.038629  0.077828 -0.002144  0.065859 -0.011648 -0.030632 -0.219052  0.011197  0.034529  0.070954 -0.145071  0.161328  0.134131  0.067172  0.105365  0.045287  0.121530  0.138703  0.055578 -0.176549  0.039431 -0.029421 -0.035770  0.029178 -0.003220 -0.037997 -0.024932 -0.014787  0.052992 -0.035392 -0.047919  0.083924  0.018408 -0.013051  0.004886  0.036727 -0.025429 -0.026886  0.125054  0.013207  0.020396 -0.023961  0.084972  0.009148  0.054137 -0.043465  0.106553  0.016566
-0.020435  0.014662  0.135665  0.119849  0.073785 -0.033631 -0.056972 -0.050278 -0.079627 -0.086630  0.013052 -0.031071 -0.105693 -0.073088  0.029502 -0.035108  0.030061 -0.033751  0.080403  0.039562  0.084952 -0.094030  0.191475 -0.075618 -0.153536 -0.007157 -0.004391  0.023120  0.035889 -0.042110  0.009420  0.069787 -0.107807 -0.076963  0.007879  0.097525  0.033152 -0.040618  0.060273  0.157908 -0.080538 -0.098162  0.026253 -0.002355 -0.051400 -0.063586  0.049392  0.060223 -0.070246 -0.017271
 0.032619  0.106682 -0.070025 -0.050598 -0.106346 -0.019490 -0.082212 -0.091875  0.048622  0.044722 -0.002293  0.127943  0.019680  0.138644 -0.029690  0.045179 -0.139889 -0.040822  0.065843  0.131505  0.030199  0.000527  0.033396  0.188694  0.010072  0.024610 -0.094998  0.042530 -0.014168 -0.005592  0.074851 -0.019016  0.029004 -0.161583  0.101968 -0.078439 -0.081649  0.007006 -0.029094 -0.028234 -0.092128 -0.019041 -0.130711 -0.009286  0.129067  0.016244  0.017004  0.034848  0.062023 -0.002811
-0.055165 -0.168480 -0.020521  0.044422 -0.052532  0.002310 -0.114071 -0.058353  0.075719  0.024260 -0.092395  0.033999  0.123911  0.044831  0.033091  0.013543  0.022665  0.000787  0.039145  0.215381 -0.171218  0.038803  0.141294 -0.042948 -0.019460 -0.002155  0.026202  0.032302 -0.085600  0.111460 -0.108973  0.147168  0.036910  0.026582  0.074069 -0.072345 -0.173164  0.102092  0.115281 -0.000756 -0.089884 -0.045770 -0.064366  0.015161  0.057353 -0.041072  0.049663  0.095100  0.028105  0.044203
-0.140923  0.013065 -0.092289  0.088608 -0.079336 -0.032376  0.011036 -0.062550  0.034218  0.084127  0.119916 -0.010237  0.069439  0.022457  0.051410  0.040283 -0.011700 -0.083828 -0.066472  0.136962  0.075386  0.028985 -0.029003  0.050949 -0.002769  0.032931  0.009422 -0.008994  0.041345 -0.026937 -0.040085  0.095241 -0.015467 -0.075302 -0.022917  0.008712  0.114470 -0.036456  0.192186  0.113787  0.051336  0.040774 -0.119045 -0.116650 -0.037773 -0.162645  0.030103  0.009142  0.004932 -0.042656
 0.012507 -0.016436  0.190553 -0.040964 -0.016226  0.119756  0.005210 -0.020887 -0.064455  0.064746 -0.090161  0.138908 -0.122786 -0.005521  0.194483 -0.059913 -0.029951  0.044895 -0.023887  0.043876 -0.042527 -0.049341 -0.022568  0.054165 -0.109341  0.032978  0.075375 -0.054946 -0.054419 -0.188585 -0.080518 -0.097900 -0.119934 -0.006881  0.013321 -0.120260 -0.043294 -0.075121  0.059936  0.136412 -0.116419  0.097004  0.005144  0.098834 -0.035022 -0.071735 -0.090206 -0.145550 -0.058284 -0.011935
 0.017820 -0.075663  0.099422 -0.035641 -0.083881  0.058101 -0.017543  0.076370 -0.016855 -0.017328  0.125053  0.059738  0.058965  0.006918 -0.082732 -0.016184  0.012108 -0.018235 -0.112638  0.195758 -0.035045 -0.004943 -0.067280 -0.088022  0.093016  0.080158 -0.079478  0.024493  0.002019 -0.052191 -0.073484  0.084814 -0.017514 -0.056528 -0.089241 -0.052451  0.062544  0.028683 -0.177705 -0.163091  0.079549  0.014804 -0.160863  0.049340  0.062748  0.164454 -0.028003  0.063039 -0.113618  0.133328
-0.081126 -0.040775 -0.029287 -0.078980 -0.027419 -0.064664  0.021859 -0.129918 -0.067911  0.056936  0.066916 -0.024047  0.102108 -0.061273 -0.103547  0.124782  0.057582  0.040956 -0.059779  0.303369 -0.063157  0.048951  0.094702  0.147845  0.142479  0.076605  0.085352 -0.006686  0.143364  0.034219 -0.082284  0.102766 -0.004826  0.139026  0.071491  0.053314  0.041783 -0.088845 -0.107068 -0.004269  0.041004  0.062572  0.078035  0.088415  0.092112 -0.046276 -0.017473  0.146210 -0.102430  0.112161
 0.044768  0.098733 -0.048719 -0.096919  0.112851  0.056811 -0.044023  0.011305 -0.171231  0.012687 -0.070072  0.072850 -0.128403 -0.145468 -0.055861 -0.108172 -0.003724 -0.102377  0.086084 -0.310687  0.050880 -0.143176  0.009947  0.049447  0.026984 -0.046971 -0.039620  0.055265 -0.016710 -0.054533  0.072225 -0.110580 -0.023822  0.001569  0.032209  0.016914 -0.058666 -0.131114  0.199624 -0.014890  0.036680 -0.032212 -0.027771  0.006898  0.028126 -0.012629 -0.115280 -0.055364  0.101253 -0.030633
-0.019465 -0.007283  0.145782  0.054433  0.007164  0.018870  0.035039 -0.078996 -0.025617  0.248156  0.068077 -0.078853 -0.079749  0.078814  0.047286  0.145116  0.055973 -0.081021  0.009604  0.057683  0.052558  0.090824  0.023997  0.004281  0.008450 -0.084706 -0.069615 -0.123798 -0.087518  0.104388 -0.044120 -0.078081 -0.065229  0.011421 -0.112556 -0.109023  0.164510  0.063677 -0.001225 -0.104231  0.061639 -0.107376  0.005032 -0.108556  0.023736  0.011960  0.075339  0.002898 -0.077490  0.012950
 0.001663  0.012465 -0.043842 -0.094474 -0.000932  0.069128 -0.163924 -0.093769  0.178149 -0.168843 -0.105005  0.019147 -0.031189 -0.007447 -0.011856  0.046436  0.098774 -0.318867 -0.007997 -0.036409 -0.116585 -0.004162  0.085959  0.004000  0.034069  0.068100 -0.075391 -0.042372 -0.028219  0.051984 -0.040846  0.046600  0.021694  0.141389  0.046940  0.064295  0.007198  0.136454  0.025635 -0.054345 -0.035788 -0.159931  0.031357 -0.013047 -0.129085 -0.058721  0.000024  0.078145 -0.085663 -0.126501
-0.036193 -0.186396 -0.076643  0.198839 -0.122711  0.016763 -0.091019  0.002915 -0.064318  0.032637 -0.070500  0.040368  0.013266 -0.040083 -0.020248 -0.004416 -0.107697  0.000490 -0.028066  0.062806  0.034106  0.027661 -0.000002  0.000653 -0.126357 -0.085929  0.039285 -0.102140 -0.071194  0.047204  0.071328  0.037105 -0.094535  0.086918  0.034054 -0.217079  0.057481 -0.128168 -0.007978  0.007894  0.128259  0.027487  0.072952 -0.105509 -0.017754 -0.064966 -0.026249 -0.107167  0.101671  0.056901
-0.072173  0.002728  0.153634 -0.041341 -0.097771 -0.044573  0.032336 -0.162823 -0.012420  0.000089 -0.085699 -0.058270  0.038224 -0.022504 -0.081597 -0.131227 -0.009885  0.029164  0.001135 -0.124159 -0.020834  0.033245 -0.063255  0.000405 -0.010419  0.013763  0.081918 -0.050362 -0.039327 -0.014433  0.023232  0.079692  0.106937 -0.035414  0.131990  0.020622  0.106624  0.043010 -0.075934  0.009221 -0.067317 -0.020317  0.137127  0.094462 -0.000469 -0.076213  0.022886  0.098027 -0.039900 -0.035103
 0.086089  0.052093  0.093512  0.006942  0.178253 -0.032125 -0.032243  0.128856 -0.078995 -0.020442  0.000179  0.019809 -0.076852  0.007328 -0.030832 -0.100952  0.065120  0.079864  0.038270  0.078283  0.119347  0.035083  0.075497  0.106368 -0.072011 -0.175198 -0.027256 -0.243465 -0.036059 -0.040579  0.099720 -0.083454 -0.074398  0.029745 -0.029618  0.090691 -0.086994 -0.023652  0.018411  0.008659 -0.027944 -0.106426  0.095941  0.006535 -0.008665  0.037027 -0.021671 -0.109437  0.016257  0.065660
 0.052323  0.134001 -0.095825  0.110710 -0.032656 -0.043937  0.051686 -0.050252  0.037594  0.035695 -0.110029  0.048857 -0.066818 -0.117162 -0.117572  0.060451 -0.008274 -0.025619  0.001127  0.141361  0.011061 -0.032852 -0.033655  0.050015 -0.008212  0.006027  0.041161 -0.012197  0.100735 -0.136537 -0.095129 -0.101418 -0.025806 -0.050237 -0.030540  0.061606 -0.112322 -0.052379  0.019502  0.000038 -0.027788  0.078993 -0.037856  0.018473 -0.001149  0.003800 -0.038003 -0.015391  0.056268  0.014181
 0.083665  0.013895 -0.099400  0.007722 -0.030590  0.034600  0.028304  0.041373  0.054883 -0.261716  0.062414  0.107246  0.057816  0.173953 -0.083673  0.158810  0.220636 -0.115373  0.115296 -0.054379 -0.167630  0.033884 -0.033453  0.191453  0.021611 -0.061204  0.103443 -0.074679 -0.052744 -0.011166 -0.039061 -0.014844 -0.128583  0.115461  0.020528 -0.000587  0.119367  0.043722  0.092440 -0.089628  0.020637 -0.152075  0.125936  0.019171 -0.068162 -0.032914 -0.043239  0.002644 -0.158124 -0.044342
 0.092854  0.078537 -0.006527 -0.014681 -0.027661 -0.045586  0.105153 -0.005241  0.051440 -0.034772 -0.077807 -0.005961 -0.132961  0.058025  0.091582 -0.030789 -0.020055 -0.216753 -0.096867 -0.181191 -0.028540 -0.092190  0.027826 -0.018605 -0.018728  0.019657 -0.070723 -0.096474 -0.086281 -0.043205  0.004711 -0.038531  0.040408  0.113901  0.021791  0.052309 -0.031709  0.007711  0.074691  0.001373 -0.005082 -0.088824  0.024325  0.099518  0.134330  0.085015  0.012431  0.067462  0.078537 -0.000977
-0.063110 -0.007388  0.033427 -0.019513 -0.179936  0.021680 -0.016747  0.061952  0.148602  0.010021  0.093749 -0.059616  0.133800 -0.113506 -0.081021 -0.056080 -0.143687 -0.066395  0.051984  0.223222 -0.057593 -0.023483  0.096661 -0.045807 -0.061982  0.044978  0.033591 -0.012819 -0.014118  0.083034  0.097963 -0.118559  0.064992  0.012586 -0.106505 -0.091681  0.034537  0.015436 -0.157047  0.107189 -0.029669  0.019664 -0.024417 -0.066433  0.071806 -0.016498  0.131293  0.038510  0.144884  0.101351
-0.009495 -0.191763  0.023030 -0.101193 -0.026151  0.019629 -0.071428 -0.055126  0.005062 -0.160096 -0.055823 -0.055504  0.227406 -0.070513 -0.034660  0.196516  0.005858  0.045690 -0.061773  0.196362  0.003605 -0.011601 -0.001690 -0.043263 -0.065470  0.032774  0.055589 -0.040752  0.071946  0.104406  0.017510 -0.054708  0.065291 -0.080048  0.031457 -0.012241 -0.081239  0.085332  0.009489 -0.127114  0.046367  0.195399 -0.077888 -0.086882 -0.232412  0.048359  0.023375  0.103391 -0.133344  0.045648
 0.079500 -0.008343  0.052665 -0.073942 -0.046204 -0.016465 -0.218044 -0.107108  0.178129 -0.166797 -0.178411  0.037845  0.090857  0.037678  0.058845 -0.228651  0.006892 -0.098346  0.022998 -0.472849  0.051167  0.040284 -0.095289  0.113517  0.024948 -0.059456  0.083286  0.062228  0.017532 -0.073179  0.051270 -0.010423 -0.048245 -0.021313  0.074609 -0.094046 -0.053436  0.108405 -0.009729  0.032856  0.128705  0.168296  0.024312  0.063428 -0.234554  0.059784 -0.047586 -0.103789  0.071582  0.070688
 0.074886  0.021784  0.002134  0.068115 -0.041050  0.102986  0.145209  0.016175 -0.062272  0.130593  0.054418  0.090500  0.065351 -0.070625  0.001842  0.068740 -0.024905  0.110201  0.050076  0.054449  0.083714 -0.005534  0.101150  0.086294 -0.092805 -0.117205  0.142109  0.094926 -0.142519  0.109992  0.072863  0.110227  0.024109 -0.165545 -0.006896 -0.014209  0.078842 -0.089709  0.012831  0.048420 -0.032211  0.023447  0.119239 -0.009538 -0.012117  0.169243  0.062048 -0.030160 -0.026831  0.062245
 0.020250 -0.016530 -0.039321  0.051108  0.134259  0.017171 -0.075303  0.019314  0.008490  0.086112  0.063307  0.105834 -0.005909  0.031248 -0.019077  0.078614 -0.034220 -0.118335  0.013900 -0.081048  0.090665  0.021580 -0.051228 -0.077551  0.041248  0.107662 -0.017622 -0.131902  0.089382 -0.031204 -0.031179  0.031355 -0.018688  0.140389  0.019494 -0.052942  0.111826  0.102932 -0.048401 -0.070998  0.009658 -0.049310  0.031755  0.054694 -0.067343 -0.072667  0.151191  0.113188 -0.080913 -0.001988
-0.116874 -0.039205 -0.066913 -0.005811 -0.074724 -0.038330 -0.001700 -0.050396 -0.066151 -0.024313 -0.018136  0.106572  0.079674 -0.102148 -0.179527 -0.043242  0.006322  0.096112  0.091805  0.338678 -0.123181 -0.096397 -0.049365 -0.004556 -0.045479  0.105677 -0.142183  0.045322 -0.018342 -0.075358 -0.037518  0.037987  0.014101  0.037143  0.029126 -0.035350 -0.121343  0.018343 -0.203966  0.126121  0.052213 -0.060181  0.002810 -0.076115 -0.224534 -0.018876  0.054733 -0.035335  0.007681  0.015816
 0.083925  0.114039 -0.092545 -0.082289  0.099265 -0.117472  0.076798  0.054489 -0.174141  0.062314  0.167679  0.089080  0.079262 -0.058794  0.043729  0.123978 -0.055515  0.135899  0.029276  0.007620 -0.049826  0.060966  0.046750 -0.084971 -0.113482  0.146752 -0.010493  0.013262  0.043505 -0.029283  0.117328 -0.132809 -0.024330  0.058757 -0.057102 -0.002343  0.033689 -0.023329 -0.000046 -0.054260  0.008679  0.063469  0.022667 -0.006797  0.045946 -0.078096  0.121936 -0.100562 -0.121284 -0.023181
 0.009250  0.063443  0.059127  0.027134  0.201259  0.321444 -0.047318 -0.023077  0.051271 -0.057742  0.024418 -0.006056  0.047549  0.113932 -0.006023 -0.031587 -0.062931 -0.161665  0.002252 -0.078532 -0.110063  0.012617  0.077698  0.125977 -0.013556 -0.077759  0.085990 -0.065916  0.015818  0.048977  0.068734 -0.135303 -0.005781  0.034215  0.081732  0.071030 -0.019929 -0.005518  0.104946  0.036882 -0.010705  0.005631  0.035093 -0.003688  0.030162  0.020388  0.065190 -0.042955 -0.047095  0.056489
 0.024409 -0.031374  0.013690 -0.030583 -0.050687 -0.057585 -0.083528 -0.038361 -0.073340  0.054496 -0.005653 -0.102396  0.125235 -0.003960  0.030602  0.050726 -0.030624 -0.077210  0.018275 -0.108252 -0.060655  0.045573 -0.109284  0.031544 -0.056655 -0.024533  0.067098  0.105707 -0.002106 -0.083655 -0.049003  0.041799 -0.019553  0.091932 -0.005933 -0.001468 -0.028584  0.070032  0.004737 -0.086185 -0.034959  0.093480  0.009327  0.085642 -0.027787  0.047807  0.033186 -0.055240  0.005040  0.090658
-0.059867  0.000332  0.059224  0.018001 -0.033077  0.077490 -0.058415 -0.039845 -0.049090  0.056434  0.298962  0.014566 -0.053865 -0.005606  0.142241  0.079699  0.054076  0.053512  0.048298  0.069974 -0.004207 -0.109594  0.125839 -0.024653 -0.071989 -0.075445  0.128986  0.009060 -0.012754  0.026876  0.093557 -0.038747 -0.036355 -0.013080  0.098918  0.106329  0.047027 -0.011259 -0.005347 -0.060737 -0.074943  0.031305  0.119504 -0.153515 -0.057029  0.094357  0.001345 -0.018408  0.165987 -0.100641
-0.086780 -0.008939 -0.030828 -0.094392 -0.124030 -0.010603  0.008328 -0.018863 -0.001787 -0.060865 -0.013509 -0.073592  0.127540 -0.079451  0.188331 -0.120384  0.067708 -0.034446 -0.072409 -0.204433 -0.090348  0.010425  0.017731  0.148854  0.122988  0.002259 -0.080615 -0.137246  0.096956  0.068486  0.153265  0.009267  0.170634  0.085946 -0.064623  0.079536  0.119394  0.070092  0.035949 -0.019394  0.111581  0.063295 -0.088368 -0.071374 -0.089542  0.175794  0.053572 -0.019343  0.028314  0.005390
-0.022459 -0.015307  0.046863  0.070001 -0.017824 -0.076420  0.090296  0.140267 -0.150643  0.064565 -0.040063  0.042550  0.036871  0.045684  0.020343  0.011412 -0.251182  0.060990  0.081635  0.181877  0.014986 -0.057114  0.017914  0.108179 -0.025485  0.088054 -0.023661  0.062527 -0.044746  0.087733 -0.002404  0.032552  0.017599 -0.028550 -0.056789 -0.018472  0.053371 -0.037147  0.027071 -0.025207  0.066708  0.068271  0.027842 -0.035344 -0.026089  0.030273 -0.096390  0.034528 -0.046857  0.164832
-0.057616  0.060887 -0.010717 -0.020906  0.031763 -0.035597 -0.027706 -0.220559  0.019442 -0.074662 -0.096058 -0.088649  0.020291  0.104331  0.062658  0.091287  0.022382 -0.081841  0.040704 -0.040722  0.013826  0.038621 -0.120957  0.034757  0.027951 -0.009266 -0.024389  0.096722 -0.094870 -0.012765 -0.093366 -0.041047 -0.010336  0.045628 -0.050607  0.093586  0.082645  0.150587  0.022732  0.219345 -0.002223 -0.032612 -0.071328 -0.034240 -0.128673 -0.038268  0.093202  0.001370 -0.106959  0.093917
 0.012554  0.028350 -0.058450  0.009100  0.071897 -0.002781  0.068607  0.006859 -0.139847 -0.044598 -0.031423  0.249548 -0.032472 -0.003032  0.072078 -0.071158 -0.006589  0.035309  0.027900  0.003517  0.104623  0.044399  0.053093 -0.148694  0.043143 -0.038359  0.068191 -0.039458  0.238701 -0.027683 -0.093071 -0.058843 -0.017505 -0.059155  0.036313 -0.022727 -0.073901 -0.026449  0.022940  0.066195 -0.059652  0.018328 -0.036602  0.002383 -0.029472  0.062612  0.037540 -0.013571  0.144044  0.061380
 0.004000 -0.166303 -0.034812 -0.060256  0.051836 -0.008631 -0.057260  0.004267  0.113968 -0.061809  0.007092 -0.166996  0.129349  0.006561  0.103392 -0.028734  0.038132 -0.107857 -0.072933 -0.108194  0.013834  0.025584 -0.065486 -0.056215  0.233869 -0.090000 -0.114699  0.028356 -0.026037 -0.068339 -0.045974 -0.053305  0.109103  0.027984 -0.003215 -0.085124  0.011124  0.060081 -0.099541 -0.012326 -0.014630  0.008895 -0.026206 -0.042210 -0.007845  0.017232  0.095746  0.062412 -0.015372  0.004262
-0.021291 -0.066033  0.043187 -0.095832 -0.074875 -0.027640 -0.084159  0.161609  0.067349  0.131280 -0.044213  0.044505 -0.002595 -0.046100 -0.024923 -0.025145  0.066268 -0.081717 -0.145353 -0.248065  0.127979 -0.065633 -0.036158  0.053326 -0.012592 -0.026189  0.008193 -0.000990 -0.019689  0.049961 -0.053333 -0.145695 -0.061579  0.002712  0.057148  0.051850 -0.075818 -0.038323  0.008769  0.018986  0.024580  0.042576  0.080500  0.058426 -0.148882 -0.026907  0.052163 -0.034070 -0.143727  0.047622
 0.077123 -0.081553  0.042667  0.087598 -0.034043  0.071461  0.099256 -0.105952 -0.094400 -0.075025 -0.015041 -0.004334 -0.060275  0.028315 -0.113358 -0.117344 -0.102860  0.007391 -0.096980 -0.222005 -0.019810 -0.060157 -0.017438 -0.103232  0.089631 -0.092469  0.094516 -0.124208  0.078271 -0.086301  0.003291 -0.002210 -0.017078 -0.065957  0.078256 -0.002676 -0.099517  0.082949  0.125415 -0.011513  0.021417 -0.082311  0.024408  0.038863 -0.042110 -0.121968 -0.046417 -0.035238  0.142902 -0.073413
 0.004493 -0.178004 -0.037241 -0.023110  0.110143  0.081747 -0.060352  0.011850  0.025292 -0.087147  0.010402  0.137143  0.081937  0.033404 -0.028257 -0.046499 -0.097153 -0.034404 -0.108064  0.108969 -0.043948  0.000225 -0.030435  0.066302 -0.039928  0.051644 -0.064739  0.036219 -0.139163 -0.111240 -0.002810 -0.085747  0.096236  0.044742 -0.016834  0.145835  0.060828  0.087427 -0.050060  0.038106 -0.053336  0.033310 -0.121189  0.014509 -0.109694 -0.006996 -0.021267  0.023921 -0.031901  0.002745
-0.003433 -0.094560 -0.057181 -0.045978 -0.112148 -0.051070  0.041503 -0.142184  0.029292  0.003553 -0.019139 -0.073184  0.085493 -0.073738 -0.043283  0.208037 -0.070007 -0.047341 -0.098898  0.176863  0.046263 -0.016151 -0.183919 -0.049861 -0.180208  0.108326 -0.117719 -0.132529 -0.141185  0.051817  0.028252  0.003962  0.010975 -0.072402 -0.009600 -0.038907  0.067948  0.018546  0.024523 -0.055197  0.096651 -0.007593 -0.052569  0.072257 -0.027834 -0.007057 -0.026736 -0.000326  0.030506 -0.064738
 0.028371 -0.067843  0.015997  0.044735 -0.020824 -0.033753 -0.131444 -0.067433 -0.020983 -0.106187 -0.034289  0.035063  0.098025 -0.051372  0.078281 -0.047762  0.131540 -0.079318 -0.140632 -0.163468 -0.043889 -0.037150 -0.049633  0.062993 -0.005711 -0.084903 -0.194446 -0.010548  0.022982 -0.026610  0.000192  0.026420 -0.028365 -0.015722  0.095759 -0.086494  0.034012 -0.101953  0.163041  0.104373  0.028535 -0.038956  0.029295  0.000416  0.197533  0.096130  0.039857 -0.064938  0.001563 -0.054635
 0.114989 -0.086485  0.006484 -0.040658  0.069126  0.001868 -0.052425  0.108424 -0.097288  0.066562 -0.198608  0.023774  0.094716  0.033656  0.005531 -0.059193  0.017158 -0.075504 -0.032909 -0.197743  0.116482  0.139729 -0.162488 -0.001765  0.167390 -0.010448  0.065165 -0.011771 -0.017786 -0.109663  0.063700  0.106930 -0.031013 -0.043888 -0.046811  0.157878  0.070424 -0.071626  0.034051 -0.059020 -0.016453  0.094008  0.089918 -0.109695  0.041190 -0.037119 -0.050244  0.152078  0.045675 -0.045338
 0.102194  0.011325  0.061841  0.025634  0.032039 -0.039835  0.051863  0.021888 -0.089879 -0.041441 -0.054683 -0.151688 -0.119544  0.041850  0.094034  0.023272 -0.012207  0.020533 -0.045891  0.251115 -0.057784  0.050047 -0.042681  0.057396 -0.133606  0.109268  0.025669 -0.070996  0.117392  0.065657  0.057686 -0.121868 -0.058554 -0.006577  0.065325  0.042304  0.041191 -0.073921 -0.016578 -0.058436 -0.057789 -0.066201 -0.052631 -0.004952 -0.047041  0.075430 -0.071492  0.093223  0.068490 -0.013432
 0.069379 -0.085763 -0.009152 -0.027901 -0.089565 -0.110243 -0.097042  0.002328  0.066823  0.060248  0.035867 -0.076065  0.000209 -0.002099 -0.051391 -0.062078  0.045720 -0.020372 -0.016766 -0.065898 -0.080833 -0.052408  0.022205 -0.004335  0.048519  0.018082  0.015469 -0.003894  0.126419 -0.053200 -0.075182  0.077568  0.039072  0.079020  0.040215 -0.055182  0.040415  0.157170 -0.040597  0.075144  0.019105 -0.002972 -0.020151 -0.044560 -0.032919 -0.189936  0.081558  0.000111  0.040834  0.113478
-0.127939 -0.045825 -0.040088  0.000633 -0.073483  0.088777  0.022352 -0.024127  0.044757  0.038128 -0.032540 -0.108876 -0.080700 -0.121471 -0.039675  0.104918  0.078478 -0.107166 -0.001159 -0.092377 -0.068674  0.025287 -0.076244  0.051869 -0.053915 -0.054620 -0.084733 -0.033792 -0.030819  0.023711 -0.018702  0.070715  0.049292  0.076066 -0.076690  0.059098 -0.105244  0.024681 -0.067682  0.016741  0.076899 -0.027954  0.002132 -0.067139  0.029265  0.002916 -0.015789  0.067197  0.029274  0.085506
 0.149345 -0.084917 -0.017747  0.094641 -0.141934  0.025411  0.026706  0.099084  0.101200 -0.033323  0.025234 -0.031534 -0.031925  0.073033  0.095841 -0.056131  0.087611 -0.063025 -0.082210 -0.122120 -0.037797  0.152045 -0.103513 -0.052452  0.180685 -0.061037 -0.005594 -0.032876 -0.036952  0.016864  0.066127 -0.019037 -0.124817 -0.046325 -0.000686 -0.007770 -0.091203  0.074349  0.049645  0.022695 -0.128637  0.138392  0.050979 -0.044251 -0.007234 -0.085699  0.019606  0.012192 -0.023625 -0.051355
-0.136440 -0.090780 -0.130704 -0.023317  0.043500  0.038440  0.050511 -0.125600 -0.119741 -0.102773  0.031544 -0.105619 -0.064707  0.008000 -0.125770 -0.049868 -0.025341  0.098463 -0.037216  0.110425  0.029758  0.056474 -0.096088 -0.031625 -0.050817  0.003224  0.090449 -0.051360 -0.009709  0.016432 -0.049372 -0.172432 -0.079791  0.052694 -0.015545 -0.034556  0.012983 -0.031747  0.006916  0.137733  0.012006  0.008725 -0.024854  0.187453 -0.027661  0.041248 -0.040337  0.076747 -0.008382  0.021640
 0.006400  0.081425 -0.122319  0.216135  0.055647 -0.045933  0.047187 -0.038828 -0.116915  0.127123  0.023086  0.075842  0.011423 -0.003976  0.142361 -0.045905  0.019101  0.122887  0.079174  0.104308 -0.061282 -0.013733  0.080722  0.016470 -0.121394  0.045621  0.071483 -0.046730  0.048827 -0.088995  0.075332  0.047058  0.064198 -0.020893  0.039444 -0.049978 -0.001288 -0.029473 -0.050520 -0.058525  0.020294 -0.132617 -0.113539 -0.019705 -0.050145 -0.005276  0.096861 -0.066417  0.058712 -0.014139
-0.044386  0.062522  0.044138  0.048565 -0.091747  0.025789 -0.018258  0.008547 -0.045247 -0.030290  0.032266  0.105528 -0.193949 -0.013498 -0.083590  0.046835 -0.076140  0.139409 -0.004376  0.080221 -0.002456 -0.076847  0.002396  0.011799 -0.015618  0.019197  0.131782  0.024777 -0.010636  0.026707 -0.157340 -0.004538  0.042071  0.007645 -0.164944  0.104907  0.026882 -0.008309  0.167769  0.115614  0.005569 -0.110894  0.041026 -0.008337  0.007510  0.144319  0.109426  0.004143  0.091601  0.055592
-0.108680 -0.087926 -0.080247  0.041545  0.052871 -0.202792  0.132202 -0.074863 -0.124153  0.047620  0.041232 -0.005234  0.053314  0.031241  0.004937  0.083395 -0.002243  0.067557 -0.005264  0.054414  0.128322 -0.071277  0.001202 -0.113283 -0.087625 -0.059572 -0.017486 -0.000188 -0.013645  0.085097  0.134912 -0.151803  0.138283 -0.111073 -0.009458 -0.046202 -0.007875 -0.156506  0.171741 -0.066747 -0.086573  0.001622  0.074793  0.039221 -0.075281 -0.077281  0.000926 -0.114583 -0.021682  0.088014
 0.171404  0.010953 -0.037186 -0.059338  0.015936  0.075174 -0.124045 -0.085997  0.027999  0.098785  0.030081 -0.044474 -0.026238  0.025140  0.043616  0.037079  0.073472 -0.141299  0.040177 -0.112444  0.077033 -0.061363 -0.027311  0.018861  0.035406 -0.087350  0.094141  0.039198 -0.025561 -0.050061  0.111467  0.075953  0.055242 -0.013025  0.005025 -0.074933 -0.113631  0.151491 -0.028531  0.003762 -0.015483  0.061374 -0.088201  0.203156  0.033666 -0.040633 -0.082088 -0.013833  0.008080 -0.043042
 0.144839 -0.050847  0.110682  0.086115  0.099524  0.023592 -0.033721 -0.041863  0.111771 -0.074981  0.042656  0.087743 -0.009128  0.000995  0.111768 -0.105086  0.029631 -0.216236 -0.017493 -0.041682  0.156402  0.042122 -0.008225  0.099997 -0.074535 -0.044743  0.012671 -0.003216  0.126672  0.023567  0.037643  0.047415 -0.117862 -0.061581 -0.077099 -0.001485 -0.057674 -0.010720  0.021194 -0.023796  0.040076 -0.036303  0.005699  0.002067 -0.105684 -0.019538  0.151892  0.028178 -0.092203 -0.062689
-0.138423 -0.005303 -0.042111  0.098453  0.113707 -0.025520 -0.028829 -0.065772 -0.098383 -0.042588 -0.001437 -0.028900  0.008663 -0.028279  0.119858  0.038915 -0.026455  0.148326  0.005121  0.064971  0.063847  0.045553 -0.002940  0.075812 -0.082248 -0.140146 -0.042628  0.045804 -0.083564  0.096833 -0.075065 -0.062896  0.065724  0.028035 -0.026378 -0.088041 -0.122883  0.048810 -0.014799 -0.057289  0.090535  0.050944 -0.032095  0.023442  0.111130  0.022679 -0.091760 -0.019475 -0.095912  0.067180
-0.049602 -0.059216 -0.087929 -0.228917  0.011872  0.182224  0.000328  0.062083 -0.001120  0.117234 -0.125170 -0.066159 -0.122631  0.129083 -0.059495 -0.041513  0.030567 -0.165915 -0.049069 -0.129911  0.103865 -0.057083  0.033833  0.006216 -0.033794  0.031757 -0.099701  0.063255 -0.052783 -0.007753 -0.031635  0.022245  0.024729 -0.046324 -0.054047 -0.076429 -0.071577  0.034785  0.077067  0.097135 -0.102319  0.070480 -0.006738 -0.105997 -0.015186  0.096932  0.023127  0.002981  0.008024 -0.065541

=== bc (updated) ===
        0
 0.015873
 0.007458
-0.028872
 0.013221
 0.011685
 0.016970
 0.018940
 0.014808
-0.010727
-0.016938
-0.012536
 0.009244
-0.006026
 0.005946
 0.005547
-0.016458
-0.017140
 0.033863
 0.018639
 0.072264
-0.010155
 0.001817
 0.020908
 0.000647
 0.001905
 0.006118
 0.009198
-0.007737
 0.018006
-0.006300
 0.009819
-0.008938
-0.011635
-0.006332
 0.015177
 0.005206
-0.014002
-0.008224
 0.010539
 0.008329
 0.006567
 0.034507
 0.006732
 0.008571
-0.032647
 0.009123
-0.008844
-0.013710
 0.004295
-0.011078

=== Wo (updated) ===
      0        1       2         3         4        5        6         7        8        9        10       11        12       13       14       15       16        17       18      19       20       21       22       23       24       25       26       27       28        29       30      31        32      33        34      35       36       37        38        39        40       41       42       43       44       45       46        47      48      49
0.119318 0.325492 -0.1233 -0.019599 -0.419783 -0.16424 0.049317 -0.198843 0.246995 0.363419 0.168809 0.120402 -0.037017 0.146785 0.205143 0.051988 0.093198 -0.064206 0.137866 0.71642 0.044831 0.142213 0.022951 0.218204 0.276084 0.219196 0.108093 0.008169 0.283001 -0.140716 0.029799 0.22788 -0.144942 0.09647 -0.169957 -0.1908 0.138106 0.139623 -0.003475 -0.050166 -0.018223 0.420081 0.042537 0.243931 0.402066 0.340091 0.001391 -0.037235 0.26318 0.17527

=== Uo (updated) ===
       0         1         2         3         4         5         6         7         8         9         10        11        12        13        14        15        16        17        18        19        20        21        22        23        24        25        26        27        28        29        30        31        32        33        34        35        36        37        38        39        40        41        42        43        44        45        46        47        48        49
 0.017873  0.117679  0.115697 -0.008839  0.061066  0.002806 -0.027824 -0.015900 -0.006984  0.065760  0.045057  0.050076  0.075438 -0.126896  0.094231  0.164014  0.111206  0.069887  0.064152  0.415004  0.071307  0.025794 -0.079533  0.038353  0.045231  0.145429  0.056386  0.109690  0.006364 -0.131153  0.059968 -0.001934 -0.127889 -0.087106  0.023405 -0.002803 -0.015699  0.122286 -0.062326  0.007778 -0.119907  0.146548  0.053222  0.048420 -0.072857  0.039486 -0.164633 -0.068438 -0.080447  0.063618
 0.110181  0.023397 -0.043943 -0.145120  0.024077 -0.062800 -0.016760  0.039334  0.123655  0.253028  0.207800 -0.062521  0.050754  0.020390  0.035994  0.187328 -0.013117  0.111696 -0.077258  0.781216  0.099027 -0.026486 -0.041703  0.020817  0.169336  0.041916  0.005738 -0.008002  0.089252  0.061729 -0.044468 -0.045836 -0.101477 -0.029608 -0.046016  0.031837  0.040035  0.168624 -0.020203 -0.017358  0.014665  0.244822  0.001944  0.005999  0.091632 -0.006433  0.072151 -0.040166 -0.088655 -0.022718
-0.018770  0.044580  0.028603 -0.026081  0.054250  0.069510 -0.095422  0.046174 -0.067939  0.052971  0.086343 -0.023622  0.004295 -0.013902 -0.100078  0.046262  0.003243 -0.076198  0.027987  0.229446 -0.075878 -0.063431  0.011958  0.071656  0.112913  0.101935  0.018815  0.105237  0.027969  0.130717 -0.063743  0.127405 -0.081594  0.150434 -0.008906 -0.020827  0.094927  0.144193  0.018825  0.161751  0.071028  0.150960  0.097174 -0.054231 -0.013473  0.034933  0.100812 -0.040387 -0.174597 -0.089313
 0.021488  0.092000  0.029069  0.165428 -0.011588 -0.006066 -0.108539 -0.042366 -0.036354  0.194636  0.021553 -0.034279  0.060723 -0.067763  0.017529  0.119449  0.131993  0.068266 -0.085083  0.684314  0.045296  0.031383 -0.006319  0.040423 -0.121217 -0.015631 -0.086436  0.086049 -0.133031 -0.043896  0.024019  0.032320 -0.085085 -0.049136  0.027179  0.054420 -0.145020  0.114572 -0.002182  0.010174 -0.019638  0.082291  0.026984 -0.097211 -0.012751 -0.032012  0.028203  0.013773  0.025409 -0.117853
-0.101892 -0.113798 -0.005049  0.037811  0.028002  0.075842  0.257385  0.223903  0.060080  0.034554 -0.073042  0.015243  0.015100 -0.098734  0.050393 -0.166984  0.049118  0.076410 -0.046763 -1.069454 -0.096239  0.040248  0.089077 -0.058864  0.117489  0.025212 -0.005635 -0.041012 -0.186491  0.059482 -0.121125 -0.009325 -0.073062  0.031440 -0.039592  0.232044  0.090562  0.197628 -0.105235 -0.030018 -0.018862 -0.257081  0.004199 -0.009799  0.010476  0.003712  0.011900  0.149219  0.048267 -0.299874
-0.029203  0.116627 -0.052896  0.121965 -0.013124 -0.014471 -0.077159  0.144324  0.091268 -0.073628  0.008021  0.085121  0.062400 -0.035664 -0.003898  0.074681 -0.063636  0.042040  0.049261 -0.586068 -0.003214 -0.086042 -0.000734  0.039458  0.156518  0.048856 -0.119376 -0.152792 -0.027779  0.090413  0.087656  0.011671 -0.091116  0.030392  0.005879  0.000254 -0.164252  0.152314 -0.043244  0.017408 -0.041853 -0.033948  0.087039  0.061169  0.015911  0.080988  0.073064 -0.003928 -0.080658 -0.019136
-0.006010 -0.021594  0.083306 -0.055921  0.091709 -0.140732 -0.147506 -0.092840  0.033315  0.053022 -0.133613 -0.032663 -0.039276 -0.005814 -0.049532  0.015530  0.002585  0.141227 -0.051278 -0.146502 -0.012786  0.059374  0.034799 -0.108877 -0.012756 -0.101611  0.133787  0.086627 -0.203674 -0.031321  0.038456 -0.050578 -0.066706  0.049791  0.126073  0.086947 -0.017433  0.114211 -0.110208  0.007221 -0.088399 -0.137093  0.017984 -0.014868 -0.011767 -0.088744 -0.015813 -0.050317 -0.055191 -0.092053
-0.032878 -0.067716  0.084243  0.103631  0.089535 -0.117168  0.084246 -0.059471  0.072861  0.084407 -0.065249  0.105690 -0.102927 -0.079275  0.009306 -0.058782 -0.083049  0.190060  0.037996 -0.071577 -0.128103 -0.163280 -0.032638 -0.154638  0.038817  0.100736 -0.081226 -0.023773 -0.125652  0.010578 -0.055995 -0.062013  0.020272  0.021758 -0.022075  0.205021 -0.123290 -0.030847 -0.043077  0.038096 -0.008158 -0.056485  0.025157 -0.102211  0.002201 -0.056284  0.058197 -0.029575  0.008894 -0.082716
 0.037672  0.002353  0.048447 -0.115086 -0.006239  0.002894 -0.008458  0.070360  0.059628 -0.020330 -0.137738  0.158802 -0.059897  0.085606  0.053573  0.014101  0.058791 -0.155661  0.050893 -1.029934 -0.016333 -0.017851  0.033135 -0.083164  0.086112  0.060752  0.011376 -0.046228 -0.003197 -0.148838  0.054119  0.002916 -0.021917  0.111904  0.103553  0.105159  0.103662  0.002272  0.009618 -0.079939  0.023446 -0.023157  0.010847 -0.064154 -0.184606  0.101993  0.013808  0.065567  0.089743 -0.039471
-0.015011 -0.054429  0.065180  0.021955  0.087123  0.170267 -0.067244 -0.091426  0.041358  0.160549  0.125795 -0.007277  0.016326 -0.053806 -0.054153  0.111274  0.067387  0.128208 -0.069452  0.717761  0.016926 -0.043201 -0.080427  0.102842  0.076792  0.016735 -0.028131  0.022930 -0.126318  0.077252 -0.005599 -0.014941  0.020060  0.147345  0.068617  0.062573 -0.058599  0.249014  0.034708 -0.085934 -0.017490  0.174846 -0.023675 -0.110082  0.282948 -0.104781 -0.012938 -0.042235 -0.046530 -0.112173
-0.093269  0.007297 -0.048543  0.034387 -0.158449 -0.227028 -0.018086 -0.087163 -0.161729  0.014797  0.046062 -0.100664  0.176957  0.128056 -0.035227  0.153435  0.118441 -0.131723  0.105423 -0.216046 -0.113847 -0.090737 -0.073190 -0.094868 -0.572216 -0.099992 -0.002699 -0.115577  0.026070  0.070549  0.003519 -0.044533  0.016058 -0.086874 -0.095238 -0.128711 -0.045824 -0.400527  0.002899  0.069947  0.033579 -0.150493 -0.009893 -0.009875  0.144482 -0.088210  0.117563  0.032276  0.057996 -0.060829
 0.071931 -0.054688 -0.167505 -0.151741 -0.038584 -0.054559 -0.003884 -0.084506  0.066849  0.052613  0.093117  0.009261  0.060093  0.052472  0.046035  0.071045 -0.061397  0.087737 -0.021360  0.692276  0.024353 -0.149373 -0.094723 -0.009101  0.062902  0.009600  0.147765  0.119444 -0.056341  0.049459  0.008489  0.038485  0.053285  0.104424  0.022729 -0.028883 -0.028459  0.144473  0.049264  0.082026 -0.037498  0.117453 -0.069948  0.012986  0.023838 -0.005031  0.081668 -0.138685  0.150466  0.119351
 0.029144 -0.059071  0.052356  0.064915  0.092420  0.005833 -0.076569  0.023836  0.000359 -0.155908 -0.211327  0.032157  0.060501  0.092111 -0.091639 -0.141114  0.099866 -0.113878  0.073353 -0.463411  0.015280  0.034859  0.175259 -0.117353  0.053078 -0.042645  0.038099  0.036740  0.074613 -0.011738 -0.070680 -0.085816  0.059886 -0.032158  0.029255  0.176975  0.045018 -0.166032 -0.034240 -0.117268 -0.024374 -0.135186  0.199093  0.060374 -0.078398  0.033871  0.016141  0.158965 -0.082395  0.003965
 0.054745 -0.060201  0.026526  0.042501  0.122894  0.069612 -0.033534  0.064844  0.083629  0.050600 -0.018514 -0.043325  0.119761 -0.034626  0.056001 -0.036972  0.166534  0.000973  0.079569  0.314056 -0.044843  0.019205 -0.081222  0.100195 -0.172546  0.092157  0.033471  0.140341  0.173060  0.079580  0.138330  0.073030 -0.000521  0.047114 -0.014510 -0.119911  0.103802  0.157449 -0.001121 -0.057079  0.158240  0.096131  0.056449 -0.061694  0.049499  0.081909  0.144971  0.001218  0.057323  0.044799
-0.062470  0.081087 -0.077074  0.030926  0.078382 -0.099230 -0.018583  0.186224  0.042486 -0.076756 -0.001061 -0.082711  0.007448 -0.080453 -0.067712  0.017238  0.055819  0.064528 -0.083964  0.377610  0.029785  0.078131  0.018025  0.014256  0.046201  0.125018 -0.006061  0.089107  0.111610 -0.023198  0.003506 -0.005243  0.190264  0.047793 -0.056194  0.016264 -0.132791  0.332939  0.014282  0.017485 -0.059551  0.063625  0.099302  0.165851 -0.010498  0.060491  0.029736 -0.082128 -0.040707 -0.007876
-0.046624  0.117229 -0.044986  0.061031 -0.114780 -0.033430  0.024515 -0.067724 -0.260759  0.142823  0.089732 -0.013469  0.072083  0.033117 -0.061598  0.216883  0.064245 -0.263644  0.018486 -0.415384  0.027261 -0.052568  0.100490  0.033207 -0.544168 -0.150123  0.115481 -0.120037  0.027060 -0.086212  0.011409  0.013304  0.035979 -0.121222 -0.094156 -0.009047 -0.144464 -0.247390 -0.041033 -0.100375  0.115243  0.069086  0.029014 -0.086787  0.092982  0.023948  0.014872  0.013134 -0.042297 -0.096986
 0.019500  0.116048 -0.038990 -0.025931  0.148970 -0.012226 -0.062493  0.070377 -0.083803  0.021831 -0.027473  0.008537  0.031333  0.049248  0.006883  0.023209 -0.039824  0.006918 -0.006880  0.117182  0.186103  0.008002 -0.007158  0.123960  0.089126  0.060090  0.033497 -0.004984 -0.078832  0.019030  0.109039 -0.031610 -0.017365 -0.010746 -0.024427  0.049284  0.048683  0.180229  0.073886  0.053696  0.067109  0.118539  0.071312  0.073659  0.015085  0.057769  0.106718 -0.009940 -0.001111 -0.026776
 0.162639 -0.054159  0.040007 -0.060022 -0.017480  0.076177 -0.019940 -0.127162 -0.098163 -0.009834  0.207863  0.084430  0.118861  0.000177 -0.040168  0.329589 -0.126944  0.208493 -0.013637  1.338594  0.037526 -0.124866 -0.086646  0.059361 -0.095555  0.056103  0.051799  0.104082 -0.097682  0.027098  0.013441 -0.092687  0.039936 -0.043982  0.054641 -0.103201 -0.170386  0.082775 -0.073049 -0.137779  0.013359  0.061093 -0.038801 -0.034948  0.114177 -0.031866 -0.041257 -0.143467 -0.130987  0.071594
 0.029708 -0.013205  0.012430 -0.010907 -0.000564  0.032297 -0.023883  0.022321 -0.164576  0.029241  0.136965 -0.031360  0.014626 -0.154172 -0.020279  0.062493  0.091594  0.060316  0.136937  0.904680 -0.107311 -0.159637  0.036769 -0.056926 -0.057033 -0.023279 -0.051261 -0.076770 -0.055067 -0.044146 -0.104076 -0.074031 -0.077273  0.034309  0.014735 -0.026769  0.038066 -0.079894 -0.278201 -0.125374 -0.100167  0.013773 -0.094379  0.071966 -0.079452 -0.069242  0.261416 -0.003495 -0.093681  0.117705
 0.060464  0.221329 -0.006412  0.248796 -0.477918 -0.072099  0.059771 -0.280171  0.271383 -0.040394 -0.248460  0.158704  0.096859  0.054593 -0.029196 -0.610585 -0.055876  0.005107  0.301236 -0.488151 -0.089732  0.296717  0.623637 -0.091306 -0.086098  0.006784  0.071948  0.078627  0.203077 -0.065005  0.111398  0.051800 -0.163058  0.023620 -0.303535 -0.359805  0.017602 -0.392315  0.172945 -0.041629 -0.075487  0.008183  0.145355  0.024013  0.153924  0.130744  0.029827 -0.026820 -0.011680  0.004851
 0.051166 -0.022038  0.003176 -0.195439 -0.048697 -0.074485 -0.170904 -0.099888 -0.018550  0.116733  0.084151  0.090955 -0.014304 -0.133456 -0.035238  0.141145 -0.055184  0.139057 -0.053706  0.670034  0.047966 -0.062381 -0.150308  0.053587  0.216642  0.054892  0.018515  0.001882  0.068143  0.134601 -0.036970  0.036803 -0.036243  0.084838  0.054638 -0.161411  0.030230  0.188971 -0.087830  0.048986 -0.003535  0.137515  0.046102  0.077028 -0.010074 -0.037217 -0.101922 -0.005927  0.012349  0.046469
-0.101150  0.070332  0.110385  0.024366  0.050048 -0.080677 -0.015865  0.155158  0.081864 -0.083392 -0.161056 -0.082895 -0.175890 -0.112165 -0.029852 -0.151403 -0.084989 -0.086590  0.058531 -1.057083 -0.011719  0.115193  0.062399 -0.083191 -0.096213  0.075953 -0.006334 -0.031382  0.014287 -0.135664  0.061194  0.066378 -0.113131 -0.042759 -0.041550  0.063090 -0.060189 -0.155220 -0.182963 -0.029371  0.175991 -0.230021 -0.009149 -0.069079 -0.043996 -0.152758 -0.069685 -0.074402 -0.018943 -0.084196
-0.056161 -0.149297  0.064691  0.003052 -0.017581 -0.045615 -0.168648  0.027031 -0.095706  0.071309  0.030204 -0.110888 -0.054646  0.062911  0.002226 -0.063998  0.085681  0.006036 -0.074635  1.066496 -0.145340  0.114081 -0.107072  0.090950 -0.099601  0.142080 -0.046175 -0.073865 -0.092638  0.037153  0.119562  0.017963 -0.060289  0.012248 -0.012542  0.053559 -0.059461 -0.018542 -0.074278 -0.071880 -0.003912  0.144220 -0.206732  0.086606  0.103394  0.053650 -0.044656 -0.050880 -0.065315  0.074501
 0.130600 -0.079638  0.066896  0.017461  0.001368 -0.008602 -0.120135  0.023634 -0.113299  0.206383  0.203410  0.022874  0.122455  0.112711 -0.017111  0.233115  0.005904  0.145107 -0.021004  0.716015  0.078225 -0.067896  0.085556  0.074555 -0.036343 -0.076686  0.022284  0.060969 -0.055895  0.034371 -0.092923 -0.085296  0.027850  0.071166 -0.026295 -0.041859 -0.013744  0.171461 -0.021977  0.098542  0.071820  0.178923  0.006999  0.047063 -0.045112 -0.042735  0.016661 -0.169393 -0.061611  0.073208
-0.032855 -0.083409 -0.014144  0.056128  0.064360 -0.004954  0.140576  0.044902 -0.002699 -0.219307 -0.137257  0.031849 -0.023531  0.051399  0.007662 -0.295741  0.069230 -0.125275 -0.033159 -1.275371  0.084629  0.097526  0.055762 -0.177244  0.013122  0.029390 -0.089808  0.023173  0.079607  0.130479  0.167043  0.046052  0.074561 -0.048159 -0.026835  0.105977 -0.003391 -0.170458  0.036016  0.025038  0.011728  0.000257  0.069823  0.099719 -0.192497 -0.097841  0.054507  0.024975 -0.008382 -0.175069
-0.046728 -0.115983 -0.005454  0.041706 -0.038122 -0.139861  0.021566 -0.019067  0.125969 -0.211128 -0.077443  0.086540  0.102985 -0.020891 -0.059054 -0.055382  0.067840 -0.001463  0.058217 -0.550168  0.077361 -0.042839 -0.028446 -0.034485 -0.144317 -0.068413 -0.046714 -0.050406 -0.066992  0.039431  0.067341  0.013830 -0.007095 -0.044754 -0.096529  0.178197  0.031034 -0.241627  0.166779 -0.157614  0.061486 -0.140418 -0.049539 -0.134375  0.094700 -0.118834 -0.004934  0.021414 -0.171784 -0.140202
-0.004062  0.047849 -0.014013  0.123684 -0.173226  0.116051 -0.184250  0.035193 -0.008320  0.114562  0.203450 -0.117948  0.056633  0.027981  0.037091  0.119758 -0.086927  0.008216 -0.063040  0.827313  0.045675 -0.047906 -0.120734  0.078817 -0.022426 -0.113350 -0.056092  0.091554  0.088918 -0.044090  0.080469 -0.036749 -0.087521  0.156921 -0.038601  0.007217  0.101303  0.293212  0.105574 -0.029290 -0.116020 -0.004872 -0.024664  0.030910 -0.026558  0.000220  0.075139 -0.034071  0.019145 -0.002324
 0.139141  0.036891  0.013373  0.117733  0.045587 -0.076724  0.083692 -0.055062  0.065609 -0.253747 -0.165953 -0.050504 -0.140173 -0.003652 -0.095932 -0.073137  0.178311 -0.065761 -0.090693 -0.599187 -0.098574 -0.011183  0.021790  0.068357 -0.019171  0.002872  0.011874 -0.076752 -0.075667 -0.034891 -0.009040 -0.077196  0.001132  0.071636 -0.051241  0.067843 -0.031059 -0.257417 -0.110125  0.011223  0.038812 -0.161216  0.081525  0.030652 -0.064814 -0.008744 -0.102801  0.082692  0.069350 -0.132694
 0.079477 -0.081868 -0.071751  0.023482 -0.002094  0.038339 -0.063638  0.021310  0.015394  0.181082  0.202587 -0.074067  0.047394 -0.016689 -0.032961  0.227070 -0.063329  0.199613 -0.139082  0.873139  0.216056 -0.009636 -0.081008  0.018536  0.180050  0.088211 -0.110483  0.082942  0.204545 -0.079182 -0.022697 -0.120080  0.104788  0.219815  0.002122 -0.087473  0.057044  0.186559 -0.071445  0.016585 -0.095731  0.088079 -0.086936 -0.043873  0.018894  0.006619 -0.016078 -0.155842  0.087692 -0.007430
-0.015613 -0.037052  0.002616 -0.005474  0.010601 -0.009372 -0.012136 -0.068667 -0.178594 -0.030646 -0.058993  0.102433 -0.012796 -0.095999 -0.030862  0.010898 -0.018259 -0.019794  0.157328  0.347280 -0.070034 -0.081594  0.109152  0.012366 -0.157488 -0.028731  0.099129 -0.003251 -0.127773 -0.134257  0.036088  0.008807 -0.118180  0.058858 -0.054409  0.023972  0.079132 -0.293783  0.082831  0.103317 -0.004334  0.009225  0.048896  0.072138  0.026415 -0.010496 -0.006328 -0.009122  0.060944  0.045125
-0.026626  0.098537 -0.163509 -0.017224 -0.083612  0.160497 -0.059602 -0.047334 -0.022265  0.043024  0.131780 -0.067924  0.129448  0.040763  0.089076  0.056202 -0.025191  0.135229 -0.069720  0.796923 -0.122020 -0.000201 -0.118835 -0.064625  0.082766 -0.036889 -0.000392  0.090983 -0.028308  0.025010  0.021718 -0.065870  0.054965  0.123508  0.031270  0.063833 -0.013099  0.122471  0.099291 -0.073281  0.007163  0.021493 -0.000824  0.109616 -0.064426 -0.080463 -0.122690 -0.139090  0.074353  0.095049
-0.065180  0.117033  0.100447 -0.124776  0.017567 -0.001795 -0.076675 -0.032295  0.026075 -0.023369 -0.106651  0.019705 -0.108025  0.013547  0.026379 -0.198621 -0.022170 -0.097130  0.122327 -0.826358 -0.004353  0.033605  0.142165 -0.022934  0.006410 -0.025934 -0.100855  0.038747  0.105597  0.083945 -0.052032 -0.065135  0.084986  0.024054  0.103668 -0.037040 -0.019719 -0.127513 -0.027485 -0.045713  0.021183 -0.165934 -0.010078  0.023306 -0.178595  0.146062  0.006288  0.115738 -0.091409 -0.058558
 0.081656  0.033837  0.034106 -0.006227 -0.084159  0.009652  0.070178 -0.145162 -0.165444 -0.127596 -0.071370 -0.011883 -0.124983 -0.046286 -0.033884 -0.066083  0.016364 -0.100560 -0.040612 -0.181746  0.066292  0.002136  0.038494 -0.017250  0.041818  0.025396  0.044035  0.094140  0.009166  0.044140 -0.153635 -0.081914 -0.025842  0.103469  0.081619 -0.039320 -0.013331 -0.059075  0.059358 -0.017937 -0.145444 -0.059065 -0.087385  0.052463 -0.005772  0.043442 -0.017636 -0.013291 -0.043047 -0.027536
-0.277436 -0.021742  0.130415  0.063861  0.039501  0.070983 -0.064220 -0.095922  0.047104 -0.042179 -0.148452  0.029507 -0.092470 -0.062774 -0.015773 -0.170365  0.078599 -0.088452  0.034008 -1.270685  0.050863 -0.017162  0.031568 -0.031685 -0.025471 -0.125115 -0.046605  0.019438  0.004102  0.144805  0.037583 -0.058188  0.187984  0.064493 -0.008393  0.047611  0.062944 -0.049012  0.051181  0.049917  0.049910 -0.133860 -0.010131 -0.041884 -0.116778 -0.047254 -0.035246 -0.123893  0.088646 -0.215531
-0.102632 -0.042230 -0.074119 -0.018600  0.067008 -0.050304  0.185030  0.023108  0.086624 -0.084732 -0.118396 -0.084621 -0.023470  0.028384 -0.096418 -0.054502  0.055564  0.073247 -0.003828 -1.023368 -0.051228  0.017280  0.094084  0.013121 -0.099996 -0.023745 -0.024335 -0.067241 -0.045930 -0.021472  0.022916 -0.084096 -0.061089 -0.083602  0.120367  0.160670 -0.031582 -0.128333  0.065287  0.009759  0.038778 -0.264147  0.022173 -0.101892  0.026536 -0.026511  0.059002  0.033278  0.016125 -0.225245
