=== Wi ===
      0        1         2        3         4        5        6         7        8        9         10       11       12       13       14       15        16        17        18       19        20       21       22       23       24        25       26       27       28       29       30       31        32       33        34        35       36       37       38       39       40       41        42       43       44       45       46        47       48       49
0.196519 0.158161 -0.045472 0.139176 -0.263639 0.073398 0.110602 -0.162973 0.044284 0.201826 -0.007311 0.024263 0.221529 0.002698 0.022339 0.260353 -0.192213 -0.097146 -0.004836 0.711255 -0.086929 0.216851 0.131189 0.063713 0.266012 -0.096108 0.050325 0.086292 0.118115 -0.08214 -0.07219 0.208332 -0.123349 0.052191 -0.121096 -0.214384 0.143554 0.045656 0.100996 0.060728 -0.18801 0.349907 -0.030462 0.049687 0.297523 0.063562 0.035935 -0.119705 -0.06548 0.165392

=== Ui ===
       0         1         2         3         4         5         6         7         8         9         10        11        12        13        14        15        16        17        18        19        20        21        22        23        24        25        26        27        28        29        30        31        32        33        34        35        36        37        38        39        40        41        42        43        44        45        46        47        48        49
 0.039614  0.000340  0.048394  0.025708  0.057258  0.048497 -0.014937  0.017178  0.001280 -0.026719  0.129754 -0.024267  0.028583  0.004180  0.023105  0.161560  0.028258  0.141361  0.061914  0.421992  0.017559  0.006716 -0.002836  0.064685  0.098622  0.006565  0.067678  0.193962  0.015269  0.008743  0.102700 -0.055714  0.073122  0.027735 -0.063396 -0.058856  0.018263  0.242412 -0.062396  0.015008 -0.115495  0.235431 -0.121083 -0.004123  0.024718 -0.001082  0.042690 -0.032351 -0.082231 -0.022173
 0.055567  0.048663 -0.008669  0.002040 -0.119841 -0.068268 -0.076374 -0.101484  0.073183  0.069316  0.224542 -0.020349  0.098453  0.129569 -0.060445  0.171155 -0.033875  0.075491 -0.015564  1.015920  0.064092 -0.001787  0.095955  0.154102  0.052223 -0.116267  0.023396  0.231676  0.046048  0.001013 -0.081808  0.102512 -0.044476  0.077873  0.131014 -0.114488  0.038255  0.101941  0.084212  0.046627  0.065426  0.258378 -0.096129 -0.012059  0.078697 -0.115175  0.057745 -0.161959  0.002509  0.193976
-0.029811  0.024560  0.015971 -0.092057  0.002559  0.041363 -0.036909  0.044374 -0.052092  0.091749  0.031534  0.018850  0.024048  0.050562 -0.073094  0.038620 -0.113350  0.101596  0.050919  0.163035  0.138687  0.128562  0.093550  0.098129  0.033349 -0.026532  0.022533 -0.029686  0.114320  0.098788  0.024092  0.041070 -0.010137  0.021472 -0.140180  0.050711  0.078862  0.169903 -0.058618 -0.052941  0.024337  0.137377 -0.100315 -0.045883 -0.048667  0.010917  0.108801 -0.027935 -0.054562  0.008580
 0.014910  0.022049 -0.062958  0.038758 -0.088254 -0.014850 -0.026191 -0.093993 -0.031495 -0.000094 -0.027441  0.025556  0.069770  0.064863 -0.052171  0.099892 -0.097762  0.071310  0.058570  0.724763  0.062676  0.159672 -0.066405 -0.071293 -0.099424 -0.056396  0.037103  0.089771 -0.003031 -0.014448 -0.093718 -0.065500 -0.014741 -0.093917  0.084927 -0.060917 -0.007379 -0.144743  0.074339  0.018051 -0.024593  0.024119  0.052214  0.030940  0.105796 -0.113717 -0.174863  0.020652 -0.061226 -0.100007
-0.102028 -0.123871 -0.011690  0.127774  0.129323 -0.055559  0.160963  0.300356  0.054645  0.055299 -0.216537 -0.001476 -0.073023  0.026481  0.122528 -0.073600  0.045707  0.035269  0.150820 -1.074690 -0.043522 -0.084950 -0.093553 -0.123139 -0.068874 -0.146230 -0.015589 -0.283946 -0.031499  0.002966  0.058259 -0.067728  0.067286  0.018162 -0.013358  0.025056 -0.052703 -0.010384  0.077360  0.056011  0.000539 -0.135188 -0.055951 -0.178310 -0.123027 -0.003208 -0.069971  0.123066  0.013030 -0.090389
 0.031528  0.007307 -0.018835  0.072643  0.018083 -0.010280 -0.088878  0.024115  0.068545 -0.074869 -0.032010  0.112857 -0.006872 -0.109015 -0.007821 -0.118936  0.026528  0.067489  0.054068 -0.542418 -0.015528 -0.012137 -0.044130  0.048823 -0.060576  0.032862  0.051981 -0.106648 -0.015540 -0.017249 -0.027814  0.082642 -0.011239 -0.088937 -0.114116 -0.022232 -0.000347  0.101849  0.071643  0.118705  0.024932 -0.239540 -0.028258 -0.050744  0.018097 -0.019021 -0.061500 -0.026901  0.028538  0.033434
-0.034843 -0.040485  0.191241  0.027485  0.124800  0.002638  0.018075 -0.012835 -0.015489  0.064391 -0.042514 -0.010904 -0.087168 -0.098911 -0.081970 -0.085132  0.140855  0.003362 -0.081545 -0.212448 -0.019248 -0.017451 -0.056351 -0.038248  0.069471 -0.117842 -0.005905 -0.019972 -0.149889 -0.035382  0.033899 -0.033735 -0.067883  0.066559 -0.027617 -0.002848 -0.030614 -0.008110 -0.007264  0.134066  0.082953 -0.114966 -0.117991 -0.026453 -0.064269  0.016366 -0.012441  0.027592 -0.068761 -0.027378
-0.098240  0.049416 -0.032507  0.011256  0.134326 -0.000099 -0.071875  0.074935  0.056770  0.078328 -0.104368  0.061510 -0.000842  0.007221  0.036321  0.029921 -0.025848  0.077697  0.076485 -0.050848 -0.202596 -0.008420  0.139552 -0.024845 -0.027906 -0.085640 -0.020762 -0.044487 -0.058501 -0.007239 -0.101999  0.006125 -0.046447 -0.057891  0.011585 -0.026520 -0.014706 -0.082890  0.011372  0.044938 -0.055740 -0.081967 -0.108257 -0.043161 -0.085315 -0.008069 -0.045982  0.031892 -0.004122 -0.044058
 0.112431  0.063078  0.011200 -0.000327  0.054865  0.052668  0.083186 -0.064451  0.057708 -0.048616 -0.219812 -0.051021 -0.042097  0.069244  0.104583 -0.247829  0.059341 -0.056223  0.035635 -1.004749 -0.048808 -0.160156  0.053050 -0.032269 -0.082936  0.163266  0.055045 -0.036110  0.033727  0.011726  0.057545  0.098018  0.109773 -0.085734 -0.044197  0.027410  0.019161 -0.047931  0.078122 -0.020856  0.195568 -0.067602  0.097392  0.068795 -0.192182  0.093046  0.112106  0.022533  0.074981 -0.114514
 0.060701  0.014702  0.101968 -0.092791 -0.047313 -0.027243 -0.130598 -0.097247 -0.097795  0.081326  0.156192 -0.169680 -0.018440 -0.051585 -0.075081  0.164300  0.114415  0.025708  0.072053  0.857441  0.012219  0.001227 -0.167755  0.189463  0.049742  0.097365 -0.131317  0.081246 -0.033493  0.030869 -0.024687  0.000149 -0.069958  0.014768  0.185273 -0.061400  0.009383  0.118589 -0.050832 -0.022880 -0.055868  0.261626 -0.093941 -0.082659  0.117244  0.013045 -0.026214 -0.027976 -0.037823  0.036014
-0.070907  0.097338  0.191128  0.102509  0.008428 -0.263814 -0.005358 -0.141018 -0.110129  0.153583  0.078115 -0.026299 -0.114230  0.038150 -0.012621  0.061808  0.071265 -0.227305  0.102757 -0.173043  0.004800 -0.092732  0.019563  0.017459 -0.391666  0.065013 -0.008366 -0.001060 -0.000168  0.067657 -0.018642  0.015524  0.004559 -0.113863 -0.102226 -0.079706  0.010282 -0.343492 -0.073152  0.085328  0.031998  0.039102 -0.129436  0.074362 -0.082449  0.041551 -0.081065  0.098825 -0.139805 -0.127811
-0.078773  0.050661 -0.045385 -0.068739 -0.049280 -0.044158  0.068312 -0.020063  0.135157  0.110724  0.022177 -0.047732  0.022987 -0.014640 -0.102265  0.115131 -0.013321  0.054487 -0.076805  0.770406  0.057623 -0.026644 -0.098847 -0.097849  0.121516  0.017752  0.057534 -0.025373  0.049973  0.070743 -0.044426 -0.060464  0.093313 -0.093492 -0.078999 -0.004023 -0.075750 -0.000620 -0.039096 -0.048149  0.045281  0.138090 -0.081264 -0.062158 -0.014561 -0.051221 -0.004174 -0.082331 -0.051373  0.025097
-0.095854 -0.007497 -0.006315 -0.007144 -0.023343 -0.109589 -0.065046  0.025923  0.119966  0.010422  0.005672  0.068250 -0.108332 -0.153260  0.092044 -0.094901  0.014509  0.047663  0.063379 -0.688118 -0.170322 -0.133968 -0.030369 -0.077311  0.002762  0.055967 -0.047732 -0.007126  0.074860 -0.142567  0.085357 -0.029234  0.003808 -0.022434 -0.031283  0.177582 -0.044767 -0.207592  0.002675 -0.139763  0.156287 -0.206566  0.136466 -0.019484 -0.129790 -0.017586  0.008669  0.010279 -0.055978 -0.014924
-0.010507 -0.075805  0.044354 -0.103708  0.077363  0.050594 -0.100058 -0.007825  0.023761  0.028205 -0.024410  0.086382  0.024476  0.059061 -0.035431  0.244120 -0.030235  0.095642 -0.006519  0.255651  0.054223 -0.031432 -0.001021 -0.061773  0.120307 -0.003768  0.179829 -0.137298  0.027717 -0.038968  0.012318 -0.008901 -0.065056  0.113227 -0.138020 -0.067865  0.102402  0.080686  0.077741  0.045559  0.010420  0.073156  0.038102  0.079557  0.118860  0.047711 -0.019803 -0.031342 -0.028767  0.041760
 0.039393 -0.057888 -0.190150 -0.034270  0.058185 -0.052993 -0.044357  0.037649 -0.021108  0.028163 -0.115713 -0.063510 -0.003274 -0.173475 -0.081430 -0.119570 -0.050712  0.087901  0.024923  0.388835  0.058778 -0.093047 -0.068641  0.051976  0.063216 -0.080526 -0.067451  0.112306  0.057386 -0.065292 -0.040137  0.014679  0.002101  0.141338 -0.016864 -0.110126 -0.018154  0.150666 -0.039543 -0.025426 -0.096633  0.088330 -0.120191  0.053881  0.010047  0.135972  0.007684 -0.002321  0.080766  0.095094
-0.015537  0.020099  0.109507 -0.070492 -0.018157 -0.034667  0.137541 -0.059683 -0.040143  0.117644 -0.031504  0.091524  0.159960  0.001112  0.000978  0.041381  0.068939 -0.103251  0.053358 -0.402171 -0.054398  0.147253  0.096576  0.065158 -0.288989  0.146456  0.131036  0.008837  0.036938  0.039019  0.027557  0.015683 -0.106981 -0.126354 -0.076402 -0.078915 -0.012840 -0.300482 -0.034422 -0.086063 -0.064341  0.145372 -0.059997 -0.098549  0.173152 -0.008212  0.072290 -0.017560  0.029668 -0.107959
-0.001176  0.158286 -0.057852 -0.095910  0.152962  0.107166  0.029700 -0.013462  0.020913 -0.135936  0.081078  0.011364  0.026387  0.054954  0.163118  0.100518 -0.165598  0.060863 -0.044451  0.168670 -0.036426  0.052441  0.048078  0.031331  0.187393  0.036360  0.082154  0.011716 -0.024132 -0.046023 -0.072286  0.055139  0.023361 -0.026503 -0.020466  0.015502 -0.026736  0.056552 -0.000501  0.030663 -0.134213  0.084128  0.025367 -0.020448 -0.010921 -0.008144  0.027636  0.179767 -0.025973 -0.111066
 0.183756  0.011703 -0.028774  0.005225  0.034689  0.007469 -0.172665 -0.165225  0.033482  0.031822  0.287257 -0.246893 -0.097777  0.058921 -0.047707  0.262316 -0.018590  0.240111 -0.040563  1.396925  0.017745  0.157365  0.033607  0.108419 -0.062126 -0.017289  0.173173  0.057297  0.105359  0.075051  0.082491 -0.022414 -0.187152  0.115896 -0.005938 -0.082821 -0.066034  0.071357 -0.009596 -0.110755 -0.171350  0.307466 -0.063762 -0.030804  0.104773 -0.092305 -0.098849 -0.041797  0.061884  0.182234
-0.023122  0.032341  0.099828 -0.039960 -0.017179  0.017298  0.012904 -0.021952 -0.083514 -0.005454  0.129133 -0.195914 -0.098503 -0.068176 -0.028740  0.123271  0.021188  0.127991 -0.040292  0.975276 -0.033417 -0.007182 -0.045644 -0.021999  0.071351 -0.165669 -0.030842  0.036975  0.021644 -0.057994 -0.079234 -0.075878 -0.081198  0.031513  0.118235 -0.069777 -0.141460  0.019034  0.077136  0.033612 -0.029183  0.208587 -0.171882 -0.036571  0.052391 -0.084932  0.046560 -0.004531 -0.086529 -0.004070
-0.202219  0.033653 -0.003186  0.124756 -0.077865 -0.056181  0.045826 -0.174171 -0.028440 -0.092406 -0.145714  0.068840  0.026118  0.067586  0.031482 -0.318234 -0.059673 -0.119743  0.067561 -0.418325 -0.129701 -0.074084  0.148769  0.006434 -0.025857 -0.034130 -0.001505 -0.016183 -0.064112  0.022282  0.042233 -0.039065  0.086073  0.029841 -0.043785  0.089567  0.044709 -0.194725  0.015656 -0.085966  0.051898 -0.149089  0.078558  0.004994  0.014731  0.231500  0.025342  0.022350  0.071111 -0.067763
 0.055630  0.021226  0.033405 -0.119838  0.030579 -0.043365 -0.016267 -0.037362  0.013267  0.099000  0.132998  0.044709  0.059033 -0.063790 -0.031312  0.184877 -0.138242  0.173577 -0.116243  0.740571  0.072557  0.084309 -0.197926  0.070452  0.004999  0.155623 -0.065648  0.053507 -0.007128 -0.009163 -0.047083  0.031316  0.020827  0.031546 -0.105262 -0.098298  0.061982  0.134369 -0.016198  0.108659  0.075385  0.161430  0.014470 -0.009093  0.066625  0.092876 -0.037821  0.053410 -0.038858 -0.018496
-0.017303 -0.036800  0.042789  0.029940  0.015607  0.006274  0.015003  0.130383 -0.016070 -0.107692 -0.147450 -0.046919 -0.025789 -0.077248  0.130107 -0.131184 -0.169238 -0.061927 -0.056921 -0.960720 -0.004489 -0.085697  0.055153 -0.154250 -0.190099  0.065563 -0.029286 -0.115848 -0.045181 -0.049027  0.035088  0.026671 -0.086742 -0.013935 -0.073996  0.063666 -0.008725 -0.236703 -0.003399 -0.075181  0.157355 -0.173544  0.055615 -0.027802 -0.038385 -0.053524  0.059877  0.121899  0.073676 -0.110893
 0.037748  0.022202  0.083929 -0.032652 -0.146821 -0.025061  0.076489 -0.060653 -0.003892  0.004301  0.155113  0.046366 -0.074361  0.059824 -0.000146  0.043756 -0.026584 -0.038095 -0.035092  0.967086 -0.089825  0.078285 -0.113213  0.154093  0.033988 -0.028167 -0.020413  0.096016  0.047459 -0.057966  0.099027 -0.134924  0.095180 -0.035654 -0.096013  0.009971  0.007561 -0.006059 -0.015028 -0.027467 -0.113069  0.065710 -0.133629 -0.102370  0.061485 -0.101008 -0.080868  0.012455  0.102502  0.010543
 0.121889 -0.089202  0.013115  0.004980 -0.071619 -0.235321  0.013209 -0.128649 -0.014760  0.188309  0.082818  0.038231  0.126881  0.051580  0.017018  0.219096  0.036495  0.136379  0.043865  0.776461  0.194756  0.076937 -0.044099  0.026615  0.122304 -0.098844 -0.099489 -0.008108 -0.040803 -0.069127 -0.016789 -0.046012  0.098199 -0.015614 -0.017981 -0.063427  0.075041  0.051593  0.083989  0.037348 -0.090016  0.214954  0.013404 -0.043220  0.084396 -0.080715 -0.171426  0.090269 -0.030090  0.124525
-0.189923 -0.018895 -0.071354  0.072220  0.134174 -0.003851  0.119277  0.137015 -0.016732 -0.144510 -0.189265  0.086278  0.192079 -0.005703  0.037303 -0.304399  0.085893 -0.230577 -0.027473 -1.227440 -0.095576 -0.113698  0.082164 -0.138628 -0.025366  0.072050  0.025702 -0.040003  0.106545 -0.084193  0.181306  0.148631  0.160559 -0.102219 -0.078892  0.067020  0.041228 -0.038042 -0.067298  0.031440  0.079253 -0.289179  0.101325 -0.008282  0.050533 -0.079911  0.043162  0.039137  0.081663 -0.018070
-0.025150 -0.000755 -0.024279 -0.052555  0.109566 -0.008036  0.096190  0.092615 -0.042856 -0.055135 -0.012706  0.074252 -0.131891  0.061249  0.064753 -0.078844 -0.056273 -0.072531  0.075486 -0.516400 -0.035167 -0.077622 -0.067077 -0.119729 -0.044537  0.116796  0.078510  0.085245 -0.135912 -0.120541  0.044583  0.010257  0.020650 -0.050569  0.057315 -0.032594 -0.026555 -0.082239 -0.017851  0.011344  0.035896 -0.073609 -0.083983  0.078581  0.116406  0.028290  0.050484 -0.034717 -0.019843 -0.096444
 0.133082  0.053537 -0.096850 -0.084975 -0.099782 -0.035034  0.093570 -0.189017 -0.083863  0.106641  0.124546  0.041299  0.020851 -0.051411 -0.023460  0.039721 -0.068954  0.003172  0.024498  0.687672 -0.060757  0.040224  0.002884 -0.050000  0.050937  0.002543  0.016918  0.042212 -0.029398  0.056638 -0.021387  0.075704 -0.128131  0.057991 -0.118646 -0.048561 -0.009236  0.058137 -0.026344  0.058170 -0.026980  0.265570  0.059252  0.009637  0.087125  0.089894 -0.091712  0.042768  0.019420  0.084656
-0.005219 -0.038275 -0.032855  0.068753 -0.126743 -0.070022 -0.012099 -0.089222 -0.036302 -0.118232 -0.015025 -0.007908  0.001094 -0.064812 -0.034499 -0.128555 -0.142019 -0.096793  0.047870 -0.547373  0.040266 -0.041875  0.033860  0.047401  0.043694 -0.010196 -0.051725 -0.007984  0.039712  0.050576  0.033056  0.096765  0.085935  0.020454  0.014029  0.014231 -0.077739 -0.140020  0.086596 -0.079292  0.092869 -0.213209 -0.032097  0.013978  0.028191 -0.109986  0.024798  0.091508 -0.014378  0.000418
 0.054820  0.060651  0.104427 -0.006281 -0.132075  0.123986 -0.168750 -0.045000 -0.010530  0.154123  0.088064  0.096949 -0.023412  0.035275  0.015594  0.181313  0.087546  0.149774 -0.106970  0.949472 -0.037847  0.022073 -0.052887  0.238483  0.175315  0.075311  0.089999  0.082472  0.067760  0.047346 -0.172770  0.002311 -0.013584  0.007279 -0.039265 -0.145541 -0.019894  0.227509  0.091655  0.100778 -0.082438  0.198935  0.052596 -0.040029  0.041859 -0.093618 -0.065531  0.005585 -0.070455 -0.024892
-0.053395  0.082942 -0.026345 -0.024775 -0.120867 -0.097208 -0.021506 -0.088607 -0.139273 -0.123597 -0.002583 -0.049723 -0.107691 -0.024793 -0.144677 -0.106454  0.064112 -0.086142 -0.110642  0.149773 -0.020801 -0.027582 -0.055904 -0.106410  0.044417  0.043675  0.064981  0.003300 -0.005166 -0.023818 -0.024597 -0.033500  0.019745 -0.008188 -0.068286 -0.145502 -0.129387 -0.262897 -0.023053 -0.136640 -0.077459  0.067151  0.169635  0.045907  0.081464 -0.043704 -0.001332 -0.059891  0.073134 -0.139192
 0.035637  0.061852  0.028658  0.060650 -0.059717  0.108146 -0.048067 -0.092756  0.061702  0.141776  0.198561  0.107647 -0.093819  0.064075  0.051722  0.175347  0.018544  0.167542 -0.113681  0.737872  0.048532  0.013933 -0.071397  0.037359  0.016780  0.160605 -0.121333  0.090341  0.105452 -0.001321 -0.132187  0.006590 -0.016224  0.063949  0.083146 -0.058883 -0.031275  0.122405  0.158851 -0.067258  0.050403  0.056232 -0.068583 -0.065312  0.103272 -0.055796  0.076080  0.010781  0.096763  0.061160
-0.216729 -0.034836 -0.108141  0.053698 -0.075349  0.035688  0.061385  0.099820 -0.052926 -0.163376 -0.278006  0.127984 -0.087501  0.052901  0.076251 -0.066245  0.074467 -0.139601  0.045389 -0.920229 -0.074926 -0.199276  0.111424 -0.069683 -0.050097  0.151144  0.014105 -0.055218 -0.020051 -0.059971  0.068527 -0.006344  0.006900  0.041345  0.047134 -0.027403 -0.024823 -0.156115  0.014726 -0.088695  0.002209 -0.125104 -0.249237 -0.043660  0.053064  0.018131 -0.217238  0.115991  0.001011 -0.095880
-0.066232 -0.061326 -0.098946 -0.044928 -0.038739 -0.041786  0.052030 -0.018498  0.062421 -0.244898  0.034457 -0.039330 -0.042682  0.127524  0.123702 -0.016124 -0.011989 -0.146984 -0.002680 -0.215485  0.038206  0.063747 -0.013924 -0.131148 -0.001990 -0.060605 -0.103892  0.042362 -0.082103 -0.018935  0.062807 -0.033448  0.014674 -0.129540  0.009108 -0.074538  0.065528 -0.108695 -0.083857 -0.102530  0.080740 -0.020690  0.012586  0.058604 -0.085868 -0.082235  0.112022 -0.001607 -0.069422  0.133874
-0.105368  0.007580  0.064092 -0.029110  0.041065 -0.092543 -0.029930  0.012619  0.044433 -0.172755 -0.316445  0.075543  0.003719  0.047919 -0.025641 -0.329281 -0.092233 -0.058243 -0.031436 -1.311570 -0.108169  0.019442 -0.012914 -0.080614 -0.088156 -0.101953  0.041155 -0.091360 -0.002064  0.133277  0.024151 -0.069550  0.036144 -0.105240 -0.041923 -0.068045  0.065513  0.029350  0.171994 -0.073491 -0.014515 -0.148501  0.069310 -0.078263 -0.134491 -0.020269  0.132803 -0.023788 -0.002692 -0.059602
-0.031368 -0.027476  0.017826  0.091132  0.001574 -0.064330  0.092835 -0.019127  0.152781 -0.049842 -0.266777 -0.170137  0.113230 -0.046776 -0.088373  0.003553 -0.065938 -0.079172  0.037825 -1.199801 -0.170156 -0.077405 -0.045832 -0.019793 -0.094674  0.002363 -0.146052  0.011294 -0.105067 -0.046671 -0.113554 -0.130730  0.042315  0.047876  0.076115  0.063033 -0.027932 -0.062301 -0.097000  0.013171  0.041144 -0.127013  0.021394 -0.129660 -0.120461  0.077885  0.041540  0.097031 -0.139559 -0.170312
 0.047671 -0.039546 -0.047197  0.012793  0.056390 -0.035029 -0.005769  0.011626 -0.018236 -0.014066 -0.116198 -0.122630  0.024462  0.104741 -0.091285 -0.021671  0.231628 -0.023583  0.067392 -0.973986  0.012036 -0.026185  0.095580 -0.102949 -0.122408 -0.023732  0.057920 -0.006241 -0.182738 -0.031373  0.102446 -0.060501  0.081598 -0.040093  0.006988  0.051736 -0.116674 -0.095949  0.054626  0.027330  0.048675 -0.155184  0.038103  0.010528 -0.075700  0.038775  0.025099  0.153471  0.035010 -0.055933
 0.051088 -0.123080  0.108746 -0.066335 -0.042269  0.088199  0.109147 -0.095670 -0.127314 -0.126724  0.035541 -0.053362 -0.022400 -0.033079  0.057433 -0.063790  0.050510 -0.110277  0.052051 -0.663076 -0.120713 -0.027041  0.162654 -0.014544 -0.136869 -0.004278 -0.012830 -0.057193 -0.078157 -0.140093  0.084453  0.135674 -0.047709 -0.053658 -0.017080 -0.017323  0.004487 -0.224555 -0.171156 -0.145894 -0.103113 -0.050676 -0.015683  0.012180 -0.098020  0.005902 -0.172549  0.090280  0.077407  0.031232
-0.070525 -0.054857  0.113506  0.136941  0.019020  0.029097  0.670615  0.256069 -0.086950 -0.263028 -0.466636  0.115465 -0.138486  0.125725 -0.069428 -0.385710  0.210344 -0.105597  0.275880 -1.304674 -0.020555 -0.055428  0.506125 -0.093115 -0.066573  0.025346 -0.008028 -0.069214 -0.091351 -0.059278  0.065016 -0.160729  0.127965 -0.042400  0.021942  0.245827 -0.016702 -0.115516 -0.011459  0.047862  0.128951 -0.108406  0.172923 -0.072247  0.114255  0.012466  0.099706  0.570770  0.032427  0.040319
 0.148492  0.121474  0.119073 -0.122588 -0.018658  0.038044 -0.014936 -0.022868  0.012212  0.174208  0.083156 -0.037599 -0.102013 -0.009799 -0.061165  0.033113 -0.155510  0.176533 -0.047557  0.624176  0.120629  0.000300  0.087530 -0.020151  0.149748  0.018709 -0.017520  0.033742 -0.037725 -0.049021  0.042600 -0.012661  0.064331 -0.046448 -0.045557 -0.014913  0.118014  0.012253  0.015991  0.046349 -0.023205  0.069554 -0.043744 -0.042045 -0.052916 -0.016271 -0.094125 -0.112693  0.097228  0.012802
-0.112123 -0.039517 -0.042551  0.080824  0.171560 -0.011717  0.090090  0.062973 -0.070845 -0.133521 -0.018505 -0.016597  0.053588 -0.052827 -0.044549  0.027258  0.076980  0.106006 -0.042709 -0.800541  0.005792 -0.101477  0.215121  0.018963  0.008197  0.113390 -0.134108 -0.046326 -0.190922  0.033933  0.088268  0.040730  0.079098 -0.054903  0.120250 -0.105600  0.020332 -0.117269  0.047955  0.181364  0.052392 -0.200672  0.133041 -0.048598 -0.130185 -0.018031  0.135154  0.196707  0.006835  0.036424
-0.138981 -0.164443 -0.012324 -0.064859  0.018766 -0.123476  0.134581 -0.151920  0.037302  0.094364 -0.074193  0.068647 -0.064181  0.036136  0.078462 -0.170372  0.159677 -0.057096 -0.009688 -0.769841 -0.004982 -0.048664  0.022044 -0.057800 -0.119105 -0.006986 -0.022107  0.084342 -0.095971 -0.087003 -0.052080 -0.065594 -0.016610  0.215097 -0.007851  0.033564 -0.009262 -0.161182  0.114121 -0.037136 -0.047494 -0.094883 -0.003172 -0.173396 -0.094775 -0.028006  0.131482 -0.029721 -0.269465  0.036928
-0.025093  0.055103  0.048619  0.082159 -0.012623 -0.058615  0.218440  0.187419  0.029429 -0.105866 -0.152169 -0.021887 -0.025259 -0.096796 -0.035662 -0.290641  0.043501 -0.060353  0.063148 -1.093770 -0.194526  0.040542  0.236403 -0.118460 -0.076443  0.090339  0.104835 -0.014555 -0.190693 -0.139687 -0.003452 -0.135970  0.056922  0.083427  0.016683  0.051577 -0.111308 -0.095261 -0.022655  0.023846  0.080417 -0.346959 -0.041378 -0.014898 -0.106280  0.033501  0.031036  0.094778  0.066997 -0.143648
-0.002510 -0.109245  0.072496 -0.094578 -0.065368  0.034158 -0.014359 -0.135869  0.127195 -0.041259  0.189340 -0.006366  0.011925 -0.123319  0.076906  0.184036  0.087580  0.200140 -0.033419  0.608949  0.083362  0.061750  0.043487  0.043720  0.039802  0.051260  0.027026 -0.028600 -0.047286  0.027520 -0.021185  0.109111  0.080531  0.176151  0.094681  0.049582  0.008186  0.167750  0.048317 -0.002689 -0.013217  0.054553  0.025219 -0.092316  0.085878  0.000596 -0.092077 -0.052094  0.012190 -0.031318
 0.061608  0.143215 -0.046996 -0.089215  0.030119  0.114620 -0.156012  0.015776 -0.080892  0.092982  0.233910 -0.032479  0.132762 -0.048034  0.052671  0.195840  0.145721  0.022587  0.024831  0.880310 -0.008420  0.015177 -0.026394  0.090442 -0.059198  0.019331  0.117643  0.165763 -0.024962  0.204250 -0.046026  0.024496 -0.083345 -0.034359 -0.183054 -0.150924  0.055571  0.130509  0.088666 -0.021690 -0.043961  0.159641  0.089930 -0.097014  0.141875  0.068067 -0.024669 -0.196832 -0.060763  0.052562
 0.080735  0.052648  0.176457 -0.108223  0.054424  0.065006 -0.138829 -0.038229 -0.120979  0.157061  0.221834  0.031758  0.004515  0.071184 -0.076764  0.340273 -0.028536  0.051435  0.171112  0.855471  0.116580 -0.005111  0.023872 -0.018110  0.048355 -0.017919  0.101916  0.004540 -0.042592  0.123037 -0.009309  0.119224  0.093923  0.000826 -0.009280  0.091134  0.117305  0.101381 -0.035177  0.043938 -0.046071  0.247782 -0.126400  0.020114  0.057045 -0.134635 -0.070798 -0.039161 -0.022288 -0.048096
 0.110682  0.131200 -0.032803  0.047212 -0.230567  0.136317 -0.198415 -0.203313  0.084559  0.221529  0.175101 -0.045153  0.003868  0.024910  0.072021  0.163089 -0.182745  0.028794 -0.136131  0.886591 -0.033647  0.031210 -0.017380  0.083703  0.151040  0.024495  0.097220 -0.010202  0.002007  0.061511 -0.060236  0.055883  0.002958  0.123880 -0.084495 -0.043362  0.046639  0.290284  0.123567  0.146309 -0.030054  0.078599  0.021610  0.048315 -0.012638 -0.022544  0.063433 -0.320943 -0.071254  0.038306
 0.139647  0.034298 -0.010570 -0.060551  0.027571  0.042236  0.097021 -0.110252 -0.070498 -0.045851  0.087406  0.061249  0.143717 -0.113908  0.097021 -0.134267  0.066169 -0.082193 -0.088426 -0.336824  0.118699 -0.024966 -0.038612  0.068509  0.079137  0.101766  0.033051 -0.063998  0.078254  0.118935 -0.012325 -0.064749  0.118046 -0.013349  0.030235 -0.044664 -0.111949 -0.194232  0.015726  0.135604 -0.038809  0.049072 -0.098404  0.043398 -0.002543 -0.146014 -0.032280  0.042599 -0.022557  0.039521
 0.016615 -0.011495  0.054659 -0.045121 -0.039416  0.026997 -0.061635 -0.047928 -0.071813  0.020114 -0.000452  0.103011  0.131160  0.050781  0.093963 -0.040544 -0.008255 -0.111893 -0.003317 -0.147325  0.012243  0.182596 -0.038871  0.074067 -0.031460  0.077440  0.080566  0.122420  0.004788  0.002066  0.024154  0.112003 -0.006084 -0.015304 -0.100471  0.065092 -0.038440  0.060336  0.018270 -0.030890  0.089240  0.078734  0.093003  0.042263  0.031499  0.030198  0.002962  0.137303 -0.028008 -0.007031
 0.191091 -0.033362 -0.025714 -0.154269  0.141889  0.095898 -0.089348 -0.026745  0.060051  0.158977  0.130486 -0.154672 -0.089877  0.046257 -0.028842  0.261074 -0.039973  0.159678 -0.034550  0.651982 -0.028595  0.085680 -0.105968  0.079811  0.091378 -0.063584 -0.098838  0.100551  0.201676 -0.039084 -0.105281 -0.092045 -0.042603  0.071604 -0.005374 -0.081322 -0.004917  0.101015  0.042440  0.012237 -0.055056  0.125505  0.154389  0.019100  0.045568  0.030770 -0.008135 -0.121244  0.053096  0.198704
-0.093073 -0.023953  0.083105  0.123129  0.059316 -0.019344  0.074263 -0.047265 -0.030258 -0.131213 -0.152776  0.067296 -0.091812 -0.128289  0.024851 -0.146716  0.020722 -0.073573 -0.008816 -0.476747 -0.114762  0.039572  0.029603 -0.142557 -0.076521  0.039780  0.026795 -0.051745 -0.033529 -0.041853  0.167054 -0.037383 -0.016597 -0.048269 -0.038762  0.068706 -0.217044 -0.205664 -0.003055 -0.029572  0.046286 -0.164787 -0.049053  0.021181 -0.089983 -0.030846 -0.094344 -0.008901 -0.126912  0.021478

=== bi ===
        0
 0.068789
 0.061493
-0.004594
-0.015618
-0.048567
 0.032713
-0.042544
-0.026346
-0.021127
 0.017369
 0.118686
 0.016877
 0.020585
 0.016754
 0.015606
 0.109103
-0.024164
 0.044054
-0.031719
 0.878216
 0.016285
 0.043849
-0.030097
 0.077275
-0.013805
 0.023886
 0.025979
 0.040456
 0.059108
 0.023070
 0.017466
 0.019879
 0.005825
-0.014292
-0.030586
-0.045375
 0.021601
 0.023197
 0.029885
-0.004933
-0.001666
 0.107771
 0.011686
 0.064548
 0.055203
 0.020017
-0.003216
-0.039718
 0.002219
 0.079970

=== Wf ===
   0        1         2         3        4        5         6         7         8        9        10      11       12       13        14       15        16        17       18        19       20       21       22        23       24        25       26       27      28        29        30       31        32      33       34        35       36       37       38       39        40       41      42        43       44       45       46     47      48        49
0.068 0.066832 -0.162012 -0.139379 0.008654 0.132863 -0.050722 -0.104567 -0.096974 0.014574 0.141013 0.14289 0.005558 0.092742 -0.042077 0.216063 -0.080746 -0.039503 0.125363 -0.017512 0.124881 0.192089 0.131119 -0.015633 0.193184 -0.130901 0.199978 0.106337 0.06038 -0.104096 -0.087068 0.191069 -0.143484 0.00453 -0.12713 -0.174451 0.161851 0.243819 0.066622 0.012918 -0.003292 0.308364 0.01069 -0.085037 0.229046 0.021932 0.113553 0.1052 0.01943 -0.142053

=== Uf ===
       0         1         2         3         4         5         6         7         8         9         10        11        12        13        14        15        16        17        18        19        20        21        22        23        24        25        26        27        28        29        30        31        32        33        34        35        36        37        38        39        40        41        42        43        44        45        46        47        48        49
 0.064397  0.118915 -0.156421  0.133040  0.053813  0.014030 -0.056093 -0.022990 -0.183960  0.188634  0.003667  0.046858 -0.102565  0.054392  0.039525  0.117507 -0.007837  0.149262 -0.056672 -0.004665  0.126104 -0.025994 -0.047479  0.147808  0.128052  0.087597  0.075891 -0.119492  0.015848 -0.026955  0.040547  0.077666  0.110731  0.088500  0.008735 -0.101760  0.052093  0.162537  0.024244  0.039328  0.005686  0.107743 -0.001926  0.054520  0.079156  0.039792 -0.016400 -0.020202  0.038714 -0.088819
-0.111449  0.020887  0.036177 -0.048981  0.113185  0.052313 -0.034791 -0.065722 -0.067739 -0.072069  0.165371  0.125950  0.079862  0.071010  0.043276  0.126642  0.102265  0.047356 -0.045520 -0.483380  0.108244  0.074114  0.075802  0.042656 -0.039145 -0.089708 -0.085307  0.011103 -0.079366 -0.023793 -0.008588 -0.038779  0.058333  0.057662 -0.001842  0.014140 -0.053100  0.143809  0.022207 -0.008708 -0.032795  0.120057  0.081424 -0.049462  0.010671 -0.030677 -0.045632 -0.190553 -0.012827  0.129215
-0.109055  0.076054 -0.004128  0.055884 -0.037269  0.178882  0.119469  0.138541 -0.078110 -0.003258  0.119486  0.012392  0.022098  0.068510 -0.113173  0.058104 -0.116296  0.082057 -0.045803 -0.066033 -0.032442 -0.021434 -0.052237  0.088614  0.135932 -0.070198  0.041665  0.028447  0.003375  0.164303  0.048943  0.124335 -0.024425  0.056995 -0.054234  0.087356 -0.009060  0.103742 -0.033941 -0.094510  0.023469  0.171817  0.014614  0.057416 -0.046063  0.035693 -0.035998 -0.039794 -0.058585  0.059243
-0.134102 -0.050474 -0.116669 -0.082361  0.056613  0.046342  0.031541  0.057345  0.025038  0.032986 -0.065294 -0.114710 -0.003198 -0.043474 -0.034634  0.063621 -0.015019  0.016713  0.059349 -0.265588 -0.054380 -0.026419 -0.018507  0.017851 -0.008116  0.095086  0.019986 -0.072322 -0.026239 -0.038893 -0.116121  0.112125 -0.111744  0.047241  0.049527 -0.010056  0.086117  0.073510 -0.089715 -0.051157 -0.105399 -0.070713 -0.020323 -0.078099  0.160966  0.037153  0.036137 -0.015000  0.167988 -0.069359
 0.040739 -0.068398 -0.092021  0.082410  0.031257 -0.096768 -0.087237  0.177985  0.040619 -0.041793  0.026407 -0.128453 -0.062942  0.150111 -0.078353 -0.043323  0.039194 -0.091449 -0.032266  0.463908  0.007315 -0.033162  0.009019 -0.081244 -0.182668  0.051799 -0.073215 -0.066376  0.080242 -0.069664  0.060787  0.001799  0.051061 -0.034414  0.040277  0.082466  0.147988 -0.003914  0.107223 -0.004789 -0.145396 -0.046301 -0.012047 -0.109219  0.110521 -0.047197 -0.013772 -0.060664 -0.017637  0.059447
-0.001712  0.166317 -0.009318  0.061215 -0.000083 -0.055393  0.007147 -0.001120  0.131490 -0.048936  0.139829 -0.065523  0.096011  0.000976  0.158005  0.026902 -0.169361  0.021190  0.007013  0.506242 -0.022177  0.072396 -0.138000  0.002418 -0.090802 -0.058779 -0.031191  0.115553  0.013169  0.050318  0.114388  0.026612  0.016422  0.064064  0.036622 -0.034840  0.098706  0.198536  0.094479  0.038385  0.044627 -0.011355 -0.035681 -0.025867  0.034631  0.118785  0.073435  0.056387  0.025004  0.073189
-0.101353 -0.098440 -0.130042 -0.099200  0.202146  0.020159  0.026253 -0.072310 -0.053880 -0.057636  0.089209 -0.043902  0.125347  0.063060 -0.055211 -0.013798 -0.033054  0.035653  0.169493  0.206269 -0.067452  0.011481  0.001144 -0.053535 -0.007506 -0.045783 -0.130513 -0.045697  0.004178  0.015529  0.040809 -0.027312  0.049932  0.071094 -0.064642  0.108735 -0.044509 -0.061557  0.042571  0.107170  0.001692 -0.005432 -0.006761 -0.137101 -0.080184  0.019587  0.033144 -0.056872  0.121239 -0.053904
 0.031907 -0.056451  0.015480 -0.067033 -0.066268 -0.075457 -0.059698 -0.083685 -0.012508 -0.021941 -0.014755  0.024281 -0.085646 -0.112574 -0.170388  0.056808 -0.043949  0.061086 -0.052637  0.260548  0.001289 -0.070340  0.016606  0.126812 -0.070099  0.046756 -0.115686  0.120221  0.080160 -0.027321 -0.224391 -0.044584 -0.038553  0.047743 -0.035192  0.043985  0.016860 -0.048392  0.075479  0.078729  0.005024 -0.098940 -0.002037  0.023695 -0.206317  0.006583 -0.064029  0.053950 -0.071402 -0.017116
 0.020720  0.039709 -0.010408  0.012954  0.027888 -0.015696  0.087790  0.064935  0.107490 -0.039996 -0.032262  0.085232 -0.009341 -0.022333  0.077289 -0.090900  0.034929 -0.144112  0.072546  0.367990 -0.087493  0.033368 -0.105323  0.056750  0.031747  0.039588 -0.141243  0.107156  0.162685  0.018016 -0.045435  0.169911 -0.135160  0.069224 -0.170638 -0.077366  0.139803  0.089782 -0.063771 -0.066685 -0.050223  0.081149  0.079939  0.111084 -0.112277  0.041113  0.027574 -0.072655  0.145440  0.108762
-0.053072 -0.068365 -0.002259  0.068162 -0.175616 -0.061187  0.134757  0.055262  0.014104  0.120746  0.102656 -0.099989  0.105116 -0.077127 -0.057241  0.124521  0.020490  0.013202 -0.011184 -0.375197  0.031592  0.108068 -0.138358 -0.170024  0.080517  0.014073  0.038239  0.055954 -0.101967 -0.150057 -0.100353 -0.123638 -0.011140  0.074171  0.162541  0.077496 -0.033821  0.103119 -0.145168 -0.083193 -0.059016 -0.009475 -0.092186 -0.059468  0.029666 -0.078746 -0.008999 -0.031140  0.046447  0.003611
 0.083398  0.209714 -0.045213 -0.106007 -0.043791 -0.088944  0.041848 -0.018196 -0.210157  0.115090 -0.070112 -0.075167 -0.025918  0.004251  0.073404 -0.002535 -0.026265 -0.272962  0.075525 -0.277047  0.092143  0.085550  0.091840  0.042851 -0.279733  0.162176  0.012656  0.004561 -0.108054 -0.062114 -0.016483  0.023697  0.035473 -0.106055 -0.077098  0.047866 -0.021320 -0.538292  0.040253 -0.093162  0.132208 -0.030964  0.138021 -0.045404  0.066291 -0.054177 -0.111929 -0.001594 -0.052948  0.026950
-0.004718  0.022720  0.086708  0.019464  0.082168 -0.063036 -0.085640 -0.125092 -0.058779  0.092432  0.134072 -0.075581  0.023441  0.028007  0.070048  0.208967  0.050074  0.027778 -0.110834 -0.295829 -0.113857  0.119430 -0.037834  0.070606  0.164719 -0.017730  0.015834  0.082064  0.090545  0.016807  0.096768  0.038165 -0.088814  0.015728  0.043380  0.048381 -0.033066  0.033127 -0.048826  0.061428  0.021003  0.087246  0.093804  0.095954  0.031742 -0.036732  0.020293 -0.049131  0.037127  0.000020
-0.039916  0.044408  0.029307  0.123094  0.053292  0.027643  0.076396  0.014959 -0.102225 -0.115179 -0.144508  0.046909 -0.077294 -0.024785  0.031103  0.091848  0.082532 -0.064427  0.041768  0.474332 -0.123667  0.061428 -0.007467  0.004252 -0.003188  0.062707 -0.036613 -0.012231  0.072073  0.003505  0.060455 -0.091873  0.093259 -0.006567 -0.039310  0.026721  0.052791 -0.055720 -0.005743 -0.153235  0.022531 -0.166110 -0.168054 -0.028525  0.057061 -0.008756  0.078979 -0.020737  0.017107  0.058238
 0.033234  0.102697 -0.030863 -0.006804  0.102659 -0.030626  0.034724 -0.048086  0.069531 -0.069995  0.074153  0.017143 -0.023138 -0.091968  0.020303  0.020305 -0.014204 -0.001029 -0.037289  0.018839 -0.070251 -0.024535 -0.045281  0.053235  0.065080  0.122972 -0.069198 -0.060081 -0.018897 -0.026657 -0.050180  0.044092  0.108107 -0.048258 -0.096865  0.029771 -0.013667  0.052896  0.038861  0.080496 -0.109939  0.077109  0.017762 -0.056644 -0.047160  0.027185 -0.157349  0.012742  0.086532  0.072145
 0.058143 -0.092576 -0.087563 -0.015442 -0.038684  0.058501 -0.041083 -0.077114  0.050658 -0.008448  0.043156  0.047679 -0.095035  0.003538 -0.018826  0.163839  0.081279  0.073249  0.012995 -0.227629 -0.069717  0.049536  0.067113  0.008246  0.063608  0.027601  0.018764  0.028285 -0.085791 -0.075924 -0.007296  0.152055 -0.068990  0.117964 -0.005262 -0.006364  0.009951 -0.024330 -0.143504  0.050570 -0.079963  0.076314 -0.092475  0.013429  0.138326  0.078637 -0.068279 -0.043373  0.125345 -0.019012
-0.122494  0.197268  0.108488 -0.088333 -0.036889 -0.177490  0.048366  0.005381 -0.321927 -0.093505  0.068005  0.139734  0.106101 -0.002702  0.055315  0.099665  0.103602 -0.327644  0.128758 -0.086758 -0.115486  0.055153 -0.002302  0.086052 -0.309322 -0.071844  0.130842  0.023020 -0.030490 -0.097067  0.147198 -0.003616 -0.106534 -0.094704 -0.127035  0.000970  0.034532 -0.367345  0.091356 -0.009384 -0.075431  0.180331  0.058365 -0.098615  0.043617  0.043374 -0.004760  0.045149 -0.012750  0.045734
-0.036316 -0.009540 -0.045746 -0.117804  0.012123 -0.108242  0.030666  0.043975  0.029545 -0.054388  0.008241  0.023311 -0.089527 -0.084607  0.096818 -0.007429  0.099054 -0.009061  0.006732 -0.149684 -0.060047  0.199488 -0.149193 -0.024249 -0.026327  0.014132  0.082722  0.024951 -0.143938  0.004155  0.171211 -0.068189 -0.033858 -0.149072 -0.173978 -0.057757  0.069068  0.005307  0.153389  0.039955  0.068719  0.132218  0.058644  0.087052  0.037434 -0.102778 -0.065767  0.015189 -0.098449 -0.000824
 0.018209 -0.006576  0.139321  0.000736 -0.029639  0.032196  0.081585 -0.114901 -0.006251  0.158430 -0.101310 -0.119939 -0.003406  0.070119  0.023479 -0.040407 -0.061922  0.049472  0.147705 -0.448767 -0.033654 -0.092333  0.095005 -0.063507 -0.116653  0.015080 -0.192811 -0.018509 -0.160972 -0.170579 -0.042041 -0.102183 -0.007533  0.074685  0.028395 -0.069947 -0.119352 -0.070768 -0.014667 -0.100651 -0.088695 -0.047988  0.003366 -0.031341  0.038550 -0.025131 -0.013153  0.020470 -0.019703 -0.056805
 0.048636 -0.085854  0.133401 -0.056102 -0.071829  0.005731  0.013937 -0.000220 -0.004144  0.027541  0.009595 -0.042696 -0.010872 -0.048147 -0.049011 -0.110953  0.056567 -0.000976  0.078005 -0.350273 -0.009338  0.076897  0.094463 -0.112183  0.016898 -0.065174 -0.032573 -0.060282 -0.086912  0.007160 -0.067716 -0.040054 -0.131627 -0.119447  0.020552 -0.076264 -0.060655  0.016925 -0.039567 -0.153452 -0.119654 -0.004894 -0.054906 -0.089217 -0.058749 -0.165493  0.036321  0.078903  0.044249 -0.199970
 0.047222  0.114930 -0.105089  0.039680 -0.239579 -0.030609  0.099841 -0.143957  0.072680 -0.251666 -0.220468  0.078176 -0.087506 -0.038791  0.050864 -0.257396  0.058962 -0.195293 -0.053934  0.616335 -0.071581  0.031290  0.139667  0.072776 -0.017393  0.168097 -0.015872  0.072660  0.121694 -0.102180  0.009962 -0.116480  0.072926 -0.011030 -0.032816 -0.058608  0.020722 -0.232825  0.068509  0.012189 -0.124288  0.015231  0.226771  0.048615 -0.172856  0.070830  0.164546  0.024477  0.048865  0.085609
-0.052029 -0.081631  0.007230 -0.020935 -0.037750  0.026460 -0.121774 -0.033902  0.173473  0.243752  0.140854  0.177620 -0.018329  0.031754  0.114253  0.022792 -0.008932  0.128155  0.001143 -0.430754  0.142221 -0.049542  0.091752  0.022584 -0.018105  0.076560  0.120212  0.122833 -0.180184 -0.006772  0.008299 -0.030687  0.003282  0.052145 -0.054160 -0.054095 -0.012704  0.040394 -0.051198  0.032527 -0.076692 -0.089865 -0.083065  0.022145  0.113668 -0.049035 -0.186842  0.046594  0.091174  0.156702
 0.170494  0.055666  0.068430  0.029814 -0.025148  0.086272 -0.021710  0.082422  0.094392 -0.190315  0.025354 -0.120706  0.000153  0.031341 -0.042091  0.123587  0.031685  0.022532 -0.090429  0.470773 -0.040288  0.065252  0.079201 -0.105351 -0.023214 -0.005141 -0.028999  0.077874  0.093730  0.076684  0.042288 -0.094872 -0.009659  0.045147 -0.049140  0.098972  0.143259 -0.008763 -0.024896 -0.014253  0.156027 -0.130004  0.149142  0.071095  0.136862  0.074136  0.055261  0.068589  0.098188  0.015848
-0.101956 -0.053695  0.046364 -0.051343 -0.049429 -0.019657 -0.037830 -0.041665 -0.032922  0.085931 -0.026741 -0.091591 -0.031025  0.097805 -0.006770 -0.065218  0.030010  0.052429 -0.070601 -0.416734 -0.082624  0.070153  0.000777 -0.060765 -0.009477 -0.135029 -0.065014  0.070077 -0.152270 -0.005135 -0.163676 -0.140730 -0.078904 -0.103880 -0.071129 -0.064681 -0.075615 -0.076947 -0.111560 -0.107392 -0.081235  0.015011 -0.065430 -0.066768 -0.060109 -0.151511 -0.100216  0.043539 -0.102154 -0.043123
 0.100314 -0.013904 -0.108732 -0.026027  0.015482  0.077481  0.133212  0.067836  0.066356  0.186439  0.035435 -0.029902 -0.073188  0.103391  0.067735  0.163041  0.016962 -0.015368  0.008117 -0.363809 -0.029084  0.066266 -0.016099  0.050466  0.017428 -0.042771  0.022378  0.027207 -0.021472 -0.013349 -0.029808 -0.006317  0.001824 -0.018537 -0.004461 -0.088804 -0.180220  0.100419 -0.035364  0.086444 -0.014696  0.042026  0.013635  0.016053 -0.015680 -0.067169  0.056005 -0.083986 -0.039963  0.059940
-0.012943 -0.125089 -0.096042  0.024443 -0.006957  0.049872  0.027848  0.102432 -0.050017 -0.079792  0.037468 -0.077585 -0.168787  0.048079 -0.111055 -0.038269 -0.044574 -0.026331  0.073957  0.475960 -0.001501  0.087232  0.007038  0.129235  0.038694  0.058157 -0.029900  0.036402  0.078095  0.083187  0.076418  0.005324  0.056445 -0.080630 -0.045127  0.041310  0.112538 -0.006699  0.086316  0.045890  0.114907  0.191333  0.027324  0.180506  0.000899  0.000552  0.081431  0.011769  0.188534  0.102097
 0.062769  0.010903  0.073841 -0.082137  0.029826 -0.025721  0.110458  0.110040 -0.050567 -0.113553  0.069639 -0.076321  0.124160  0.142328 -0.002039 -0.071532  0.042271  0.030254 -0.016805  0.454459 -0.010053 -0.073660  0.085584 -0.053215 -0.157946 -0.061147  0.048992 -0.152622  0.177495  0.020433 -0.102463  0.105886 -0.099564  0.002615 -0.083793  0.011928 -0.077500 -0.234055 -0.054511 -0.079636  0.004241 -0.108809 -0.081949  0.076213  0.065190 -0.080328 -0.034734 -0.054796 -0.084791  0.049969
-0.021068 -0.054739 -0.012565  0.015298 -0.013067 -0.018909 -0.045281 -0.136154  0.029436  0.042168  0.034795 -0.024808 -0.023953  0.012100 -0.007671  0.050531  0.051208  0.035929 -0.082683 -0.373188 -0.012557  0.051120  0.041563  0.070582  0.005246 -0.119652 -0.087999  0.104758 -0.060927  0.025456  0.006323  0.051183 -0.003033  0.066983 -0.075025 -0.052477  0.036542 -0.119311  0.123791 -0.118638  0.089405  0.035047  0.033100 -0.020490 -0.078340  0.059663 -0.001604 -0.043253 -0.044066 -0.093324
-0.023983  0.030137  0.019847 -0.032317 -0.033574 -0.120759 -0.017888 -0.046866  0.015509 -0.173334 -0.007785  0.068500 -0.039931 -0.003872  0.203207 -0.101331 -0.038273  0.045970 -0.077131  0.221720 -0.125424 -0.121557  0.074869 -0.019941  0.052913  0.035101  0.050254 -0.002598  0.122695  0.048415  0.028728  0.018441 -0.074224 -0.052792  0.044925  0.074634  0.027306 -0.133787 -0.041951  0.005509 -0.037760 -0.013712  0.015565 -0.024381 -0.095959  0.123162 -0.010110 -0.004233 -0.037973  0.044514
 0.062240 -0.067043  0.039153  0.046714  0.060223  0.045338  0.037320  0.042427 -0.010892  0.245660  0.110647 -0.161028 -0.109240 -0.086935 -0.032644  0.173676 -0.024453 -0.068806 -0.179993 -0.532950 -0.010053 -0.069306  0.073101 -0.032721 -0.054582 -0.181236 -0.045738 -0.079623 -0.155014 -0.015715 -0.035707  0.073380  0.151494 -0.045389  0.047530  0.067853 -0.085704  0.041012 -0.110187 -0.115719 -0.043757 -0.073399  0.027966 -0.092038  0.107887  0.130226 -0.030791 -0.099539  0.008296 -0.099793
 0.029572  0.108330 -0.052050 -0.134104 -0.048354  0.014915  0.114903 -0.097347 -0.047538 -0.089142 -0.010986  0.007587  0.053876  0.002268 -0.124565 -0.066520 -0.063737 -0.022840  0.063005 -0.408825  0.002119 -0.018674  0.074802  0.024594 -0.157183  0.023779  0.062058  0.055728 -0.065562 -0.072659 -0.002338 -0.004384  0.067477 -0.004233  0.010409  0.070988 -0.105429 -0.149588 -0.035971  0.058188  0.031983  0.045417  0.108131 -0.028987 -0.034952  0.044350 -0.155941  0.014636 -0.002416  0.064502
-0.062945  0.017157 -0.064288  0.050257 -0.056721  0.038024  0.101008  0.018424  0.083579  0.057789  0.148597  0.004942 -0.101951 -0.076450 -0.090851 -0.015403 -0.041386  0.032801  0.105487 -0.204838 -0.019701 -0.067038  0.077703  0.083604  0.066249 -0.013152 -0.085898 -0.088067 -0.076615  0.053350 -0.026060 -0.030953 -0.026133 -0.001629  0.070702  0.057472  0.076133  0.018949  0.027562  0.154156 -0.016272  0.030473 -0.023681  0.082963  0.004392 -0.034949 -0.050381  0.059033 -0.091812  0.061668
-0.102034  0.045405 -0.032949  0.000168  0.102142 -0.005206  0.042652  0.018311 -0.105640 -0.127960 -0.089578  0.021446  0.079301  0.091690  0.044108 -0.025381  0.038419 -0.077822 -0.026769  0.389374 -0.008548 -0.022239  0.046948  0.038806 -0.164947  0.031004 -0.000479  0.137516  0.144917 -0.024690 -0.064019 -0.017781  0.026635 -0.004896  0.095557 -0.011901  0.100431 -0.022290 -0.029625  0.033318  0.008326 -0.053297  0.017354  0.158090  0.061094 -0.051160  0.017010  0.065924 -0.022610  0.070354
 0.056284  0.065601 -0.076970 -0.110823  0.003034 -0.013947  0.054743  0.061834 -0.011381 -0.047980 -0.139520 -0.014645 -0.077229 -0.038450  0.000384 -0.060417 -0.024838 -0.067791  0.031286 -0.254715  0.084866 -0.131566 -0.039891  0.150292  0.041282 -0.199284 -0.069467  0.061977 -0.084353 -0.089127 -0.027233 -0.075982 -0.067650 -0.003023 -0.086661  0.110732  0.038882 -0.108928 -0.059919 -0.043801 -0.016219 -0.184276 -0.029495 -0.152116 -0.014253  0.095091 -0.062970  0.142500 -0.041516  0.043531
 0.118664  0.002899  0.015254 -0.047797 -0.022831  0.133781 -0.008839  0.045994 -0.018888 -0.042317  0.026070  0.252080  0.005187 -0.056960  0.272027 -0.053342  0.043025 -0.092863 -0.114433  0.349123  0.052975  0.071008 -0.003385  0.074718 -0.002947  0.105683  0.071330 -0.014238  0.093554  0.133146  0.032787  0.002320  0.101977  0.052029 -0.112193 -0.059294 -0.085381 -0.016018  0.126790  0.121529  0.115073  0.059972  0.073521  0.078582  0.037594  0.041467  0.033244 -0.040146  0.088039  0.107271
 0.039878 -0.105928  0.026169  0.113114 -0.000151 -0.035702  0.016584  0.086550 -0.058414 -0.196857  0.067183  0.090331 -0.075504 -0.056648 -0.016732 -0.103155 -0.010624 -0.004249  0.015654  0.566340 -0.053414 -0.195480  0.013998  0.036153 -0.042306  0.016561 -0.109748  0.132520  0.062148 -0.134915 -0.021744 -0.092073  0.021616 -0.000232 -0.000342 -0.018554 -0.014332  0.066020 -0.076205  0.053170  0.064965 -0.194511 -0.049324  0.201164 -0.043543  0.009720  0.156764  0.014450 -0.037385 -0.040517
-0.026683 -0.150228 -0.112197  0.070915  0.129086  0.060774  0.058992 -0.053355 -0.019778 -0.017305 -0.012188  0.109180 -0.047962 -0.103891 -0.052306 -0.030927 -0.006075  0.029503 -0.018951  0.376114  0.078309 -0.047476  0.018045 -0.059118  0.009689 -0.134137 -0.015779 -0.013806 -0.101887  0.073041  0.066203 -0.050083 -0.044228 -0.039365  0.042916  0.093092  0.146039  0.018175  0.036304  0.076916 -0.033134 -0.055613 -0.021746 -0.037988  0.012821  0.063438  0.021440 -0.050161 -0.146732  0.036990
 0.083768  0.014727  0.014983  0.072038  0.135253 -0.007056  0.041217  0.026798 -0.051232 -0.030818 -0.027395  0.111401  0.110216 -0.091761 -0.018018 -0.095710  0.121374 -0.029208  0.072422  0.327364 -0.076872  0.055715 -0.016067  0.078811 -0.126690 -0.067223  0.129982 -0.061150  0.000610  0.003381 -0.048376  0.007878  0.037945 -0.095663  0.055020  0.104544 -0.141173 -0.197839  0.006909  0.013466  0.010974  0.017456 -0.038741  0.044977  0.074083 -0.001516  0.057565  0.087920  0.118470 -0.044140
-0.017932 -0.033810  0.007210  0.031568 -0.005599  0.102169  0.099017  0.050416 -0.054682 -0.061719  0.022023 -0.071808  0.007996 -0.004597 -0.026518 -0.053428 -0.040084  0.078469  0.032187  0.531089  0.032787  0.197404  0.153294  0.102412  0.043405  0.121916  0.001540  0.078614  0.025425  0.056344  0.090221  0.084426 -0.053834  0.052729  0.013249 -0.146675  0.133262 -0.122728 -0.017502 -0.003849  0.137576  0.177875  0.010106  0.013462  0.031892  0.032559 -0.020240  0.274189 -0.058981  0.090436
 0.012495 -0.039245 -0.133287 -0.075208 -0.059301  0.061654  0.005555 -0.017992 -0.047921  0.134079  0.038696 -0.002951 -0.071697 -0.047631  0.045974  0.051292 -0.118803  0.079364 -0.012846 -0.356820  0.057228  0.060875  0.083653  0.145980 -0.032724 -0.137616  0.030161  0.029601  0.061011  0.072945  0.069054  0.053602  0.117242 -0.032691 -0.053402 -0.069067  0.008151  0.144725  0.072377  0.088819 -0.029841 -0.102897  0.084367  0.129155  0.101949  0.048293 -0.044586  0.068744  0.101468 -0.044203
 0.007389 -0.003575  0.085676  0.180685  0.045118  0.040651 -0.041350  0.088270 -0.048814 -0.027545  0.044514 -0.071758  0.024242 -0.061654 -0.055618 -0.065004  0.086813 -0.039096  0.036332  0.231595  0.015457  0.075150 -0.005670  0.013380  0.030130 -0.142849  0.070390 -0.046843 -0.030309 -0.021648 -0.093261  0.050107  0.017985  0.009198  0.151088  0.011934  0.048828 -0.137453 -0.079051 -0.076956  0.010056 -0.076095 -0.052310  0.119444 -0.107650  0.017592 -0.006450 -0.016199  0.041831  0.075988
-0.073341 -0.038643 -0.055516 -0.010954  0.047280  0.022567  0.084025 -0.057747  0.227897 -0.063157  0.021571 -0.054502 -0.008774 -0.094976 -0.017020  0.004026  0.055593  0.010392 -0.042804  0.329091 -0.061242 -0.095893  0.059527 -0.049400 -0.060919 -0.031308 -0.040763 -0.018567  0.035778 -0.021273  0.052631 -0.017101  0.045895 -0.032067 -0.015737  0.099721 -0.022785 -0.084295 -0.045930 -0.047854  0.161951 -0.019428 -0.065871  0.047635  0.068429 -0.018174  0.049940  0.198665  0.007693  0.057519
 0.067841  0.021164  0.002645 -0.190991 -0.041440 -0.040857  0.079737  0.205421  0.025838 -0.204597 -0.041476 -0.097660 -0.058075  0.099199  0.032566  0.114343  0.053581 -0.133510 -0.082679  0.574511  0.048288 -0.099147  0.018937 -0.006061  0.023191  0.095637 -0.037084  0.033034 -0.052854 -0.064654 -0.076721  0.021625  0.112227 -0.110684  0.060814  0.096263  0.066681 -0.096741 -0.050013 -0.033226  0.251627  0.003294 -0.069040  0.057077 -0.096287  0.092191  0.051866 -0.118355  0.007396  0.016941
 0.034448 -0.091248 -0.032307  0.008344 -0.131130  0.075446 -0.014259 -0.010075 -0.035550  0.101309  0.014425 -0.051655  0.143317  0.140963 -0.070646 -0.008047  0.054089 -0.011885 -0.145563 -0.356180  0.065274 -0.036242  0.041522  0.005534  0.035656  0.033385  0.020311  0.053521 -0.170117  0.123893 -0.033196  0.062352 -0.059390  0.086277 -0.099610  0.084411  0.000464  0.021037  0.032041 -0.087536 -0.060506 -0.032796  0.013491 -0.061418 -0.105081 -0.074777  0.027619 -0.010942  0.104672  0.005370
 0.051193  0.060193 -0.093704 -0.144068 -0.038763  0.046836 -0.052728 -0.035523  0.004790  0.080955 -0.048396 -0.049073  0.014211 -0.000225 -0.015091  0.035178  0.036777 -0.033711  0.026925 -0.465394  0.066287 -0.009095  0.096903  0.028391  0.023855 -0.083277  0.040549  0.007951  0.001349  0.069014  0.122954 -0.050873 -0.064735  0.100403 -0.144147  0.038068 -0.064213  0.048635 -0.083111  0.023119 -0.017940 -0.030062 -0.098837  0.034144 -0.052003 -0.056134  0.046710  0.050268  0.031014 -0.089639
 0.037565 -0.058400 -0.037862 -0.071940  0.006207  0.021799 -0.099589  0.042419  0.066186  0.125152  0.065562 -0.087464  0.152607 -0.049715  0.051574  0.193816 -0.023965  0.060739 -0.015174 -0.431509  0.068603 -0.039659  0.046841 -0.159703  0.031236 -0.049576  0.116872  0.044511 -0.017643 -0.097477  0.010041 -0.084892 -0.122341  0.032288 -0.033120 -0.033564 -0.056016  0.154744 -0.090421  0.032329  0.065658  0.156092 -0.048735  0.020140  0.031764  0.009325  0.068349 -0.047409 -0.001591  0.088182
 0.064249 -0.025365 -0.068973  0.005678 -0.050440 -0.011205 -0.059600 -0.117927 -0.046157  0.051405 -0.002270  0.016631 -0.029099 -0.004719 -0.022749  0.010510 -0.097445  0.066742  0.019708 -0.439101  0.041827  0.037709 -0.063299 -0.088053  0.083790  0.063335 -0.056771  0.057174  0.032007 -0.002961  0.009456 -0.095390  0.029145  0.166048  0.086127 -0.043029 -0.108857  0.085135 -0.083774 -0.009921 -0.027569  0.062818 -0.136184 -0.016864  0.031537 -0.028768 -0.114277  0.108113 -0.008005 -0.092136
 0.027042 -0.023498 -0.038152  0.104012 -0.089376 -0.095409 -0.066253 -0.106756  0.021484 -0.134272 -0.026885 -0.061578 -0.017416  0.024853  0.032759  0.079548 -0.013456 -0.151571 -0.037773  0.091686  0.069025 -0.053052 -0.093838  0.024912 -0.097058  0.010318 -0.090996 -0.017478  0.030598  0.058864 -0.016499 -0.230212  0.005880  0.038641 -0.106198 -0.086503 -0.081469 -0.066060 -0.039130  0.065194 -0.000079  0.070033  0.036127  0.024632  0.083046  0.085022 -0.032159  0.038180 -0.005849  0.038654
 0.072412  0.160694 -0.027507  0.093190 -0.066144 -0.013112 -0.031027 -0.115366 -0.041162  0.065382 -0.022548  0.037639  0.083574  0.040062 -0.008750 -0.020331  0.106015 -0.052659 -0.004641  0.300404  0.075066  0.017269 -0.042845 -0.030369  0.198261  0.006624  0.136254  0.068472  0.138048  0.112750 -0.126899  0.111031  0.035854  0.000541 -0.155414 -0.039384 -0.030510 -0.089559  0.132318  0.110891 -0.064390  0.150281  0.013653  0.106469  0.175201  0.099152  0.127945 -0.059872 -0.083705  0.111126
 0.036591  0.066632 -0.086961 -0.111371 -0.034836 -0.092986 -0.077344 -0.056368 -0.092397  0.098755 -0.050787 -0.063385 -0.041270  0.100906  0.150874  0.060700 -0.004997  0.015147 -0.031526 -0.470408 -0.024900  0.048279  0.038230 -0.073304  0.098604 -0.175774 -0.021309  0.100783 -0.106039  0.031822 -0.172937  0.095461 -0.010168  0.168847  0.118344 -0.051712  0.016722  0.024621  0.071038  0.062769  0.111230  0.010172  0.092211 -0.017198  0.028311 -0.047068  0.010003 -0.074363 -0.036280  0.123192
 0.029432 -0.084970  0.076894 -0.015726 -0.191457 -0.064391  0.000863  0.068082 -0.078540 -0.287730 -0.032897  0.138079 -0.100154 -0.038374 -0.070917 -0.040200  0.056541 -0.166265  0.012816  0.125690 -0.050525  0.086852  0.079417  0.096720 -0.005275 -0.027913  0.081318  0.013952  0.068434  0.090864 -0.058385 -0.015799 -0.040399 -0.008385  0.037457  0.019204  0.044168 -0.215149 -0.028563  0.180836 -0.071205 -0.131074  0.021665 -0.012036 -0.109815  0.121098  0.076562  0.112654 -0.184361  0.095549

=== bf ===
       0
1.021292
1.018780
0.993640
0.984408
0.965486
1.012668
0.978170
0.973496
0.987965
1.013758
1.006473
0.999514
1.010689
1.017656
1.015719
1.020612
0.981532
1.014769
0.983414
0.714894
1.007328
1.004133
0.986489
1.006750
0.995798
0.999648
1.006688
1.002844
1.001576
0.997577
1.003922
1.009694
1.001821
0.977448
0.973680
0.974948
0.999085
0.991376
1.011693
0.991424
1.004573
1.019963
1.000042
1.010784
1.002194
0.997694
0.978786
0.979843
1.000127
0.987660

=== Wc ===
      0        1        2         3         4        5         6        7        8       9         10       11        12       13       14        15      16        17        18        19       20       21        22       23       24        25       26        27       28        29       30        31        32        33        34        35       36        37       38        39        40        41       42       43       44       45        46       47        48        49
0.224703 0.197249 0.034253 -0.072724 -0.067232 0.126462 -0.097348 0.007985 0.069735 0.04403 -0.158161 0.114923 -0.064999 0.146393 0.027492 -0.127137 0.11418 -0.158296 -0.076889 -0.830653 0.042878 -0.20652 -0.104582 0.228758 0.066845 -0.127554 0.177065 -0.189369 0.102995 -0.141325 0.134166 -0.110163 -0.014717 -0.030386 -0.034328 -0.105285 -0.04511 -0.007445 0.196146 -0.100276 -0.147857 -0.227207 0.058335 0.182822 0.173663 0.078607 -0.032376 0.138105 -0.007699 -0.131186

=== Uc ===
       0         1         2         3         4         5         6         7         8         9         10        11        12        13        14        15        16        17        18        19        20        21        22        23        24        25        26        27        28        29        30        31        32        33        34        35        36        37        38        39        40        41        42        43        44        45        46        47        48        49
-0.160126  0.050253  0.037640  0.076830 -0.001148  0.066858 -0.012631 -0.031617 -0.218053  0.010201  0.033529  0.071953 -0.146034  0.162324  0.133153  0.066173  0.106363  0.044288  0.122523  0.137703  0.056554 -0.177546  0.038434 -0.028422 -0.034779  0.028181 -0.002221 -0.038996 -0.023933 -0.015784  0.053991 -0.036389 -0.048916  0.084920  0.019407 -0.012054  0.003888  0.037726 -0.024430 -0.027848  0.126048  0.012208  0.021393 -0.022962  0.085964  0.010147  0.053139 -0.044462  0.107546  0.015568
-0.019437  0.015660  0.136282  0.118853  0.074774 -0.032633 -0.056012 -0.051257 -0.078629 -0.087608  0.012053 -0.030074 -0.106682 -0.072093  0.030488 -0.036107  0.031050 -0.034749  0.079418  0.038562  0.085944 -0.095027  0.192465 -0.074620 -0.154533 -0.008153 -0.003393  0.022121  0.036887 -0.043108  0.010418  0.068789 -0.108803 -0.076062  0.008875  0.098520  0.032156 -0.039863  0.061271  0.156916 -0.081433 -0.099160  0.027249 -0.001356 -0.050405 -0.062587  0.048394  0.059226 -0.069249 -0.018268
 0.031622  0.105688 -0.069041 -0.049606 -0.107339 -0.020488 -0.081239 -0.092792  0.047624  0.045712 -0.001299  0.126951  0.018704  0.137775 -0.028702  0.046176 -0.140885 -0.039824  0.064850  0.132504  0.031179 -0.000439  0.034391  0.187697  0.009075  0.025593 -0.095997  0.043526 -0.015163 -0.004627  0.073853 -0.019969  0.029985 -0.162576  0.100971 -0.079426 -0.080654  0.006008 -0.030092 -0.029221 -0.093119 -0.018055 -0.131702 -0.010283  0.130050  0.015249  0.016018  0.034053  0.063013 -0.001817
-0.054166 -0.167482 -0.021508  0.043425 -0.051537  0.003309 -0.114959 -0.057506  0.076718  0.023268 -0.093394  0.034996  0.122937  0.045824  0.032118  0.012544  0.023662 -0.000213  0.040137  0.214382 -0.170235  0.037807  0.140303 -0.041949 -0.020438 -0.003151  0.027201  0.031303 -0.084602  0.110464 -0.107974  0.146172  0.035914  0.027574  0.075068 -0.071348 -0.174162  0.103089  0.116280 -0.001651 -0.088892 -0.046769 -0.063370  0.016159  0.058344 -0.040073  0.048665  0.094103  0.029099  0.043205
-0.140038  0.012122 -0.091769  0.087631 -0.080290 -0.031391  0.010061 -0.063530  0.035208  0.083171  0.120903 -0.011179  0.070373  0.023418  0.052058  0.041269 -0.010712 -0.084816 -0.067346  0.137957  0.074468  0.029911 -0.029994  0.049992 -0.001778  0.033725  0.010401 -0.008029  0.040366 -0.027787 -0.039104  0.096019 -0.014492 -0.074321 -0.021956  0.007764  0.115421 -0.035477  0.193152  0.112910  0.051913  0.041754 -0.118517 -0.116874 -0.038719 -0.163544  0.031090  0.010113  0.003951 -0.041687
 0.013506 -0.015437  0.189561 -0.041962 -0.015229  0.120755  0.004219 -0.021875 -0.063456  0.063749 -0.091160  0.139907 -0.121824 -0.004526  0.193492 -0.060912 -0.028953  0.043895 -0.022891  0.042877 -0.043467 -0.050337 -0.023566  0.055164 -0.108343  0.031981  0.076374 -0.055945 -0.053420 -0.189582 -0.079519 -0.098897 -0.120930 -0.005884  0.014320 -0.119263 -0.044292 -0.074122  0.060935  0.137388 -0.115423  0.096006  0.006142  0.099833 -0.034044 -0.070736 -0.091201 -0.146547 -0.059089 -0.012934
 0.018812 -0.074674  0.098507 -0.036631 -0.082941  0.059097 -0.018515  0.075392 -0.015860 -0.018307  0.124060  0.060725  0.059797  0.007900 -0.083120 -0.017178  0.013099 -0.019231 -0.113516  0.194761 -0.035342 -0.005924 -0.068267 -0.087030  0.093994  0.079182 -0.078483  0.023502  0.003011 -0.053176 -0.072488  0.083831 -0.018457 -0.055543 -0.088250 -0.051485  0.061564  0.029673 -0.176710 -0.164007  0.080494  0.013816 -0.159882  0.050333  0.063675  0.165446 -0.028974  0.062062 -0.112776  0.132346
-0.080128 -0.039777 -0.030274 -0.079977 -0.026424 -0.063665  0.020875 -0.130895 -0.066912  0.055943  0.065918 -0.023051  0.103065 -0.060282 -0.104532  0.123784  0.058580  0.039957 -0.058786  0.302370 -0.064111  0.047959  0.093706  0.148843  0.143475  0.075611  0.086351 -0.007685  0.144362  0.033224 -0.081285  0.101773 -0.005819  0.140021  0.072490  0.054309  0.040786 -0.087846 -0.106069 -0.003297  0.041997  0.061575  0.079031  0.089414  0.093008 -0.045278 -0.018463  0.145216 -0.103382  0.111164
 0.043770  0.097735 -0.047748 -0.095923  0.111859  0.055812 -0.043282  0.012272 -0.172229  0.013675 -0.069073  0.071853 -0.127422 -0.146461 -0.056801 -0.107173 -0.004718 -0.101378  0.085141 -0.309688  0.049894 -0.142180  0.010880  0.048448  0.027979 -0.045977 -0.040619  0.056263 -0.017709 -0.053537  0.071226 -0.109584 -0.022827  0.000583  0.031212  0.015919 -0.057670 -0.132109  0.198625 -0.013906  0.035701 -0.031214 -0.028766  0.005900  0.027134 -0.013627 -0.114282 -0.054367  0.100258 -0.029636
-0.018472 -0.006291  0.146712  0.053442  0.006233  0.019865  0.034104 -0.079979 -0.024624  0.247200  0.067081 -0.077861 -0.080714  0.079804  0.048263  0.144120  0.056951 -0.082013  0.008618  0.056685  0.053532  0.089832  0.024922  0.005273  0.007457 -0.085691 -0.068623 -0.124790 -0.086523  0.103395 -0.043125 -0.079074 -0.066208  0.012376 -0.111574 -0.108043  0.163551  0.062703 -0.000231 -0.105216  0.060680 -0.108371  0.006017 -0.107562  0.024723  0.012955  0.074345  0.001906 -0.076500  0.011966
 0.000664  0.011467 -0.042851 -0.093477 -0.001928  0.068129 -0.162947 -0.094621  0.177150 -0.167848 -0.104007  0.018150 -0.032149 -0.008438 -0.010866  0.047435  0.097776 -0.317867 -0.008993 -0.035409 -0.115619 -0.003171  0.086955  0.003002  0.033073  0.069095 -0.076391 -0.041374 -0.029218  0.052979 -0.041845  0.047593  0.022689  0.140394  0.045941  0.063299  0.008196  0.135456  0.024636 -0.055331 -0.036782 -0.158934  0.030360 -0.014045 -0.129899 -0.059720  0.001016  0.079140 -0.084709 -0.125503
-0.035194 -0.185397 -0.077633  0.197842 -0.121714  0.017762 -0.091913  0.002019 -0.063319  0.031643 -0.071499  0.041366  0.012283 -0.039087 -0.021221 -0.005416 -0.106699 -0.000509 -0.027072  0.061807  0.035094  0.026664 -0.000995  0.001652 -0.127346 -0.086926  0.040285 -0.103139 -0.070195  0.046206  0.072327  0.036107 -0.095532  0.087913  0.035053 -0.216081  0.056483 -0.127170 -0.006979  0.006924  0.129252  0.026489  0.073950 -0.104510 -0.016760 -0.063967 -0.027248 -0.108166  0.102667  0.055902
-0.073169  0.001732  0.152683 -0.040347 -0.098697 -0.045570  0.031408 -0.161841 -0.013415  0.000974 -0.084701 -0.059266  0.039210 -0.023498 -0.082584 -0.130229 -0.010805  0.030159  0.002124 -0.123160 -0.021824  0.034241 -0.064245 -0.000591 -0.009421  0.014756  0.080921 -0.049366 -0.040325 -0.013437  0.022234  0.080688  0.107929 -0.034466  0.130999  0.019630  0.107614  0.044000 -0.076931  0.010213 -0.066343 -0.019320  0.136134  0.093465 -0.001463 -0.077211  0.023884  0.099024 -0.040896 -0.034109
 0.087088  0.053090  0.092534  0.005945  0.179246 -0.031126 -0.033205  0.127879 -0.077997 -0.021433 -0.000819  0.020806 -0.077819  0.008322 -0.031670 -0.101951  0.066116  0.078865  0.039254  0.077283  0.120324  0.034087  0.074504  0.107366 -0.072916 -0.176193 -0.026257 -0.244464 -0.035060 -0.041575  0.100719 -0.084450 -0.075393  0.030737 -0.028620  0.091686 -0.087990 -0.022656  0.019410  0.007684 -0.026957 -0.107424  0.096937  0.007534 -0.007676  0.038025 -0.022667 -0.110433  0.017248  0.064663
 0.053321  0.134999 -0.096812  0.109713 -0.031660 -0.042938  0.050724 -0.051023  0.038593  0.034702 -0.111028  0.049855 -0.067735 -0.116170 -0.118554  0.059453 -0.007277 -0.026618  0.002120  0.140361  0.012013 -0.033847 -0.034650  0.051014 -0.007221  0.005032  0.042160 -0.013195  0.101733 -0.137533 -0.094130 -0.102413 -0.026801 -0.049243 -0.029541  0.062602 -0.113320 -0.051381  0.020501  0.000983 -0.026796  0.077996 -0.036859  0.019472 -0.000166  0.004799 -0.038999 -0.016387  0.057256  0.013183
 0.082665  0.012896 -0.098404  0.008721 -0.031589  0.033600  0.029293  0.040501  0.053883 -0.260719  0.063413  0.106247  0.056846  0.172957 -0.082678  0.159809  0.219637 -0.114373  0.114299 -0.053380 -0.166663  0.034881 -0.032454  0.190453  0.020613 -0.060206  0.102444 -0.073680 -0.053743 -0.010168 -0.040061 -0.013847 -0.127585  0.114463  0.019528 -0.001585  0.120366  0.042723  0.091440 -0.090620  0.019640 -0.151076  0.124938  0.018172 -0.069143 -0.033913 -0.042241  0.003642 -0.159099 -0.043343
 0.091856  0.077539 -0.005536 -0.013685 -0.028657 -0.046585  0.106129 -0.006201  0.050441 -0.033777 -0.076809 -0.006958 -0.133924  0.057037  0.092573 -0.029790 -0.021052 -0.215754 -0.097863 -0.180191 -0.027578 -0.091200  0.028823 -0.019603 -0.019725  0.020651 -0.071722 -0.095476 -0.087280 -0.042210  0.003711 -0.037540  0.041402  0.112905  0.020792  0.051313 -0.030711  0.006712  0.073692  0.000384 -0.006077 -0.087827  0.023329  0.098519  0.135232  0.084016  0.013423  0.068456  0.079490  0.000021
-0.062110 -0.006389  0.032432 -0.020512 -0.178938  0.022679 -0.017670  0.062938  0.149601  0.009024  0.092750 -0.058617  0.132832 -0.112510 -0.082014 -0.057080 -0.142689 -0.067395  0.052981  0.222222 -0.056614 -0.024480  0.095665 -0.044807 -0.060990  0.043980  0.034590 -0.013819 -0.013118  0.082036  0.098963 -0.119557  0.063994  0.013582 -0.105505 -0.090683  0.033538  0.016435 -0.156048  0.108177 -0.028672  0.018664 -0.023419 -0.065434  0.072798 -0.015498  0.130295  0.037511  0.145880  0.100352
-0.008497 -0.190766  0.022042 -0.102188 -0.025156  0.020628 -0.070487 -0.054142  0.006060 -0.161086 -0.056822 -0.054507  0.226478 -0.069531 -0.035645  0.195517  0.006854  0.044691 -0.060779  0.195362  0.004548 -0.012593 -0.002677 -0.042265 -0.064507  0.031780  0.056587 -0.041751  0.072944  0.103411  0.018508 -0.055700  0.064296 -0.079059  0.032455 -0.011246 -0.082236  0.086329  0.010488 -0.126134  0.047359  0.194402 -0.076893 -0.085884 -0.231435  0.049357  0.022379  0.102395 -0.132356  0.044650
 0.080500 -0.007344  0.051669 -0.074940 -0.045205 -0.015465 -0.217092 -0.106111  0.179128 -0.167794 -0.179411  0.038844  0.090052  0.038631  0.057848 -0.229650  0.007890 -0.099346  0.023997 -0.473849  0.052144  0.039289 -0.096285  0.114516  0.025943 -0.060453  0.084286  0.061228  0.018532 -0.074176  0.052270 -0.011419 -0.049244 -0.020316  0.075608 -0.093047 -0.054435  0.109404 -0.008730  0.033852  0.129703  0.167297  0.025310  0.064427 -0.233621  0.060783 -0.048584 -0.104787  0.072576  0.069689
 0.073921  0.022729  0.003071  0.069035 -0.041999  0.102003  0.146163  0.016899 -0.063260  0.131547  0.053431  0.091453  0.064396 -0.069683  0.002804  0.067758 -0.025891  0.111193  0.049098  0.053469  0.084674 -0.006515  0.102138  0.085822 -0.093798 -0.118127  0.141120  0.094549 -0.141540  0.109023  0.071882  0.109247  0.023150 -0.166522 -0.007879 -0.013315  0.079796 -0.090699  0.011860  0.047454 -0.033175  0.022461  0.118755 -0.008697 -0.011141  0.170207  0.061058 -0.031142 -0.025845  0.061886
 0.019253 -0.017527 -0.040270  0.052103  0.133277  0.016173 -0.076286  0.020260  0.007494  0.086436  0.064305  0.104837 -0.004919  0.030253 -0.020066  0.079613 -0.033245 -0.117339  0.014890 -0.080048  0.089673  0.022577 -0.052224 -0.078549  0.042246  0.108657 -0.018619 -0.130904  0.088384 -0.030207 -0.032178  0.032352 -0.017692  0.141373  0.018500 -0.053937  0.112820  0.103924 -0.049399 -0.070005  0.010634 -0.048312  0.030760  0.053696 -0.068338 -0.073665  0.152189  0.114185 -0.081910 -0.000992
-0.115875 -0.038207 -0.067896 -0.006806 -0.073730 -0.037331 -0.000728 -0.049416 -0.065154 -0.025299 -0.019135  0.107569  0.078695 -0.101159 -0.180487 -0.044241  0.007314  0.095113  0.092794  0.337678 -0.122197 -0.097392 -0.048391 -0.003558 -0.046473  0.104682 -0.141184  0.044323 -0.017344 -0.076354 -0.036519  0.036991  0.013106  0.038117  0.030124 -0.034354 -0.122340  0.019339 -0.202968  0.125319  0.053202 -0.061179  0.003805 -0.075117 -0.223543 -0.017878  0.053735 -0.036332  0.008676  0.014819
 0.084923  0.115035 -0.093458 -0.083284  0.100254 -0.116474  0.077628  0.053519 -0.173143  0.061333  0.166680  0.090077  0.078282 -0.057801  0.044696  0.122979 -0.054522  0.134901  0.028613  0.006621 -0.048842  0.059971  0.045877 -0.083973 -0.114476  0.145759 -0.009495  0.012264  0.044503 -0.030279  0.118326 -0.133805 -0.025324  0.059734 -0.056106 -0.001350  0.032694 -0.022339  0.000952 -0.055246  0.009626  0.062472  0.023661 -0.005799  0.046938 -0.077098  0.120939 -0.101558 -0.120290 -0.024177
 0.008291  0.062449  0.058158  0.026168  0.200413  0.322435 -0.048309 -0.024063  0.052267 -0.058732  0.025416 -0.007049  0.048540  0.112955 -0.007010 -0.030589 -0.061934 -0.162662  0.003241 -0.077533 -0.111055  0.013612  0.076700  0.124983 -0.012558 -0.076773  0.086984 -0.064922  0.014821  0.049970  0.069713 -0.134308 -0.004787  0.035210  0.082725  0.070040 -0.018950 -0.004521  0.104075  0.037872 -0.009719  0.006628  0.034117 -0.004681  0.029168  0.019392  0.066188 -0.041958 -0.048092  0.057481
 0.023414 -0.032367  0.014572 -0.029594 -0.051666 -0.058581 -0.084401 -0.037503 -0.074334  0.055461 -0.004657 -0.103389  0.126186 -0.004944  0.029716  0.051723 -0.031608 -0.076214  0.017448 -0.107253 -0.061612  0.046563 -0.110120  0.030549 -0.055668 -0.023547  0.066102  0.106702 -0.003102 -0.082664 -0.049999  0.042790 -0.018566  0.090981 -0.006926 -0.002455 -0.027594  0.069050  0.003741 -0.085226 -0.035890  0.094474  0.008339  0.084647 -0.028768  0.046811  0.034179 -0.054249  0.004054  0.091650
-0.058867  0.001331  0.058231  0.017002 -0.032079  0.078490 -0.059387 -0.040764 -0.048091  0.055438  0.297963  0.015564 -0.054846 -0.004610  0.141252  0.078700  0.055075  0.052512  0.049294  0.068974 -0.003220 -0.110592  0.124842 -0.023654 -0.071004 -0.076443  0.129985  0.008061 -0.011754  0.025877  0.094557 -0.039745 -0.037353 -0.012083  0.099917  0.107327  0.046028 -0.010260 -0.004348 -0.060391 -0.073947  0.030306  0.120503 -0.152516 -0.056034  0.095356  0.000347 -0.019407  0.166983 -0.101640
-0.087779 -0.009938 -0.029842 -0.093394 -0.125025 -0.011602  0.009310 -0.017874 -0.002786 -0.059870 -0.012510 -0.074590  0.128517 -0.080447  0.189220 -0.119385  0.066710 -0.033447 -0.073398 -0.203434 -0.091333  0.011422  0.018727  0.147855  0.122153  0.003256 -0.081614 -0.136247  0.095957  0.069484  0.152266  0.010264  0.171631  0.084951 -0.065622  0.078539  0.120392  0.069094  0.034949 -0.018409  0.110589  0.064293 -0.089366 -0.072373 -0.090535  0.174795  0.054569 -0.018346  0.027320  0.006389
-0.021460 -0.014308  0.045871  0.069003 -0.016827 -0.075421  0.089314  0.139304 -0.149644  0.063569 -0.041063  0.043549  0.035954  0.046679  0.019354  0.010412 -0.250184  0.059990  0.082631  0.180877  0.015943 -0.058111  0.016917  0.109178 -0.024490  0.087057 -0.022662  0.061528 -0.043747  0.086735 -0.001405  0.031554  0.016602 -0.027553 -0.055790 -0.017475  0.052372 -0.036148  0.028070 -0.024245  0.067703  0.067272  0.028840 -0.034345 -0.025099  0.031272 -0.097388  0.033530 -0.045866  0.163834
-0.058614  0.059889 -0.009731 -0.019908  0.030768 -0.036596 -0.026725 -0.219581  0.018443 -0.073668 -0.095059 -0.089646  0.020910  0.103337  0.063637  0.092286  0.021384 -0.080842  0.039711 -0.039723  0.012917  0.039616 -0.119960  0.033759  0.026957 -0.008270 -0.025388  0.097721 -0.095869 -0.011768 -0.094365 -0.040051 -0.009341  0.044633 -0.051605  0.092590  0.083642  0.149589  0.021733  0.218530 -0.003215 -0.031614 -0.072325 -0.035239 -0.129655 -0.039266  0.094197  0.002366 -0.107935  0.094915
 0.013553  0.029349 -0.059442  0.008103  0.072894 -0.001782  0.067633  0.006470 -0.138848 -0.045594 -0.032422  0.250546 -0.033341 -0.002037  0.071089 -0.072157 -0.005591  0.034310  0.028895  0.002517  0.105548  0.043403  0.052096 -0.147695  0.044138 -0.039356  0.069191 -0.040457  0.239700 -0.028680 -0.092071 -0.059839 -0.018502 -0.058159  0.037312 -0.021730 -0.074899 -0.025451  0.023940  0.067171 -0.058657  0.017329 -0.035604  0.003382 -0.028484  0.063611  0.036542 -0.014568  0.145034  0.060381
 0.003001 -0.167301 -0.033821 -0.059258  0.050839 -0.009631 -0.056294  0.005214  0.112968 -0.060814  0.008092 -0.167995  0.130320  0.005566  0.104375 -0.027735  0.037134 -0.106858 -0.073928 -0.107194  0.012855  0.026581 -0.064491 -0.057214  0.232894 -0.089003 -0.115698  0.029355 -0.027036 -0.067342 -0.046974 -0.052308  0.110100  0.026988 -0.004214 -0.086122  0.012122  0.059083 -0.100540 -0.011504 -0.015625  0.009894 -0.027203 -0.043209 -0.008837  0.016233  0.096744  0.063410 -0.016366  0.005261
-0.022290 -0.067031  0.044177 -0.094834 -0.075871 -0.028640 -0.083190  0.162454  0.066350  0.132274 -0.043214  0.043507 -0.001645 -0.047094 -0.023939 -0.024145  0.065271 -0.080717 -0.146347 -0.247065  0.127008 -0.064637 -0.035163  0.052327 -0.013582 -0.025193  0.007194  0.000009 -0.020687  0.050958 -0.054332 -0.144699 -0.060583  0.001717  0.056150  0.050853 -0.074820 -0.039321  0.007769  0.018049  0.023586  0.043574  0.079503  0.057427 -0.149870 -0.027905  0.053160 -0.033072 -0.144718  0.048620
 0.076125 -0.082550  0.043649  0.088593 -0.035037  0.070462  0.098442 -0.106897 -0.095398 -0.074036 -0.014042 -0.005331 -0.059321  0.027326 -0.112388 -0.116345 -0.103855  0.008390 -0.097969 -0.221005 -0.020774 -0.059163 -0.016455 -0.104230  0.090602 -0.091476  0.093517 -0.123210  0.077273 -0.085306  0.002293 -0.001216 -0.016084 -0.066946  0.077259 -0.003671 -0.098521  0.081952  0.124416 -0.012377  0.020428 -0.081313  0.023412  0.037865 -0.043095 -0.122966 -0.045421 -0.034242  0.141911 -0.072416
 0.005491 -0.177007 -0.038229 -0.024105  0.111138  0.082746 -0.061332  0.012732  0.026290 -0.088140  0.009404  0.138139  0.082914  0.034378 -0.029246 -0.047498 -0.096156 -0.035403 -0.107069  0.107970 -0.044927 -0.000654 -0.031432  0.067300 -0.038930  0.050653 -0.063740  0.035222 -0.138166 -0.112229 -0.001811 -0.086707  0.095247  0.045737 -0.015835  0.146828  0.059831  0.088425 -0.049061  0.039094 -0.052343  0.032316 -0.120194  0.015507 -0.110673 -0.005999 -0.020298  0.022939 -0.032890  0.001749
-0.004431 -0.095557 -0.056197 -0.044982 -0.113143 -0.052069  0.040558 -0.143159  0.028294  0.004541 -0.018141 -0.074181  0.086455 -0.074727 -0.042308  0.209036 -0.071002 -0.046342 -0.099890  0.177862  0.045294 -0.015157 -0.182939 -0.050860 -0.179236  0.109320 -0.118718 -0.131530 -0.142183  0.052812  0.027253  0.004956  0.011970 -0.073389 -0.010598 -0.039902  0.068945  0.017549  0.023524 -0.056126  0.095661 -0.006596 -0.053565  0.071259 -0.028819 -0.008055 -0.025739  0.000670  0.029514 -0.063741
 0.027371 -0.068841  0.016991  0.045733 -0.021821 -0.034752 -0.130471 -0.068403 -0.021983 -0.105191 -0.033290  0.034065  0.097142 -0.052366  0.079273 -0.046763  0.130542 -0.078319 -0.141629 -0.162468 -0.043057 -0.036154 -0.048636  0.061994 -0.006708 -0.083907 -0.195446 -0.009549  0.021983 -0.025613 -0.000808  0.027416 -0.027367 -0.016718  0.094760 -0.087492  0.035011 -0.102951  0.162042  0.103385  0.027538 -0.037958  0.028297 -0.000583  0.196552  0.095131  0.040854 -0.063941  0.000578 -0.053637
 0.113992 -0.087481  0.006808 -0.039664  0.068145  0.000870 -0.053360  0.109393 -0.098284  0.067525 -0.197610  0.022777  0.095700  0.032664  0.004552 -0.058195  0.016181 -0.074507 -0.031929 -0.196744  0.115494  0.140725 -0.163475 -0.002762  0.168386 -0.009455  0.064168 -0.010773 -0.018784 -0.108668  0.062703  0.107926 -0.030020 -0.044544 -0.047805  0.156886  0.071417 -0.070748  0.033053 -0.058031 -0.015579  0.095006  0.088924 -0.110692  0.040197 -0.038116 -0.049247  0.153075  0.044680 -0.044342
 0.103191  0.012321  0.062780  0.024638  0.032993 -0.038837  0.050961  0.020901 -0.088882 -0.042413 -0.055681 -0.150691 -0.120528  0.042844  0.095019  0.022273 -0.011217  0.019536 -0.046878  0.250116 -0.056797  0.049051 -0.041759  0.058393 -0.134602  0.108275  0.026667 -0.071993  0.118390  0.064661  0.058684 -0.122865 -0.059546 -0.005610  0.066319  0.043297  0.040200 -0.074874 -0.015580 -0.059427 -0.058750 -0.067198 -0.051638 -0.003954 -0.046048  0.076428 -0.072489  0.092227  0.069485 -0.014426
 0.070373 -0.084777 -0.010131 -0.028873 -0.088576 -0.109247 -0.097931  0.003303  0.067817  0.059268  0.034878 -0.075083  0.001175 -0.003069 -0.052375 -0.063072  0.046712 -0.021370 -0.015776 -0.066897 -0.081804 -0.051427  0.021216 -0.003341  0.049513  0.017138  0.016466 -0.004888  0.127407 -0.052249 -0.074186  0.078548  0.038102  0.080004  0.041209 -0.054206  0.039423  0.158166 -0.039602  0.076129  0.020092 -0.003901 -0.019171 -0.043568 -0.033899 -0.188950  0.082540  0.001070  0.039849  0.112488
-0.128937 -0.046822 -0.039126  0.001629 -0.074474  0.087778  0.023297 -0.023146  0.043759  0.039117 -0.031541 -0.109873 -0.079726 -0.122465 -0.040617  0.105917  0.077483 -0.106168 -0.002058 -0.091378 -0.069655  0.026283 -0.075260  0.050871 -0.052925 -0.053626 -0.085732 -0.032794 -0.031817  0.024708 -0.019701  0.071712  0.050286  0.075077 -0.077687  0.058104 -0.104248  0.023686 -0.068681  0.017724  0.075922 -0.026956  0.001136 -0.068138  0.028274  0.001918 -0.014792  0.068194  0.028280  0.086503
 0.150344 -0.083918 -0.018744  0.093642 -0.140935  0.026411  0.025713  0.100071  0.102199 -0.034321  0.024235 -0.030535 -0.030932  0.074026  0.094844 -0.057131  0.088610 -0.064024 -0.081212 -0.123120 -0.038791  0.151059 -0.104512 -0.051453  0.181684 -0.062035 -0.004595 -0.033875 -0.035953  0.015866  0.067126 -0.020029 -0.125815 -0.045326  0.000313 -0.006771 -0.092202  0.075348  0.050645  0.023692 -0.127638  0.137393  0.051977 -0.043252 -0.008228 -0.084700  0.018648  0.011196 -0.024622 -0.052354
-0.135442 -0.089784 -0.131684 -0.024312  0.044492  0.039439  0.049556 -0.126519 -0.118743 -0.103763  0.030546 -0.104623 -0.065444  0.008989 -0.126742 -0.050867 -0.024345  0.097465 -0.036228  0.109426  0.030622  0.055482 -0.097080 -0.030628 -0.049829  0.002232  0.091447 -0.052358 -0.008711  0.015438 -0.048373 -0.173425 -0.080783  0.053685 -0.014547 -0.033562  0.011987 -0.030750  0.007914  0.138645  0.012994  0.007728 -0.023860  0.188451 -0.026688  0.042245 -0.041331  0.075753 -0.007405  0.020643
 0.007398  0.082423 -0.123293  0.215139  0.056640 -0.044934  0.046220 -0.039810 -0.115917  0.126132  0.022087  0.076839  0.010454 -0.002981  0.143105 -0.046904  0.020097  0.121888  0.080152  0.103308 -0.060304 -0.014729  0.079729  0.017468 -0.122344  0.044626  0.072482 -0.047728  0.049825 -0.089991  0.076331  0.046062  0.063203 -0.019901  0.040442 -0.048983 -0.002284 -0.028476 -0.049521 -0.059505  0.021279 -0.133615 -0.112543 -0.018707 -0.049154 -0.004277  0.095865 -0.067413  0.059704 -0.015136
-0.045384  0.061524  0.045132  0.049560 -0.092745  0.024790 -0.017287  0.007556 -0.046246 -0.029295  0.033264  0.104531 -0.194937 -0.012517 -0.082595  0.047834 -0.077138  0.140408 -0.005373  0.081221 -0.001466 -0.077837  0.003393  0.010800 -0.016617  0.020188  0.130782  0.025776 -0.011634  0.027654 -0.158339 -0.005527  0.043065  0.006649 -0.165943  0.103912  0.027880 -0.009308  0.166770  0.114618  0.004572 -0.109900  0.040030 -0.009336  0.008503  0.143321  0.108434  0.004862  0.092596  0.056589
-0.107684 -0.086931 -0.081114  0.040558  0.053856 -0.201796  0.133177 -0.073903 -0.123162  0.046785  0.040234 -0.004239  0.052335  0.032225  0.005891  0.082397 -0.003193  0.066562 -0.006153  0.053414  0.129305 -0.072271  0.002193 -0.112286 -0.088621 -0.060561 -0.016490 -0.001185 -0.012648  0.084104  0.135909 -0.152796  0.137291 -0.112041 -0.008466 -0.045212 -0.008867 -0.157412  0.172737 -0.067722 -0.085751  0.000626  0.075783  0.040217 -0.074292 -0.076284 -0.000070 -0.115578 -0.020688  0.087020
 0.170406  0.009956 -0.036199 -0.058342  0.014941  0.074175 -0.123077 -0.086490  0.027000  0.099778  0.031079 -0.045471 -0.027138  0.024152  0.044600  0.038077  0.072475 -0.140300  0.039184 -0.111444  0.077911 -0.060372 -0.026316  0.017863  0.034411 -0.086356  0.093143  0.040196 -0.026559 -0.049066  0.110468  0.076945  0.056235 -0.014019  0.004027 -0.075927 -0.112634  0.150493 -0.029530  0.002786 -0.016475  0.062371 -0.089196  0.202158  0.032721 -0.041631 -0.081095 -0.012839  0.007169 -0.042045
 0.143842 -0.051839  0.111665  0.087098  0.098532  0.022595 -0.034435 -0.042846  0.110776 -0.074000  0.043651  0.086752 -0.010076  0.001959  0.112753 -0.104089  0.028639 -0.215238 -0.018486 -0.040683  0.157357  0.041156 -0.007237  0.099001 -0.075529 -0.043768  0.011673 -0.002220  0.125678  0.024458  0.036646  0.046455 -0.116877 -0.062565 -0.078095 -0.002471 -0.056679 -0.011716  0.020197 -0.024782  0.039087 -0.035317  0.004712  0.001072 -0.104712 -0.020531  0.151137  0.029134 -0.091230 -0.061695
-0.137424 -0.004305 -0.043100  0.097456  0.114703 -0.024521 -0.027994 -0.064791 -0.097385 -0.043581 -0.002435 -0.027902  0.007724 -0.027289  0.118872  0.037916 -0.025458  0.147326  0.006116  0.063972  0.064801  0.044558 -0.003932  0.076811 -0.081264 -0.141141 -0.041628  0.044805 -0.082565  0.095837 -0.074066 -0.063891  0.064728  0.029027 -0.025379 -0.087044 -0.123881  0.049808 -0.013800 -0.056311  0.091528  0.049946 -0.031099  0.024440  0.112113  0.023677 -0.092757 -0.020472 -0.094922  0.066182
-0.050597 -0.060208 -0.088852 -0.227924  0.012719  0.181227  0.001293  0.063069 -0.002116  0.118205 -0.124174 -0.067151 -0.121674  0.128092 -0.060470 -0.040517  0.029576 -0.164920 -0.048089 -0.128914  0.102896 -0.056091  0.034814  0.005222 -0.032812  0.032744 -0.100696  0.064248 -0.053778 -0.006760 -0.032631  0.023238  0.025704 -0.047303 -0.055038 -0.077412 -0.070602  0.033869  0.076071  0.098121 -0.101379  0.071474 -0.007726 -0.106992 -0.016172  0.095936  0.024119  0.003974  0.007038 -0.064556

=== bc ===
        0
 0.016873
 0.008458
-0.029872
 0.012221
 0.012684
 0.017970
 0.017940
 0.013819
-0.009727
-0.017938
-0.013536
 0.010244
-0.005027
 0.006946
 0.004547
-0.017458
-0.016140
 0.032863
 0.019638
 0.071264
-0.011154
 0.000817
 0.019908
 0.001647
 0.002905
 0.005118
 0.010198
-0.008737
 0.019006
-0.007300
 0.010819
-0.009938
-0.012635
-0.005332
 0.016177
 0.006206
-0.015002
-0.007224
 0.011539
 0.009329
 0.007567
 0.033507
 0.007732
 0.009571
-0.031649
 0.010122
-0.009844
-0.014710
 0.003304
-0.012078

=== Wo ===
      0        1         2         3         4         5        6         7       8        9        10       11        12       13       14       15       16      17       18       19       20      21       22       23       24      25       26       27       28        29      30       31        32       33        34        35       36       37        38        39        40       41       42       43       44       45       46        47       48       49
0.120291 0.326392 -0.122472 -0.020565 -0.419413 -0.163252 0.048889 -0.199794 0.24603 0.364195 0.169765 0.121366 -0.036208 0.147668 0.204444 0.052975 0.092214 -0.0652 0.136969 0.715439 0.045209 0.14311 0.021987 0.219107 0.277034 0.21991 0.109085 0.009128 0.283971 -0.139778 0.03079 0.228836 -0.145243 0.095515 -0.168992 -0.191594 0.139033 0.140049 -0.003506 -0.050694 -0.018865 0.419116 0.043413 0.244876 0.402907 0.341016 0.000656 -0.036597 0.262294 0.175697

=== Uo ===
       0         1         2         3         4         5         6         7         8         9         10        11        12        13        14        15        16        17        18        19        20        21        22        23        24        25        26        27        28        29        30        31        32        33        34        35        36        37        38        39        40        41        42        43        44        45        46        47        48        49
 0.018808  0.118452  0.116162 -0.009719  0.060665  0.003771 -0.027921 -0.016423 -0.007886  0.065660  0.045981  0.050995  0.075590 -0.126202  0.093893  0.164989  0.110290  0.068906  0.064857  0.414025  0.071427  0.026543 -0.080274  0.039111  0.046047  0.145909  0.057364  0.110598  0.007313 -0.130335  0.060939 -0.001054 -0.127075 -0.087840  0.024324 -0.003633 -0.014772  0.121748 -0.062496  0.007860 -0.120318  0.145593  0.053991  0.049284 -0.073479  0.040316 -0.163848 -0.067633 -0.079741  0.063056
 0.111032  0.022676 -0.043851 -0.145879  0.023867 -0.061863 -0.016941  0.038805  0.123180  0.253420  0.208727 -0.061698  0.050426  0.020686  0.036341  0.188299 -0.013980  0.110733 -0.077660  0.780246  0.098854 -0.027175 -0.042314  0.020258  0.168720  0.042073  0.006685 -0.007292  0.090176  0.062482 -0.043521 -0.044989 -0.100754 -0.030151 -0.045138  0.031110  0.040896  0.169113 -0.021095 -0.017900  0.014753  0.243853  0.002602  0.006451  0.090793 -0.006175  0.072981 -0.039356 -0.087917 -0.023359
-0.019630  0.043759  0.028272 -0.025337  0.054441  0.068619 -0.095518  0.045988 -0.067079  0.053381  0.086325 -0.024459  0.004015 -0.014490 -0.099680  0.045431  0.003898 -0.075257  0.027328  0.230354 -0.076070 -0.064234  0.012086  0.070889  0.112102  0.101569  0.017867  0.104390  0.027129  0.130199 -0.064653  0.126776 -0.082201  0.150889 -0.009601 -0.020201  0.094105  0.144828  0.017956  0.161276  0.071375  0.150104  0.096677 -0.055037 -0.014156  0.034156  0.101013 -0.040554 -0.174916 -0.089574
 0.022410  0.092765  0.029493  0.164570 -0.011936 -0.005110 -0.108629 -0.042826 -0.037239  0.194418  0.022471 -0.033370  0.060786 -0.067095  0.017298  0.120421  0.131122  0.067291 -0.084463  0.683339  0.045380  0.032118 -0.006837  0.041162 -0.120430 -0.015186 -0.085464  0.086944 -0.132087 -0.043099  0.024983  0.033192 -0.084287 -0.049786  0.028070  0.053617 -0.144105  0.114014 -0.001666  0.010231 -0.020001  0.081340  0.027711 -0.096363 -0.013413 -0.031198  0.029005  0.014571  0.026181 -0.118365
-0.102525 -0.114268 -0.005125  0.038169  0.028009  0.075214  0.257325  0.223601  0.060636  0.034762 -0.073737  0.014595  0.015210 -0.098998  0.050351 -0.167845  0.048544  0.077031 -0.046812 -1.068580 -0.096218  0.039779  0.088553 -0.059232  0.117222  0.025055 -0.006415 -0.041630 -0.187255  0.059117 -0.121826 -0.009907 -0.073585  0.031220 -0.039759  0.232478  0.089936  0.197932 -0.105819 -0.030034 -0.018831 -0.256285  0.003933 -0.010312  0.010939  0.003225  0.011289  0.148714  0.047649 -0.299749
-0.028262  0.117488 -0.052373  0.121073 -0.013547 -0.013505 -0.077216  0.143776  0.090345 -0.073953  0.008914  0.086047  0.062779 -0.034922 -0.004404  0.075651 -0.064558  0.041058  0.050037 -0.587044 -0.002959 -0.085199 -0.001508  0.040293  0.157397  0.049386 -0.118396 -0.151870 -0.026833  0.091223  0.088628  0.012539 -0.090314  0.029623  0.006797 -0.000574 -0.163323  0.151632 -0.042422  0.017863 -0.042357 -0.034851  0.087807  0.062060  0.016463  0.081852  0.073669 -0.003195 -0.080129 -0.019515
-0.005523 -0.021409  0.083307 -0.056394  0.091683 -0.139996 -0.147582 -0.093237  0.032821  0.053098 -0.133496 -0.032255 -0.039187 -0.005614 -0.049562  0.016156  0.001890  0.140376 -0.051383 -0.147121 -0.012736  0.059529  0.034312 -0.108706 -0.012346 -0.101559  0.134574  0.086910 -0.203323 -0.031066  0.039214 -0.050244 -0.066819  0.049391  0.126607  0.086817 -0.017226  0.114157 -0.110479  0.007208 -0.088451 -0.137546  0.018173 -0.014589 -0.011581 -0.088493 -0.016089 -0.050335 -0.055492 -0.092106
-0.031979 -0.066912  0.084612  0.102808  0.089261 -0.116229  0.084230 -0.059841  0.071981  0.084109 -0.064461  0.106567 -0.102657 -0.078639  0.008928 -0.057841 -0.083905  0.189093  0.038655 -0.072532 -0.127917 -0.162497 -0.033251 -0.153877  0.039637  0.101141 -0.080261 -0.022902 -0.124749  0.011270 -0.055047 -0.061231  0.020962  0.021116 -0.021225  0.204295 -0.122415 -0.031446 -0.042279  0.038473 -0.008529 -0.057232  0.025797 -0.101382  0.002717 -0.055487  0.058593 -0.029002  0.009308 -0.082880
 0.036796  0.002078  0.048215 -0.114288 -0.005999  0.001956 -0.008313  0.070874  0.060420 -0.020459 -0.138642  0.157944 -0.059767  0.085090  0.053470  0.013136  0.059642 -0.154697  0.050707 -1.028968 -0.016307 -0.018083  0.033686 -0.083573  0.085595  0.060463  0.010420 -0.047043 -0.004118 -0.149580  0.053171  0.002080 -0.022633  0.112487  0.102691  0.105888  0.102793  0.002430  0.010361 -0.079623  0.023610 -0.022204  0.010196 -0.064880 -0.183865  0.101326  0.013032  0.064800  0.089032 -0.038938
-0.014928 -0.055086  0.065053  0.021625  0.087130  0.171022 -0.067367 -0.091882  0.041854  0.160859  0.126530 -0.007388  0.016195 -0.053952 -0.053925  0.112147  0.066644  0.127362 -0.069915  0.716921  0.016852 -0.043824 -0.080978  0.102297  0.076245  0.016646 -0.027558  0.022445 -0.125754  0.077618 -0.004831 -0.014436  0.020025  0.146978  0.069279  0.062417 -0.058580  0.249444  0.033893 -0.086297 -0.017356  0.173943 -0.023435 -0.110547  0.282328 -0.105228 -0.012508 -0.041786 -0.046567 -0.112528
-0.094196  0.006438 -0.049015  0.035244 -0.158102 -0.227981 -0.018184 -0.087280 -0.160819  0.015246  0.045201 -0.101577  0.176680  0.127349 -0.034765  0.152475  0.119293 -0.130749  0.104668 -0.215076 -0.114056 -0.091582 -0.072717 -0.095691 -0.573074 -0.100496 -0.003674 -0.116487  0.025136  0.069792  0.002558 -0.045371  0.015262 -0.086236 -0.096117 -0.127909 -0.046738 -0.399832  0.002030  0.069469  0.034029 -0.149665 -0.010609 -0.010751  0.143980 -0.089061  0.116900  0.031573  0.057323 -0.060605
 0.072873 -0.053895 -0.167017 -0.152632 -0.038999 -0.053591 -0.003988 -0.085011  0.065938  0.052394  0.094058  0.010193  0.060087  0.053198  0.045782  0.072025 -0.062305  0.086755 -0.020680  0.691293  0.024430 -0.148601 -0.095354 -0.008325  0.063720  0.010121  0.148745  0.120364 -0.055382  0.050304  0.009463  0.039389  0.054134  0.103706  0.023652 -0.029736 -0.027522  0.143878  0.049383  0.081950 -0.037912  0.116486 -0.069157  0.013866  0.023072 -0.004180  0.082523 -0.137834  0.151288  0.118731
 0.028545 -0.058289  0.052454  0.065464  0.092526  0.004951 -0.076378  0.024374 -0.000269 -0.156348 -0.212219  0.031640  0.060791  0.092316 -0.092004 -0.142067  0.100685 -0.112950  0.073890 -0.462464  0.015455  0.035621  0.175862 -0.116673  0.053797 -0.042536  0.037246  0.037110  0.073758 -0.012363 -0.071578 -0.086563  0.059408 -0.031731  0.028442  0.177491  0.044318 -0.166611 -0.033344 -0.116735 -0.024567 -0.134228  0.198613  0.060895 -0.077595  0.034413  0.015394  0.158242 -0.082959  0.004535
 0.055623 -0.059791  0.026820  0.041711  0.122625  0.070549 -0.033630  0.064404  0.082835  0.050737 -0.017627 -0.042476  0.119765 -0.034130  0.055885 -0.036013  0.165669  0.000008  0.080062  0.313093 -0.044831  0.019570 -0.081866  0.100688 -0.171949  0.092441  0.034429  0.141161  0.173971  0.080296  0.139277  0.073834  0.000175  0.046515 -0.013643 -0.120632  0.104673  0.157296 -0.001813 -0.057258  0.158016  0.095192  0.057092 -0.060960  0.048872  0.082573  0.145674  0.001936  0.057896  0.044319
-0.061553  0.081884 -0.076655  0.030080  0.078054 -0.098279 -0.018606  0.185898  0.041599 -0.077049 -0.000170 -0.081810  0.007605 -0.079791 -0.068037  0.018203  0.054959  0.063555 -0.083297  0.376640  0.029915  0.078904  0.017502  0.015017  0.047009  0.125461 -0.005090  0.089999  0.112544 -0.022433  0.004465 -0.004397  0.191041  0.047159 -0.055316  0.015478 -0.131885  0.332344  0.015018  0.017749 -0.059928  0.062701  0.100005  0.166698 -0.010890  0.061306  0.030472 -0.081381 -0.039999 -0.008282
-0.047592  0.116297 -0.045656  0.061966 -0.114230 -0.034410  0.024405 -0.067394 -0.259799  0.143461  0.088789 -0.014430  0.071632  0.032265 -0.060959  0.215899  0.065180 -0.262655  0.017622 -0.414397  0.026889 -0.053492  0.101176  0.032294 -0.545100 -0.150825  0.114492 -0.120996  0.026088 -0.087099  0.010425  0.012374  0.035078 -0.120406 -0.095102 -0.008142 -0.145425 -0.246552 -0.041967 -0.101024  0.115892  0.070031  0.028156 -0.087730  0.092419  0.023017  0.014027  0.012272 -0.043145 -0.096506
 0.018570  0.115171 -0.039484 -0.025063  0.149321 -0.013180 -0.062557  0.070569 -0.082884  0.022326 -0.028329  0.007619  0.031002  0.048515  0.007361  0.022249 -0.038979  0.007893 -0.007630  0.118152  0.185857  0.007139 -0.006796  0.123117  0.088251  0.059565  0.032522 -0.005901 -0.079770  0.018260  0.108077 -0.032459 -0.018160 -0.010087 -0.025297  0.050086  0.047767  0.180961  0.072991  0.053176  0.067588  0.119306  0.070596  0.072772  0.014492  0.056903  0.106058 -0.010640 -0.001825 -0.026682
 0.163605 -0.053236  0.040649 -0.060956 -0.018002  0.077156 -0.019922 -0.127602 -0.099119 -0.010454  0.208817  0.085391  0.119149  0.001023 -0.040703  0.330575 -0.127865  0.207504 -0.012815  1.337606  0.037821 -0.123952 -0.086992  0.060263 -0.094633  0.056794  0.052787  0.105039 -0.096708  0.027991  0.014424 -0.091750  0.040840 -0.044771  0.055582 -0.104105 -0.169425  0.081949 -0.072129 -0.137244  0.012749  0.060126 -0.037945 -0.034010  0.113538 -0.030940 -0.040365 -0.142580 -0.130097  0.071004
 0.030627 -0.012366  0.012862 -0.011751 -0.000866  0.033244 -0.023826  0.022377 -0.165474  0.028796  0.137857 -0.030451  0.014745 -0.153482 -0.020605  0.063458  0.090831  0.059347  0.137604  0.903709 -0.107173 -0.158815  0.037100 -0.056128 -0.056207 -0.022797 -0.050291 -0.075867 -0.054130 -0.043380 -0.103119 -0.073175 -0.076471  0.033770  0.015586 -0.027563  0.038975 -0.080570 -0.277350 -0.125017 -0.100557  0.012857 -0.093681  0.072830 -0.079863 -0.068402  0.262199 -0.002731 -0.092892  0.117373
 0.061438  0.222284 -0.005675  0.247846 -0.478503 -0.071117  0.059757 -0.280785  0.270413 -0.041160 -0.247504  0.159676  0.097387  0.055485 -0.029860 -0.609597 -0.056770  0.004117  0.302096 -0.489141 -0.089277  0.297665  0.624361 -0.090366 -0.085146  0.007545  0.072939  0.079596  0.204056 -0.064091  0.112383  0.052751 -0.162138  0.022803 -0.302601 -0.360723  0.018571 -0.393211  0.173910 -0.040894 -0.076203  0.007232  0.146226  0.024971  0.154521  0.131695  0.030731 -0.025923 -0.010755  0.004580
 0.051024 -0.022500  0.003081 -0.195371 -0.048656 -0.074250 -0.170931 -0.099936 -0.018158  0.116824  0.084802  0.090971 -0.014457 -0.133545 -0.035053  0.141951 -0.055026  0.139353 -0.054067  0.669267  0.047900 -0.062788 -0.150112  0.053210  0.216176  0.054865  0.018024  0.001587  0.068657  0.134806 -0.036704  0.037219 -0.036024  0.084945  0.054852 -0.161548  0.030248  0.189182 -0.088452  0.048751 -0.003424  0.136666  0.046199  0.076729 -0.010635 -0.037465 -0.101412 -0.005511  0.012771  0.046241
-0.101978  0.071088  0.110387  0.025085  0.050205 -0.081605 -0.015700  0.155617  0.081889 -0.083775 -0.161986 -0.083702 -0.175495 -0.112365 -0.030271 -0.152374 -0.084169 -0.085635  0.059068 -1.056113 -0.011503  0.115916  0.062819 -0.082560 -0.095503  0.075830 -0.007269 -0.032028  0.013363 -0.136410  0.060255  0.065528 -0.113864 -0.042343 -0.042414  0.063809 -0.061038 -0.155739 -0.182066 -0.028795  0.175810 -0.229050 -0.009790 -0.069321 -0.043136 -0.152760 -0.070535 -0.075225 -0.019725 -0.083544
-0.055249 -0.148530  0.065063  0.002214 -0.017860 -0.044668 -0.168688  0.026752 -0.096583  0.070988  0.031119 -0.109984 -0.054732  0.063566  0.002121 -0.063027  0.084895  0.005067 -0.074131  1.065523 -0.145294  0.114825 -0.106800  0.091677 -0.098843  0.142520 -0.045208 -0.072977 -0.091698  0.037935  0.120519  0.018834 -0.059489  0.011713 -0.011682  0.052768 -0.058556 -0.019126 -0.073597 -0.071872 -0.004217  0.143269 -0.206030  0.087444  0.102677  0.054459 -0.043830 -0.050076 -0.064501  0.074012
 0.131422 -0.080178  0.067057  0.016761  0.001171 -0.007686 -0.120228  0.023281 -0.113843  0.206656  0.204298  0.023653  0.122272  0.112981 -0.016968  0.234071  0.005079  0.144155 -0.020847  0.715057  0.078129 -0.068397  0.084988  0.074270 -0.036684 -0.076536  0.023221  0.061671 -0.055002  0.035040 -0.091994 -0.084522  0.028503  0.070694 -0.025453 -0.042523 -0.012914  0.171792 -0.022802  0.098169  0.071782  0.177976  0.007581  0.047573 -0.045849 -0.042377  0.017398 -0.168669 -0.061015  0.072687
-0.033538 -0.082696 -0.014084  0.056621  0.064410 -0.005800  0.140680  0.045061 -0.003201 -0.219526 -0.138174  0.031118 -0.023123  0.051379  0.007225 -0.296704  0.068852 -0.124408 -0.032563 -1.274411  0.084852  0.098207  0.055169 -0.176639  0.013854  0.029337 -0.090618  0.022714  0.078705  0.129804  0.166164  0.045234  0.073864 -0.048457 -0.027541  0.106602 -0.004173 -0.170872  0.036865  0.025569  0.011508  0.001221  0.069326  0.099855 -0.191648 -0.097674  0.053657  0.024174 -0.009197 -0.174487
-0.047468 -0.116079 -0.005549  0.042278 -0.038022 -0.140710  0.021582 -0.019002  0.126544 -0.211148 -0.078235  0.085841  0.103085 -0.021162 -0.059095 -0.056297  0.068483 -0.000557  0.058042 -0.549246  0.077389 -0.042979 -0.028224 -0.034665 -0.144494 -0.068561 -0.047608 -0.051045 -0.067814  0.038920  0.066470  0.013172 -0.007640 -0.044486 -0.097242  0.178734  0.030302 -0.241569  0.167307 -0.157462  0.061536 -0.139528 -0.049971 -0.134877  0.095256 -0.119266 -0.005540  0.020836 -0.172295 -0.139880
-0.003101  0.048735 -0.013410  0.122759 -0.173738  0.117029 -0.184326  0.034647 -0.009264  0.114126  0.204405 -0.116994  0.056817  0.028792  0.036637  0.120743 -0.087861  0.007228 -0.062246  0.826326  0.045876 -0.047033 -0.121440  0.079683 -0.021531 -0.112711 -0.055105  0.092502  0.089889 -0.043205  0.081451 -0.035819 -0.086629  0.156126 -0.037657  0.006322  0.102259  0.292466  0.106378 -0.028993 -0.116571 -0.005844 -0.023816  0.031833 -0.027306  0.001125  0.076022 -0.033188  0.020007 -0.002980
 0.138221  0.036338  0.012987  0.118593  0.045948 -0.077684  0.083849 -0.054473  0.066474 -0.253952 -0.166876 -0.051403 -0.140213 -0.004273 -0.095754 -0.074110  0.179225 -0.064783 -0.091284 -0.598211 -0.098616 -0.011695  0.022548  0.067739 -0.019893  0.002479  0.010901 -0.077630 -0.076609 -0.035691 -0.010006 -0.078063  0.000355  0.072355 -0.052154  0.068644 -0.031971 -0.257166 -0.109348  0.011472  0.039128 -0.160257  0.080783  0.029836 -0.064101 -0.009507 -0.103577  0.081896  0.068695 -0.132104
 0.080425 -0.081001 -0.071216  0.022581 -0.002527  0.039308 -0.063673  0.020838  0.014465  0.180685  0.203515 -0.073130  0.047652 -0.015925 -0.033410  0.228048 -0.064243  0.198630 -0.138320  0.872157  0.216266 -0.008785 -0.081688  0.019376  0.180926  0.088779 -0.109501  0.083872  0.205503 -0.078342 -0.021722 -0.119181  0.105636  0.219064  0.003044 -0.088329  0.057984  0.185852 -0.070622  0.016962 -0.096229  0.087129 -0.086141 -0.042972  0.018454  0.007498 -0.015270 -0.155021  0.088474 -0.007945
-0.016520 -0.037794  0.002221 -0.004643  0.010928 -0.010319 -0.012091 -0.068276 -0.177727 -0.030514 -0.059865  0.101550 -0.012992 -0.096611 -0.030524  0.009940 -0.017379 -0.018822  0.156655  0.348246 -0.070157 -0.082307  0.109826  0.011650 -0.158269 -0.029119  0.098161 -0.004124 -0.128694 -0.134992  0.035132  0.007994 -0.118913  0.059512 -0.055290  0.024732  0.078237 -0.293291  0.082322  0.103093 -0.003977  0.010134  0.048214  0.071318  0.026566 -0.011272 -0.006955 -0.009813  0.060428  0.045520
-0.025679  0.099412 -0.162980 -0.018121 -0.084032  0.161465 -0.059580 -0.047644 -0.023195  0.042561  0.132704 -0.066987  0.129679  0.041530  0.088625  0.057179 -0.026091  0.134247 -0.068954  0.795942 -0.121807  0.000662 -0.119410 -0.063779  0.083644 -0.036313  0.000589  0.091915 -0.027350  0.025845  0.022692 -0.064972  0.055817  0.122782  0.032187  0.062977 -0.012160  0.121742  0.100149 -0.072860  0.006667  0.020547 -0.000033  0.110519 -0.064835 -0.079581 -0.121876 -0.138270  0.075153  0.094562
-0.066125  0.116193  0.099947 -0.123881  0.017977 -0.002763 -0.076614 -0.031822  0.026996 -0.023026 -0.107585  0.018771 -0.108153  0.012799  0.026731 -0.199600 -0.021262 -0.096148  0.121612 -0.825377 -0.004503  0.032780  0.142799 -0.023748  0.005557 -0.026482 -0.101836  0.037822  0.104639  0.083104 -0.053006 -0.066037  0.084138  0.024785  0.102747 -0.036186 -0.020655 -0.126845 -0.028214 -0.045920  0.021634 -0.164974 -0.010870  0.022415 -0.177919  0.145194  0.005451  0.114901 -0.092217 -0.057989
 0.080725  0.033020  0.033634 -0.005356 -0.083780  0.008692  0.070234 -0.144723 -0.164540 -0.127298 -0.072283 -0.012800 -0.125171 -0.046987 -0.033525 -0.067055  0.017251 -0.099582 -0.041314 -0.180770  0.066147  0.001342  0.039094 -0.018039  0.040986  0.024912  0.043059  0.093231  0.008220  0.043337 -0.154602 -0.082786 -0.026650  0.104156  0.080719 -0.038504 -0.014253 -0.058450  0.058621 -0.018204 -0.145020 -0.058123 -0.088129  0.051594 -0.005282  0.042603 -0.018413 -0.014077 -0.043795 -0.027065
-0.278336 -0.022505  0.130073  0.064677  0.039747  0.070045 -0.064215 -0.095710  0.047970 -0.041879 -0.149337  0.028621 -0.092499 -0.063399 -0.015573 -0.171326  0.079395 -0.087488  0.033465 -1.269719  0.050781 -0.017905  0.031733 -0.032401 -0.026232 -0.125523 -0.047568  0.018567  0.003177  0.144069  0.036634 -0.059024  0.187223  0.065034 -0.009238  0.048369  0.062057 -0.048449  0.050468  0.049765  0.050207 -0.132933 -0.010795 -0.042705 -0.116218 -0.048042 -0.036004 -0.124636  0.087905 -0.215138
-0.101737 -0.041387 -0.073708 -0.019405  0.066732 -0.049377  0.185112  0.023157  0.085738 -0.085156 -0.117770 -0.083746 -0.023148  0.029028 -0.096868 -0.053589  0.054780  0.072286 -0.003109 -1.024312 -0.051012  0.018104  0.093697  0.013920 -0.099156 -0.023324 -0.023372 -0.066362 -0.045039 -0.020833  0.023856 -0.083366 -0.060402 -0.084166  0.121168  0.159961 -0.030709 -0.128998  0.066163  0.010261  0.038368 -0.263351  0.022772 -0.101050  0.027227 -0.025697  0.059097  0.033694  0.016545 -0.225065
